-1.574481 -0.8589207 -0.06618147 1.9353378 0.32949692 1.3388033 1.3035203 1.1252784 2.6591675 0.49476725 1.1414571 -0.89773405 1.436643 0.05497908 -0.96227574 0.5846457 -1.4817502 1.3859377 -0.26650608 -0.22222495 -1.0220404 1.0040784 0.7296996 0.8675754 2.0412073 1.0841421 -0.31672078 -0.9199041 0.85030824 -2.8951344 1.4433082 -0.8639774 2.7497427 1.8558903 -0.2787461 1.3172876 -1.4360021 0.1273824 -0.9130843 0.18429418 -0.94777924 0.3485483 1.2430053 -0.58240026 1.0095947 0.78302646 -1.4397305 -0.024720753 -0.0060068453 1.080686 -0.29100436 0.44610822 1.4038942 -0.42068666 -0.4595794 -0.029347295 -1.7174563 -0.41426182 -1.3986857 -1.4512168 -1.5946018 -1.174018 0.9915194 0.3096792 -1.0468621 -0.8705362 3.1416721 -0.869238 2.4275842 -0.0014505653 1.3595747 0.7761895 1.2406609 2.443063 2.2276845 -0.714954 -0.8003624 0.13833979 0.63204384 -2.4024832 0.9406242 -0.09572008 -1.6648397 0.98915565 1.8432097 1.182592 1.6668859 3.3545952 0.2975206 0.5631964 -1.9488773 -0.6461409 -1.8732067 -0.58243686 -1.9155864 0.81688607 -0.05282962 0.83825326 -1.1762463 0.28568575