0.33044672 0.48909616 0.37884343 0.70785284 0.36032397 0.3600354 0.42076483 0.38139352 0.016745554 0.29801717
0.2547665 0.2529144 0.26563448 0.45875424 0.22754467 0.21950543 0.20754789 0.18407021 -0.06811721 0.18680461
-0.6125148 -0.622327 -0.35029963 -0.104630314 -0.55575633 -0.33232147 -0.5117122 -0.34022617 -0.6299127 -0.28161138
0.2403817 0.22332759 0.21112855 0.46005648 0.32801846 0.2843125 0.28926003 0.27585304 -0.21888311 0.25877097
-0.050967645 0.19002306 -0.0686996 0.018758876 0.059851006 -0.07283121 0.028792674 -0.09893547 0.17082535 -0.17426702
-0.38869777 -0.4814417 -0.30287635 -0.50048023 -0.34321734 -0.32194343 -0.40349957 -0.36734164 0.1445069 -0.32580116
-0.045423247 -0.35237083 -0.18000162 -0.17387371 0.085526325 0.25891557 -0.02560537 0.0668103 -0.9502194 -0.10260554
0.20424369 0.19150358 0.18530776 -0.07369673 0.18868232 0.20877132 0.056815784 0.012234281 0.80571204 0.3289153
0.0061072973 0.13269645 0.045874458 0.26932526 0.049524806 0.046695605 0.046402536 0.066003986 -0.069969796 0.0045835706
-0.6238766 -0.480475 -0.60267955 -0.17193334 -0.6516389 -0.6540157 -0.50522894 -0.57618874 -0.95357126 -0.6391577
0.27342892 0.32166746 0.1895977 0.27015868 0.3210745 0.22991173 0.28865808 0.35355556 0.0054388335 0.24835202
0.55756074 0.4137495 0.39395976 0.45340598 0.5091592 0.5737194 0.61457074 0.4424444 -0.042484682 0.36286813
0.7424916 0.45864186 0.49755684 0.59534305 0.701764 0.69664615 0.6244907 0.6017525 -0.11917292 0.5582507
0.07639448 0.37581277 -0.005497401 0.08778132 0.056143917 -0.06630913 0.033298563 -0.0021719597 -0.046819873 -0.047234833
-0.36578852 -0.14347436 -0.41334456 -0.7492541 -0.3242306 -0.45660415 -0.47927913 -0.38987425 0.2033691 -0.3317631
0.056851 0.13724135 -0.030433007 -0.35250363 0.10556926 0.02053509 -0.039870612 -0.082225196 0.5806559 -0.027888155
-0.5663134 -0.17410104 -0.47297338 -0.58851546 -0.41229925 -0.3449636 -0.7273346 -0.3405381 -0.40183696 -0.33708245
0.28119874 0.3598544 0.3261875 0.322306 0.21049675 0.18029994 0.3452451 0.29128286 0.47937518 0.2833996
-0.3237099 -0.17558278 -0.2652916 -0.5571151 -0.3153515 -0.3102397 -0.45558286 -0.36285946 0.15197088 -0.3110301
0.34919184 0.22077675 0.20330486 0.5471703 0.4992493 0.49414033 0.34490612 0.36589068 -0.40023026 0.2179413
0.018000182 -0.19555375 0.13845292 -0.053307 -0.04376944 0.031681158 0.044544693 0.03833702 0.33725172 0.08764004
0.35015023 -0.10714404 0.3516378 0.5769856 0.3928062 0.41399357 0.3846199 0.33959094 -0.16848874 0.32053864
-0.35709274 -0.33039367 -0.20082542 -0.18157521 -0.4248561 -0.34098113 -0.35664454 -0.26454523 -0.27246827 -0.14717044
0.28595272 0.56136847 0.27225175 -0.03850286 0.31945515 0.23724826 0.22381522 0.3539813 0.8188138 0.13204126
0.11116716 0.11517202 0.04428607 0.09749941 0.15565361 0.10451082 0.23472863 0.07186459 0.31016153 0.046776004
0.6460214 0.16896197 0.45414534 0.7964932 0.5977732 0.64441 0.70739675 0.5755195 -0.21275637 0.48785406
-0.29007274 -0.4980884 -0.23192284 0.063984126 -0.4178855 -0.3441738 -0.07399946 -0.3749802 -0.7070455 -0.3658023
0.04817943 0.02919377 0.18903802 0.61949754 -0.027931783 0.07983509 0.26196966 0.22255604 -0.06256636 0.16182339
-0.024433477 0.18262017 0.124780424 0.38382617 -0.033956185 0.041530877 0.098544426 0.06830571 0.23631136 0.078946784
-0.040724955 0.23245813 -0.15317562 0.4457495 -0.1309297 -0.36542362 0.08726885 -0.32091162 -0.41041514 -0.23219888
0.15437426 0.14517194 0.05715431 0.32111156 0.10651422 0.040711943 0.20014578 0.04232391 -0.1657887 -0.05332399
-0.49531364 -0.17139058 -0.4140733 -0.82887673 -0.40293714 -0.4551453 -0.5735406 -0.3975023 0.094413415 -0.37398702
-0.21065792 -0.22711988 -0.22718297 -0.59138316 -0.39818475 -0.4011224 -0.49627286 -0.2590447 -0.23957464 -2.4403329e-05
0.29191932 -0.11865349 0.09880136 0.30053216 0.23969579 0.40219924 0.43575945 0.2915709 -0.49366745 0.15733282
0.47107735 0.6056317 0.4754859 -0.015947944 0.50228137 0.52447075 0.4397536 0.5900995 0.9069188 0.63781357
-0.0062134615 0.13251981 -0.119180076 0.06404463 0.033109225 -0.119506285 -0.03636524 -0.05097258 -0.5063595 -0.09003637
0.63435477 0.69368964 0.6926882 0.7047303 0.6219411 0.58466935 0.70243776 0.6540515 0.7507822 0.49102753
0.19113673 -0.10578302 0.22438477 -0.24958172 0.2929299 0.47154075 0.08185282 0.30270267 0.48648256 0.3299092
0.41784132 0.04895274 0.40641743 0.8878721 0.5431194 0.8641364 0.5015731 0.65568817 -0.86185783 0.46578166
-0.027597474 0.50204104 0.020113388 0.29373 0.20214781 -0.016025364 -0.075857595 0.08000952 0.08657009 -0.11829846
-0.029034376 -0.21037237 -0.11178363 0.31561476 -0.07855124 -0.012456095 0.053306654 -0.022158355 -0.58328694 -0.11891875
0.057385635 -0.062533304 0.14826074 0.35934222 0.0044862735 0.12444381 0.10027045 0.13436402 -0.23783217 0.20340954
-0.1046735 0.1709033 -0.0867081 -0.054791436 -0.07391831 -0.13406718 -0.15473957 -0.07963706 -0.15361333 -0.12715696
-0.16277552 -0.13097169 -0.15270038 -0.3950441 -0.005298445 -0.16080672 -0.24935746 -0.28824016 0.14646952 -0.38617197
0.16195825 0.6022988 0.19046645 -0.003328925 -0.027658267 -0.14898784 -0.041959576 0.019847324 1.1109113 0.20439224
-0.095730245 -0.34512308 -0.004569311 0.2853987 -0.0740659 0.009544574 -0.008820161 -0.06017239 -0.47285968 -0.058628004
-0.22717795 -0.30446628 -0.18544443 -0.49918416 -0.19956921 -0.13310447 -0.29681608 -0.18896009 0.050820354 -0.10895449
-0.5628007 -0.79726 -0.64207214 -0.26781636 -0.6574181 -0.64416534 -0.5110761 -0.5586966 -1.0927622 -0.6641534
0.21293049 -0.15095615 -0.05651676 0.07761958 0.12317781 0.19469365 0.24217677 0.14573918 -0.50021946 0.19218233
-0.019724047 -0.092355736 -0.28810576 -0.101337336 0.2811891 0.15016736 -0.030698666 0.010586817 -1.0180566 -0.20167056
-0.13093045 0.08864838 -0.11751814 -0.26464412 -0.08179416 -0.12316447 -0.16482966 -0.079946026 0.248651 -0.19176169
0.6240287 0.5442849 0.6820972 0.7822983 0.72543555 0.90844977 0.63736147 0.79716015 0.4214783 0.61854285
0.15358537 0.40236172 0.027440399 0.21906699 0.16051476 0.015806926 0.22647084 0.05067809 -0.13737594 -0.076568425
0.26708055 0.16601911 0.25976443 0.22028841 0.32651868 0.32010305 0.23994489 0.3396463 0.16668153 0.3630317
-0.19557044 -0.06342222 -0.017159961 0.20429948 -0.18035524 0.007652087 -0.1477168 0.09176148 -0.13850969 -0.089553826
-0.0566123 -0.19906497 0.09869869 -0.118238516 -0.14091565 -0.029213123 0.058032833 -0.033625532 0.51502115 0.03187541
-0.014824666 -0.066375375 -0.20290036 -0.31604367 -0.012723541 -0.07961887 -0.15727217 -0.11599081 -0.2857105 -0.1919242
0.28759757 0.19010948 0.31392074 0.48237178 0.17790005 0.2711653 0.3125752 0.30149066 -0.11529435 0.34027946
-0.2333976 -0.069177195 -0.32511815 -0.8482242 -0.24741602 -0.31966317 -0.37868795 -0.25624344 0.08823942 -0.22260475
0.20228669 -0.17212741 0.20141241 0.2761619 0.13401124 0.25814283 0.27121457 0.19985266 0.13896605 0.35166037
-0.15232593 -0.056908555 0.008141007 0.1273899 -0.11447152 -0.032499216 -0.1195955 -0.011392985 0.09542512 0.053976655
0.010131222 0.17968036 0.03021246 0.63856924 -0.0065356204 0.053163372 0.13135985 0.09657428 -0.63057816 0.05523917
-0.004934391 0.24438022 -0.08710486 -0.086414665 0.04767214 -0.04081492 -0.031219216 -0.049442533 0.102565974 -0.1786018
0.27282184 0.47272944 0.14247112 0.5293845 0.32818022 0.26696134 0.4328744 0.27267367 -0.19162364 0.06271689
0.1577737 0.16268703 0.02265955 0.5951471 0.088448666 0.10335477 0.3382771 0.15053375 -0.42453688 0.08020137
-0.13684948 -0.13956293 -0.15500273 -0.55438304 0.038744576 0.120127924 -0.29719105 0.061508607 -0.14039223 -0.16658042
0.0051711975 -0.36062732 -0.14954743 -0.08312168 -0.02355139 0.0116372425 0.031433474 -0.06786395 -0.4579663 -0.05562698
0.31429502 0.15849844 0.33253634 0.41677108 0.2239119 0.25381348 0.50944024 0.23859885 0.3600519 0.18216269
0.3490091 0.3760117 0.42191646 0.49247423 0.38184938 0.406696 0.2937897 0.4449385 0.08233557 0.4946
0.4024822 0.4706267 0.4290997 0.14322835 0.43034872 0.4062665 0.3094384 0.42568877 0.6878006 0.46416095
0.11230969 0.30642968 0.23737931 0.23959403 0.12698954 0.12897085 0.13699193 0.15116787 0.38996693 0.1349507
-0.44395116 -0.618795 -0.3850141 -1.477828 -0.2960816 -0.124014154 -0.6713968 -0.34799927 0.19382465 -0.43979278
0.7807886 0.28265145 0.6627002 0.5069939 0.89361 1.1295627 0.8673322 0.87326854 -0.16379946 0.5313363
0.27136236 0.34928778 0.2708443 0.24151975 0.351058 0.24884105 0.21718007 0.18930666 0.54629034 0.18203022
0.060400352 0.12480254 0.051882744 -0.0620775 0.022220284 0.047180623 -0.04050196 0.08984175 0.2379496 0.15977564
0.18698983 0.13318911 0.2263657 0.3457353 0.12567185 0.18079613 0.26392502 0.19189873 -0.06031559 0.19542934
-0.24178737 -0.4467464 -0.20224282 -0.22894375 -0.36554602 -0.26367927 -0.170926 -0.2236264 -0.060818806 -0.16872303
0.14530621 -0.12096455 0.11414977 0.37127182 0.12410999 0.1970735 0.21209113 0.12807733 -0.14445513 0.11975797
-0.19327031 0.26197925 -0.08805225 -0.47296622 0.067949146 -0.1748676 -0.31836092 -0.29801914 0.53471684 -0.30714187
-1.2944002 -1.1070421 -0.69122565 0.22252464 -0.72333235 -0.40036756 -0.79617983 -0.60367066 -1.5094687 -0.7901273
0.37398338 0.54446936 0.41166916 0.23036803 0.31683695 0.24807052 0.41156372 0.3329119 0.7889698 0.4119955
-0.06181198 -0.11678502 -0.029174505 -0.64707065 0.04997546 0.059752967 -0.22568765 -0.051883895 0.29147172 0.08028203
-0.106021166 -0.29308966 -0.2734103 -0.93057495 -0.18214215 -0.18280946 -0.318558 -0.21588726 0.23350568 -0.08910077
0.4937635 0.34210795 0.55719763 1.2917371 0.46307257 0.59415066 0.7040452 0.5601906 -0.26279485 0.45636058
-0.053210415 -0.22713795 -0.11498874 0.36531007 0.065802574 0.051221147 0.104364686 -0.01806172 -0.6979786 -0.19089046
0.9128282 0.5314281 0.6854248 0.29460427 0.7011045 0.8160097 0.6766714 0.70356905 0.2528476 0.7595843
-0.078232475 0.016489794 0.0019392206 0.4613505 -0.09153545 -0.08215232 0.045231443 -0.052663427 -0.3073033 -0.048794296
0.18795589 -0.28508106 0.047111366 0.16860576 0.066350326 0.1669362 0.14405353 0.1605085 -0.3772838 0.09983297
-0.30991888 -0.27095464 -0.28399324 -0.30554637 -0.3799043 -0.34851155 -0.21241218 -0.39662653 0.20786136 -0.21430251
-0.025425788 -0.10513703 -0.032575477 0.23144962 -0.04444481 -0.045482963 0.058394223 -0.07379039 -0.3368934 -0.14951843
0.1780499 0.13625689 0.15661001 0.694896 0.038683735 0.066946924 0.22218733 0.15037999 -0.7784262 0.15760365
0.26308534 -0.025480414 0.21274754 0.042094838 0.2555688 0.36326995 0.29612082 0.26194245 0.20003974 0.18977758
-0.28925118 0.05865497 -0.24405651 -0.5452779 -0.2026133 -0.30595523 -0.39896592 -0.3213441 0.160906 -0.33245248
0.14908047 0.22106287 0.24127382 0.24996303 0.21940319 0.2601271 0.22246483 0.20846818 0.2582949 0.22435097
-0.050911553 -0.15188327 -0.026207928 -0.054512676 -0.010265301 0.030765897 -0.10851529 0.0074170604 -0.18123005 0.054214366
-0.2854695 0.0036542548 -0.23506309 0.11897919 -0.41370654 -0.37079343 -0.17064908 -0.2379873 -0.49782857 -0.21670894
0.023662629 -0.04551559 -0.0020317738 0.16980371 -0.05608347 -0.05195932 0.09422059 -0.018409593 -0.1469785 -0.014829285
-0.5080393 -0.49361068 -0.5225748 -1.1666937 -0.268966 -0.32892606 -0.59307474 -0.3454912 -0.15536968 -0.48176858
-0.07450722 0.010304214 -0.08469392 -0.3752947 -0.057860553 -0.08485469 -0.14498666 -0.06098808 0.31284463 -0.004582812
0.11045149 0.14550272 0.0422115 0.09114684 0.16149426 0.14373371 0.18334575 0.13377951 -0.05950274 0.20031969