0.5198047 -0.6525239 -0.027890865 -1.1077286 0.5661613 -0.68588734 -0.94265217 -0.515757 1.6766129 -0.7394445 0.2172642 0.6788392 -0.054547295 1.2306836 1.1804302 0.51921505 -0.42334768 -0.8091931 0.75834364 1.3520544 0.74952877 -0.78815866 -0.67127025 1.8008771 -1.1403034 -0.022939734 -0.81398714 -1.2512956 1.4365038 0.76944065 0.013429602 -0.53946084 0.35934812 0.49909377 -0.024955478 -1.4092221 0.05185408 0.64204127 -0.64194083 -1.0084611 -0.05868083 0.08602407 1.1918687 -0.4669992 -0.5332595 -0.79792523 -0.6906392 -0.79947275 0.37393245 0.60682297 0.49453548 0.42761475 -0.24808393 -0.09619334 -0.11167815 0.3560632 0.67451507 -0.7305935 0.68916154 -0.7423978 1.3967923 0.6706551 0.4025546 -1.3828703 0.17688583 0.061330855 0.12298207 0.6141569 -0.9253723 -1.6476716 0.21811306 -0.06629901 -0.31612462 -1.4087462 0.6805345 -0.2817256 -1.0530716 -0.81565386 -0.34349993 -0.3277458 -2.308331 -0.27534544 -0.35601118 -0.34744093 0.8772538 -0.13777046 0.49807504 -1.0531994 -0.36789453 -0.55450463 0.40227455 0.03571436 0.9503466 0.8876402 -0.19368875 0.03696016 0.097492516 -0.01694677 -0.94817525 -1.3972534 
0.3387924 0.17291068 1.2167718 1.0128634 0.4575109 -0.40507928 0.59644496 0.041986518 0.28092295 -0.75318015 0.11937659 -0.62779725 -0.74662083 -0.66836685 -0.1701513 -0.09501259 0.1008211 -0.067520246 0.06356551 0.60060674 -0.50980467 0.90659654 -0.9015312 0.20734319 0.44603932 -0.67274743 0.47222534 -0.41173846 -0.04781491 0.0031955636 0.41971934 -0.5275614 0.13787557 0.47275022 -0.14778294 0.32231745 0.43388188 0.8574772 -0.4474529 -1.2832377 -1.6353182 -0.4901558 -1.6621822 1.3037865 0.12553109 0.878967 0.5971906 -1.6795003 -0.36785638 -0.92930984 -0.30735984 -0.53060657 -0.1134184 1.1218629 0.96850824 -0.7995314 0.44364765 1.224607 -0.610396 0.8832888 -0.46391267 0.9100106 -0.509637 -0.21052222 0.20097072 0.41066864 1.0790887 0.52516013 0.88000745 -0.45429647 0.8630142 1.0879818 0.18654566 0.052165423 -1.4886888 1.0984015 0.33363837 0.84559727 0.106329866 0.15636772 0.8409476 0.3481213 -0.051255737 -0.17199716 -0.8466623 0.04942161 -0.25147906 1.5726473 1.0098183 -0.059746414 -0.64020926 0.26215386 -0.68521553 -1.0712957 0.38222808 0.62140244 0.3525495 1.5272701 0.29827982 0.07510023 
-1.2240958 0.025263395 -1.088332 0.44240046 -1.6804115 -1.2735808 -0.21251477 -0.2503783 -0.17987923 -0.13939811 0.18483509 0.07050599 -0.08081367 -1.3008531 0.94844645 0.8689198 0.12903045 0.23026498 1.200562 -1.0425663 0.04040348 0.085978456 0.30582154 -0.42260602 -0.25400573 -1.5162184 0.6655064 2.4707317 0.21636754 1.1012795 0.6011291 0.048645947 1.5331622 0.7697305 0.2699989 1.2924031 0.4027269 -0.19054037 -1.1646035 0.9950061 1.6517967 0.4897518 -0.43845078 -0.11657305 -0.71156555 0.5708565 1.0498617 0.033399332 2.1073635 0.7177832 -0.41919437 0.17025398 0.7627033 -0.030090393 -0.124283716 0.0631378 0.44667244 0.6374743 1.2323989 0.42399114 -0.63569593 -0.3404091 0.12969431 0.45070055 -0.09026987 -0.66490424 -0.7583739 0.54804546 0.13533954 1.5851324 -1.1026635 0.03823348 -2.1317878 0.9244237 1.7395877 -0.07007884 0.16329233 -1.2498877 -0.08130358 -2.6753845 1.2347726 0.43734598 -0.44524595 -0.689971 0.9456335 -0.628758 -0.6515689 1.4316955 1.5267502 0.8126098 0.9340344 -0.7501937 -0.845177 -1.2735064 0.08737044 -1.5702702 0.9033871 -0.9973997 -0.084940664 0.18689767 
0.9733738 -0.060824245 0.9407717 -0.77350414 -0.81934637 0.15343393 1.3125336 -0.45740724 -0.9260359 -0.11101823 0.19694686 0.2851912 0.46429935 0.9912446 0.37162074 -0.5631968 -1.0193924 0.0068398574 -0.1441178 -0.1445803 0.16667517 -0.33795327 -0.50910836 1.0654892 0.54309976 0.35755783 -0.1205663 -0.081869155 -0.7354524 -1.7504567 0.301249 0.777797 -0.6640792 -0.8367907 0.16208756 -0.7390481 1.4420924 -0.017355286 0.72004706 0.11039388 -0.33727232 -0.90443426 0.26887032 0.09996584 -0.6675145 -0.60753804 0.8566671 0.3808429 0.4944311 0.22809967 -0.03149301 -0.08864303 0.010775713 -1.9733845 -0.4771241 -0.62336373 0.17027637 -0.12567753 0.9858183 -1.48347 -0.39597288 0.31677443 -0.20671852 0.60431176 -0.24736029 0.7056185 -0.582422 -0.5934883 0.7977276 0.021771718 -0.97404027 -0.7951037 0.47058234 0.33586055 0.3128006 0.4490426 0.0922088 0.4573442 -0.6459865 0.31340256 -0.5888256 0.27882922 -0.39178512 -1.8690463 -0.22957574 0.9488998 1.0905259 -0.3583365 -0.18148644 0.10927342 -0.14631398 1.8981078 1.5474807 -0.5479466 0.35588506 -0.5486739 -0.51899594 0.73153514 0.5410453 0.09817938 
-0.02707032 0.3240439 -0.7683388 -0.11238506 -0.55127555 -0.5226315 -0.40482908 -0.5296752 0.3046112 -1.3424777 -0.5632664 -0.8195227 0.1932934 -0.21237342 -0.04869021 0.6947473 -0.2706984 -1.0387677 0.039635736 2.3619423 -0.6054777 -1.330625 0.5587467 -0.18755126 0.9560752 -1.5214868 1.0264115 -0.93065315 -0.6323639 -0.3783674 0.83184886 -0.07306816 -0.6851886 -0.48262647 0.10875538 1.1516042 0.53308237 -0.6714472 1.8716782 -0.4677823 -0.17274113 0.13024549 0.48024258 -0.61467 -0.30303997 -0.2923932 -0.2607477 -0.6337981 0.18844369 -0.8523598 0.85987324 -0.37711203 0.27176008 -0.10271037 0.28441888 0.29119718 1.7077998 1.2940148 -0.80948883 0.35263348 0.4976597 -0.5811623 1.0577993 -0.84721553 0.5393732 -0.19334972 -0.036605626 -1.8036269 0.8964308 0.16123174 -0.07165043 -2.3420005 0.64475626 -0.302834 0.36186314 -0.44654426 -0.28392035 -0.5980363 0.82102054 0.9363459 0.60110027 0.2558862 -0.7947863 -0.45634142 0.23949087 1.2367463 -1.6368786 0.07948995 0.5362909 -0.54729205 0.4306741 0.2722212 0.8006969 -0.5535857 -0.31329745 1.0702928 0.42289263 -0.371029 -0.45101178 0.38222143 
-0.38029748 -0.18966128 -0.6524309 2.3271036 -0.71923894 1.7678463 -0.9865885 0.24917404 0.31538862 -1.0421304 1.0245553 -1.0314987 0.70501935 -1.0577695 0.063715175 0.6564921 0.04170778 -0.3716949 -0.16580749 -0.97318965 -0.5162197 0.71777594 -0.5872114 -1.5215288 0.08470657 1.1146358 -0.053641155 -0.0824233 0.49213538 0.530676 -1.1178923 -0.3018574 -1.2898309 1.6818722 -0.9299234 -1.0337925 1.488362 0.90410775 -0.063716434 1.1597631 -0.52977616 1.0217637 0.43922657 -0.6409891 -0.5221953 1.0779706 -0.45014623 -0.72349185 -1.0465188 1.0646523 0.6067437 -0.6427837 -0.07404078 -0.67073244 -0.078746244 -1.1793606 -0.76280344 0.3442136 -0.9201659 0.77774936 -0.9336738 -0.45833528 0.39976522 -0.2537736 0.8358128 1.1171817 -0.043061674 0.04707723 -1.3739908 -0.41381225 2.141221 -0.54845834 -1.5036756 0.86310434 0.22038919 0.72100323 0.15018333 1.171862 -1.3974477 0.20435384 -0.009728373 -1.2683871 -0.06051493 -0.60482496 -0.7676012 -0.2767477 -1.7227274 1.5829104 0.3376229 0.82245934 0.45979944 0.9101609 0.50860083 0.6371284 -0.8480738 -1.2416918 0.063073665 0.7939187 1.0825297 0.16898756 
0.1250686 -0.34939855 2.0173578 -0.61183065 1.3667881 0.634801 -0.67299986 -0.59180796 -1.7848681 -0.39895147 -0.63100046 -0.27339256 -0.80959755 -0.36135712 0.5968453 -0.5544791 2.306583 0.605388 -1.1999177 -0.4584582 0.87914884 -0.42987427 -0.55777746 -0.5255856 -0.64702505 0.16991536 -0.66979104 0.3597599 -0.2960532 0.3569441 0.3811546 -0.08185623 1.3515748 0.855291 -0.19887377 -0.74643797 0.8347293 -0.44409043 -0.30640256 0.36242783 0.6671111 -0.6977461 -1.5606741 -1.5900389 0.52126503 0.24609545 -1.0865072 -1.7243891 -0.35551366 -1.0174007 0.17842226 -0.18122174 -0.33239782 -0.69485754 0.9963817 -0.58622724 -0.44518727 -0.84896594 -0.45767093 -0.0301061 -1.5375477 -0.15969318 1.1011721 0.7373313 0.6624934 -1.5790842 1.0803343 0.27168098 -0.2805727 -1.666633 1.7428148 -0.53177553 -0.9789402 -1.6152055 0.8978837 -0.047438074 -0.06482337 -0.1622069 1.1329676 -0.1287449 -1.6336725 0.5129641 0.39142677 0.6388679 0.21892026 0.101947494 0.93635315 1.2045478 0.17044078 -0.9217285 -0.783966 -0.068574205 -0.30538458 -0.4110915 -0.19562721 -0.20067084 0.2130026 -0.6541211 0.19402215 -0.47321534 
-0.8560257 -0.61362344 -0.6749275 -0.6922622 -0.3521568 0.5521013 0.97186846 1.1256406 0.62414503 0.6177251 0.74717015 1.6785549 -0.48891225 0.3258955 -0.89376235 -0.27916116 1.0190164 -1.3531649 -0.022638882 1.8481114 0.046493832 1.7064447 0.041826546 -0.4152323 -0.788535 -0.6144989 -0.09460692 0.7743427 -0.57065654 -0.39181134 2.1461473 -1.6306467 -0.6697318 0.09894113 -0.13470848 0.41367486 0.80381554 -0.47125983 -1.5400581 0.6967031 1.6244764 0.20539503 -0.6831608 -0.8388836 -1.9947501 0.74500704 0.35313776 2.1516955 -0.61057603 -1.0456169 -1.0174196 0.7314176 -0.23844326 -0.9562179 -0.085622005 -0.44154215 -0.3546184 -0.88308805 0.13440679 0.45011336 1.0412447 -0.385713 0.69681114 -0.42568767 -1.240301 -0.7592737 0.46827796 0.030162685 -0.57668334 0.17079557 1.9187646 -0.8148604 -0.22463506 -1.5440911 1.0067941 -1.775858 -0.6387991 1.2826872 -0.3620082 2.8831997 1.9216307 -1.0229219 -1.6359713 -0.5929664 0.13923216 0.98572004 -0.3014821 0.3761672 -0.75359946 -0.1060739 -0.3623589 -0.008445102 -0.35034665 -0.037774354 0.33893046 1.5940367 0.42740846 0.75786495 1.0262831 0.19198701 
-0.6343185 -0.17176422 1.1575514 0.108476475 -1.214127 -0.43226704 -0.13051845 0.27259967 0.17634997 0.2195873 -0.34047768 -0.90672296 0.25334692 -0.27357975 1.236595 0.024070226 0.4144358 -0.86990565 -0.5735975 0.06277991 0.30649385 -0.51613414 0.75246346 0.88167626 -0.28349355 -1.1659452 0.07209264 -1.220113 -1.0110476 -1.8398345 1.2279018 0.8697536 -3.3075354 -0.44094184 -0.1442027 -0.092253625 0.024760941 -0.8822699 0.4350563 -0.51029664 0.27220297 -0.96422994 1.1368088 -0.20600367 -0.9116762 -0.9526464 -0.043113824 1.0591213 -1.5048273 0.4470674 -0.1792691 -1.8254287 -0.5658757 -0.86578524 0.16943005 1.6951532 -0.002966829 0.6123828 -1.0112046 -1.5886538 0.8293001 1.1613575 1.1321646 -0.57338923 -0.15454705 -0.4256457 0.7567141 -0.6953811 -0.6025642 -0.33754358 -0.050520778 -1.967642 0.20208277 -1.4906429 -0.9014995 -0.19741845 -0.9229659 -0.0468427 -0.68704206 -0.33366087 0.7110819 -0.32851842 -1.0061573 -0.36239967 1.9650557 -0.8038523 -0.5369274 0.19670314 0.90517026 0.54755276 -0.36858797 -0.28189924 1.6008899 -1.8821865 -0.93717414 0.36732504 0.7107432 0.9864455 0.8365653 0.38311455 
0.20414071 -0.5057951 1.2134721 0.86822116 -0.281578 1.4418193 1.6644921 -0.2876057 -0.4633154 0.46617588 -0.6849282 -0.8015828 -0.8047628 -1.1508318 0.59745866 -0.33966732 0.21666569 0.17477995 -1.2150733 -0.25218984 -0.89004093 0.8670728 1.0487126 0.4789617 0.8579477 0.5954472 -0.6976948 -1.0738808 0.5827491 -0.29414243 0.50570333 0.28283983 -0.94922113 -0.50069296 -0.6734875 0.48648223 0.44964156 -1.2254899 0.28917253 0.46785128 -0.33561972 -1.066386 -0.41567647 -0.36068588 -0.8579566 -0.56450427 0.027841333 0.65769 -0.4048192 -0.4395883 0.52986616 -0.28569242 -0.9334236 0.20453227 -0.7318925 -0.9908462 0.24020532 -0.68715304 -1.6223637 0.55366707 0.6248624 -0.24295442 -1.2391059 -0.87870944 -2.009483 0.66886777 1.6688485 0.40976983 1.55936 0.69369304 -0.10071461 -0.80156606 0.29047847 0.15491869 -0.1867727 -0.2851177 -0.26441485 -0.68004704 1.2493943 0.0938184 -1.1168565 -0.10940583 -0.48889995 0.0090029705 1.0593382 -0.33696592 -0.0790645 0.0039420794 -0.8394939 0.99054515 0.60587925 0.84076285 -0.12330329 -0.22806078 -0.39612386 0.86070555 -0.6051118 0.484754 0.905662 0.29773265 
-0.9668564 -0.12538517 -0.40039265 0.07838791 1.1589239 -0.38295922 0.12174547 1.1829052 0.96293646 -0.81194717 -0.87108463 0.50029325 -1.0069045 0.23577714 -1.2451155 0.8648437 -0.08590154 -0.4079425 -1.2703027 1.278023 -1.2203028 -1.2455041 0.9812008 1.5134896 -0.8632983 -2.4060946 -1.5158368 -2.3697677 2.9720073 0.23903364 0.19228826 -0.84269243 0.8586384 -0.95109785 1.079607 -0.85237056 -0.7171819 -0.5766935 0.9033518 0.7591244 -1.0133082 0.50733775 0.31864494 0.5842662 -0.08928357 0.40841317 -0.6333172 0.14434709 1.248698 0.15653618 -0.14684898 -0.933612 -0.05715843 0.9081719 1.4085119 0.59743744 -1.2987545 -0.17537013 0.96897334 -0.42111063 -0.79766303 3.0810874 1.3624182 0.41658542 0.50275636 -0.078912854 2.5473852 0.6569542 -0.52961284 -0.7907699 0.50955254 -1.5444211 -2.437253 -1.2714243 1.1478428 -0.78316504 0.41805318 -1.3999447 -0.6746876 -0.024372073 -0.48157433 -0.13922377 -0.70842224 -0.5049948 -1.6270527 1.2406185 -0.60844684 -0.05674482 -2.0556583 -1.0930295 -1.0175136 -0.93672925 0.49814337 -1.1674688 -0.61474556 0.7445846 -1.1254977 -0.58035254 2.2523336 0.41893953 
0.35255286 0.9761606 -0.34687015 -0.33453357 0.24351795 -0.813872 -0.9266771 -0.522251 0.30561712 -1.3075441 -0.4336315 0.82805014 -0.2615097 -0.29817668 0.31258175 1.1525656 0.75686896 0.5868947 2.1048324 0.42099723 -0.08792199 0.7333883 -0.7459858 -0.962685 -0.21556616 1.9199814 -0.7139184 0.5999742 -0.5589993 -0.33139232 0.101195365 -0.580568 0.7983723 0.27774617 -1.1200475 -0.14200513 -0.042302825 -0.35245594 -1.3686142 -0.2020125 0.6950656 -0.8432641 0.28725424 0.570512 1.0631696 -1.2909317 1.1134217 -0.27372456 0.39424172 -0.84378713 -1.0343826 -0.52637976 0.05445007 -1.104987 0.54245067 -1.1982467 0.6299865 0.30032614 0.05002719 0.43883896 -0.6649027 -0.860667 -1.344549 0.2951578 -0.6148919 -0.041896615 -0.22486986 -0.41617712 -0.7862656 0.3384308 0.17613077 -0.8279924 1.9828781 1.1018136 0.33795312 1.9303286 2.4771335 -0.038445868 -0.2952525 2.0980265 0.33008623 0.5727184 1.0716548 -0.9472859 -0.6083984 -1.3468033 0.072297305 0.696872 1.1450672 -0.29172915 -1.1642169 -0.39847222 -0.73379034 -1.0124009 0.17912892 0.4967388 0.08335479 0.5686504 -2.0110826 0.28619602 
-0.40012345 -1.254973 0.21863176 -1.079041 0.7103668 1.4478173 -0.2569248 -0.36951464 -0.80975455 -0.23925303 0.016199714 0.3573554 1.370947 1.9092525 0.48792967 1.1776439 0.2654074 -0.3325261 -1.3837708 -1.2074566 -1.0898343 1.0371872 -0.24503618 0.90470177 0.42419538 0.66996163 1.4452484 -1.3590356 0.6227387 -1.1474489 0.7783844 0.28993702 1.21608 -0.826346 0.38541043 -0.37219495 0.020532366 0.68398875 1.8579681 0.6980928 -0.13380611 0.55885315 -0.8759384 0.14273247 0.19248277 -0.25309926 -1.2471992 -0.8025001 -0.78815085 0.3059105 -1.4406496 -0.43135726 -0.2647705 -0.97795635 -0.07379019 -1.3720437 0.760867 -2.7455556 0.3838897 0.57879186 0.28737268 0.4570961 -0.12221868 0.5208146 0.96049947 -0.91236806 -0.38791057 -0.18836363 1.0047827 0.25609383 0.072121575 -0.60446644 -0.010934404 -0.33439252 -0.3803006 -0.822053 -0.6352009 0.68940353 0.52237254 -0.22525366 0.5284264 -0.29117334 0.08034573 1.3663827 0.5212761 -0.57641965 0.7486646 -1.1872568 -0.31422627 0.62657547 0.8531608 0.71041334 -0.7875891 -0.9646161 0.32085243 1.083466 -1.1400832 -0.60309124 1.3526663 -0.54173946 
-0.7763937 -0.123885706 -1.0437634 0.5600278 0.23551594 -0.7560124 0.074596986 -1.103943 0.8743137 -0.10210297 0.4596491 -0.053307045 -0.05604016 -0.9742394 0.52755886 -0.76320666 -0.1721719 -0.048466235 0.19244555 -0.7274411 -1.3627311 -0.13330585 -0.55336934 0.35805863 -0.43173766 0.29804367 0.57984143 0.86529934 -0.023306726 -0.026734306 -0.3804157 0.2961249 0.64864814 -0.8708975 -0.17917818 -0.75856894 0.11609827 0.86893314 -0.1050118 0.7959055 1.0725657 -1.9240309 0.5273073 -0.07486444 -0.30039647 0.7911079 -1.0692295 -0.2935592 -0.59547675 -0.61168176 -0.371248 1.0120963 -0.7765796 -0.48701409 -0.9218784 0.058900107 -0.44825837 0.85443944 -0.7749887 0.4334066 -0.10204516 0.63663155 -1.8156033 -0.32480723 1.5605702 -1.4198215 0.52497905 0.64021486 0.24260542 1.3654236 0.71212715 -0.032328743 0.6302136 -0.34573734 0.5298594 -1.2158164 0.23191927 -0.9988459 -1.0662482 0.48717147 -0.45189086 -0.6075525 -0.7394354 -0.452732 -1.9559052 1.1182373 -0.22813363 -0.044912875 -0.06804993 0.3583683 1.773406 -0.31960204 0.5007677 -0.33924192 -0.6854994 0.28025198 -0.33620623 0.22881316 -2.2329152 -0.49109527 
0.17875768 0.6601875 0.1589338 -0.65073323 -1.0272781 -0.5742985 0.496911 -0.74350154 1.7475843 1.454431 0.37812248 -0.92104965 -0.5303257 -0.30259436 0.41929817 -2.5920942 -1.5290197 -0.8944083 -0.17005849 0.2939584 0.5773484 -2.0238907 0.16283788 1.0032912 -2.0722818 0.50408125 0.5305207 -1.3494654 -1.5294427 0.20550552 -1.2050993 0.50805813 0.047941465 0.76252574 1.5590264 -0.58207226 -0.6353359 -0.25561595 0.014544886 -0.03666862 -1.3168172 -0.37700266 -0.4673214 0.9841091 1.2095052 0.876231 -0.42436895 0.21486539 -0.44073388 0.4484305 0.69829977 -1.5585773 0.3462401 0.942037 -0.1762194 1.799688 -0.25473747 0.27416235 1.680886 -0.5461926 0.167147 -0.040300384 0.05658692 0.44732392 0.044279024 -0.8840452 1.4553492 0.6454943 1.1572707 0.15913455 -1.2369771 -1.8830974 0.49148402 -0.6854789 0.2816224 -0.48345384 -0.43439022 -0.90648 -0.057256963 0.7583053 0.08521748 -0.59856623 -1.3907583 0.88961524 1.2535936 -1.771831 -0.6356923 0.22100563 -0.15474659 1.447007 -2.2864063 1.8046268 -0.20960021 -1.9534329 0.5084354 0.09189716 0.71447635 0.32423398 -0.45349976 0.22967228 
-0.63026446 -0.53188705 -0.15891723 0.18917264 0.62234807 -0.7553228 -0.6222757 -0.025084069 -0.2177795 0.4110864 -0.47088385 -0.6176218 0.1720582 -0.34851712 0.6573681 0.49530566 -0.85924506 -0.7932939 0.86846286 -0.6100143 -0.3736794 0.56579405 1.2127911 -1.1822281 0.27521148 -1.1269658 -0.74022746 0.057153217 0.20580319 0.6798272 -0.5442471 1.3874984 0.56629777 1.5579439 -1.6112726 -0.3987736 -0.78225356 -0.24581127 -1.2683434 0.13116404 -0.8486957 0.39616582 -0.52096826 -0.03639442 0.7487834 -2.0488315 -1.0513792 -0.81813604 0.7352135 0.75082165 0.12023929 2.3825674 -0.6065964 0.11609979 0.35814202 0.5164058 0.3884499 0.104002625 -0.6829085 1.0095701 0.2657583 0.36870497 -0.38970116 0.52151746 -0.41018373 0.32339343 1.3107765 -1.182178 -0.4551269 -0.011948676 1.7346023 -0.124028295 -0.55679506 -0.43925893 -0.008416806 0.070593044 0.10940918 -0.0083453385 0.25550553 -0.93434715 1.7116494 -0.5951057 0.05748116 1.2336601 -0.008877342 0.7914225 1.7169266 -1.2432758 -0.09825466 0.3288347 0.6797328 0.20959547 -0.3152141 0.34862477 0.64462054 -0.0034858822 -0.5334343 -0.35259104 0.41533855 0.32499728 
0.09395336 0.50050837 0.8309825 0.93024594 -0.42505917 0.44502908 -0.025653552 -1.3143809 -0.47793642 0.112516865 0.17131115 -0.9937426 -0.34687838 0.17309569 -2.2057092 -0.27416712 0.9235985 0.08401867 0.1949433 -1.1807643 0.053012513 0.6232514 -1.0266476 0.5347865 0.8012024 -0.23900025 0.4046564 1.2576677 0.52947813 -0.8822097 -0.33167958 0.8329661 -0.017064292 -0.92121226 -1.2539458 -0.046895627 -1.4644468 -0.5126281 -0.79142684 -0.6229413 1.4734379 -0.62542945 -0.012379698 -0.5143004 -0.86355776 -1.2465719 0.2743691 -0.49864388 -0.1715191 -0.3678541 0.29236177 -1.0053806 -1.4708998 0.3490647 0.88211036 -0.15803364 1.8732263 -0.31223354 0.9303585 2.2568762 -1.016312 -0.026089609 -1.3035151 -0.06984201 0.45855978 0.3639978 0.4768142 -0.25384653 -0.8188472 -0.4972077 0.7905701 -0.330186 -0.25473323 -0.3135351 0.18617234 0.4803727 1.3254623 -0.65476733 0.37078166 0.067207135 0.6004211 1.266235 -0.6631735 -1.3245891 0.48776728 0.8070674 -1.5850039 -1.2480539 -0.8469091 0.4179061 -0.2849282 -1.2552463 0.21309881 -0.22412239 -0.55845046 -0.57405967 -1.1291494 -2.1556659 0.55770826 1.3936638 
1.490264 -0.21177989 0.60519373 -1.0712253 -0.6398947 -0.8234 0.34383333 0.06151084 -0.68817353 0.36336467 -0.56435144 0.121390305 -1.2140398 0.7280903 -1.1468161 -0.68929213 0.040177174 -0.93708134 0.7646023 -0.42388564 0.3255779 -0.08531536 0.72064245 1.0485501 -0.28200337 -1.0226557 1.529336 0.6727054 0.60861534 -0.0053426875 1.5838165 -1.4096911 1.1677344 0.39757475 0.22502764 -0.72722775 1.6931076 0.76566404 0.48404264 0.2540498 -0.8732415 -2.484712 0.3932188 0.37198126 0.5490812 0.03003434 0.00032239783 -0.026939599 -0.08161389 -0.44569746 0.9903252 -0.70761496 0.9780018 -0.14835867 -0.004104197 -0.75269395 1.3535659 -1.4464476 1.4014792 2.3345141 0.042616315 0.2196125 -0.73196197 -1.9194907 1.3337816 -1.3510668 0.05482282 0.15201807 -0.011418178 1.4268587 0.4206647 0.5482095 -1.851763 0.8403729 -0.5528725 1.560648 0.4249676 -0.8420412 -0.6298586 -0.4279343 -0.68194765 0.33281606 1.5217471 1.556084 0.21871053 -1.2500288 -1.9240667 0.33960164 0.9208694 0.43934184 0.12540545 0.85693014 -1.0401863 -0.73948383 0.9006231 0.34420604 1.3617852 1.4340222 2.4251375 -1.4812578 
0.027205544 -0.36681238 -0.29290426 1.4620835 -0.10915701 0.3709703 0.9636822 0.15697543 0.10571992 0.34429008 1.0431199 -0.23081852 0.88278687 0.32871357 -0.8813845 1.347707 -0.15095384 1.2222527 -0.41015998 -0.36578044 -0.13535286 -0.98096955 -0.56676775 -1.8226111 1.3585142 -0.91982454 0.76112324 -0.35241827 -1.2291553 -1.3688968 0.016315002 0.46890587 -0.8968635 0.08958793 0.37625453 -0.4659515 0.13041452 0.194028 0.7891849 0.22627494 0.09715753 -0.67346126 1.7046674 0.37817952 1.4367799 0.51741457 -1.3583176 -1.290175 0.0649482 -0.27254382 0.66926146 -0.9204052 -0.97854036 0.16860902 1.122712 -0.23224725 -0.2226158 -1.3561234 -1.0707246 0.1783031 0.017812379 -0.03679475 -0.64465976 1.4149745 -0.13657983 1.3190314 0.42962995 -1.4993654 0.16053154 0.25611225 -1.0972664 0.33227572 -0.11270205 0.32284296 -1.3168876 -1.0202059 0.37609467 -0.67111725 0.06462341 -1.7874773 -0.8387512 -0.28570104 -1.4256984 0.13950105 0.21565586 -0.09390117 -2.036268 -0.056415714 0.7854305 1.8027167 -0.014576309 1.5860035 -0.17862591 0.44695264 1.0306541 -1.0361241 -0.37594938 -0.36995742 1.7079872 0.6744532 
0.107876234 1.5003946 0.3962566 -0.27543643 -0.08897422 0.75682354 0.35004228 -0.9927223 0.6692258 -0.2948533 -0.1564194 -0.1690973 -0.5896958 0.2394264 -0.90919816 1.1426471 1.1417278 0.5264167 -0.734835 -0.26091462 0.9348261 -1.9066745 0.23282683 -0.5745969 -1.4830879 0.5544113 1.8311291 -0.4301747 -0.3440202 1.1167221 0.3703356 0.17352255 0.43449563 0.7952372 1.1254556 -0.021431813 -1.229742 -0.8539213 -0.97488564 -0.39892614 -0.1959193 0.053402364 0.29737782 -1.737911 0.9001935 0.3382935 0.018755088 1.4516093 0.3555352 0.39639854 -0.39589226 0.32570505 0.5326251 -1.1196214 1.2578247 -0.5581671 -0.18067315 0.54572207 0.3721383 -0.41946682 -0.71520185 -0.97478867 0.633025 -1.44243 -0.64781225 1.2737565 -0.886451 0.044914644 0.731747 0.4961038 -0.04159618 2.4744954 0.59701794 -0.52209264 -0.52595615 0.6124897 -0.1927723 -0.8097204 -0.081208944 0.5234287 -0.33474007 -0.44495568 -0.8837849 -0.5467512 -0.4423508 0.07438487 0.63955075 -1.6544759 0.40373644 -0.39372033 0.14715134 -0.7264117 0.51443493 -1.1843681 -0.08864575 -0.27221632 0.8844333 -1.4738796 -1.1454206 0.49027786 
0.8923603 0.9179288 -0.5938769 -0.23039688 0.13895084 0.7347615 0.3010719 0.21693411 0.4776607 -0.02187943 -2.0161319 0.12229832 0.046495967 -0.5714824 0.9392141 0.059949376 -0.7276475 -0.6429166 0.0012427662 -0.14759618 0.3982673 1.3145452 -1.0522689 -0.3405854 -0.07344454 -0.3516533 -0.970227 0.3727079 1.4948354 0.5832684 1.8302914 -0.19586244 0.2275918 0.60252357 -0.34542897 -0.0020429 -0.16772658 0.56195253 0.42203593 -0.017611595 0.022289809 -0.70513076 -0.5280066 -0.184289 0.3984498 -0.12586822 -1.0070814 -0.5865111 0.7495481 -0.15483184 0.114594705 -0.52827585 -0.44707528 -0.25050527 -1.3361377 -0.88913417 0.75753987 0.572382 -0.19956714 0.22183824 0.92362297 -0.5255375 1.8364605 -0.19907123 -0.8482674 -0.19348465 -0.35674036 0.75269336 0.5087145 -0.051967315 0.9189222 0.50045013 -0.17321534 -1.2774025 0.026750125 -1.9292654 -0.36873397 1.5135403 -0.5583222 -0.87193483 -0.51192266 -1.1690062 0.18210673 0.096009724 -1.1113067 -0.30358604 1.5852633 0.3654798 -0.41920903 0.37532213 -0.3420148 0.18906462 -0.8084676 -0.26674035 0.4948086 0.367019 -0.02200791 -0.62674916 0.2762805 -0.2718545 
-0.6604343 -1.4291813 0.59005237 -0.51615876 1.4985168 0.37314424 -0.5542515 0.01972096 0.21914585 0.0762977 -0.82783675 1.8380673 -0.13246691 1.0626197 0.8306079 1.0194759 0.6833496 0.3880829 -0.91684914 0.0722754 0.43047222 -1.1378483 1.5018624 -0.16736421 0.9539636 -0.8773433 -0.9590569 -0.21664432 0.08027082 -0.94496626 0.12287241 0.3396096 0.26888534 1.179736 -0.607525 0.85220677 0.11878718 -0.20293957 0.5202094 -0.6272875 -0.30321306 0.60827386 -0.30298054 0.3082196 -1.0667405 0.16893204 1.0928348 1.2438016 -0.11899393 0.6831587 1.1736124 0.29117382 -0.35928726 -0.76637536 0.47914746 -0.023597775 -0.34027812 -2.169122 1.4800364 -0.7204904 0.6723937 -2.1357164 -0.3737562 -0.4237127 -0.6231441 -0.10501398 -1.8333299 -1.0932676 -0.73174715 0.44271174 1.9370987 -0.5331858 -1.4619709 1.3884853 -1.1450133 -0.7432304 0.54227245 0.4540584 -0.7830236 -0.5592695 -1.548306 -0.09959004 -0.01861647 -0.09729126 -0.6814492 1.2274177 -0.52436376 -0.14261544 1.33282 0.08218427 1.0370764 -0.7154395 0.9027575 0.03807102 1.5114492 -0.19386917 0.2931516 -0.046466276 -0.057910144 -1.1813987 
-1.6556324 1.8739176 -0.01682837 0.23887226 -0.8817502 -0.33876115 -1.4417443 0.9469316 -0.21341047 -0.6951399 0.19038947 -0.20621957 -0.09729729 -1.4215586 0.6686573 -0.65626913 0.5815801 0.34008387 1.4863571 -0.44225872 -0.319745 0.151305 -0.8397707 -0.62312657 2.0750682 -0.14395636 0.4733775 0.84732884 -0.23280983 -0.07177075 -1.1550955 -1.0321045 -1.2244483 0.5470286 0.34267542 -0.011822819 -0.31345809 -1.4733801 -0.7352215 0.5018604 0.19744101 -1.3096608 1.5010217 0.7065526 -0.24721833 -0.78361976 -0.14341918 1.0467424 1.3590393 0.64237046 0.1026948 -0.010543794 0.95958984 0.3669296 -0.5498072 -0.94818336 -0.15723062 -1.0492558 0.14140877 -1.33048 -0.5147202 0.29501453 -0.98038286 1.226918 -0.6088225 -1.4784156 -0.11574328 0.5318982 -0.690282 0.3180064 -0.31840846 -0.20101167 0.7638326 0.25004652 0.4069796 -0.8006659 0.24996245 0.36924565 -0.919373 -1.4515405 0.18230362 -0.06841698 0.054962132 -1.0195552 0.26174495 -0.4674984 0.251575 -0.15377201 0.28473204 -0.31908765 -0.37201372 0.29086342 0.58476067 -0.3469177 -0.092497714 0.29766768 -0.7157577 0.5338466 -0.6137215 -0.18532428 
0.19139655 -0.9617771 -0.12623334 0.1459643 0.31241116 0.71578544 -0.57833964 -1.2600704 -1.8108566 0.93191236 -0.50229305 0.42044252 -0.99592805 -0.9076273 -0.21245787 0.53388876 1.0574679 -0.37656555 1.812716 0.23082326 0.10763959 -0.64791274 -1.0279819 -0.6200773 -0.15832093 -0.4691439 -0.18039224 1.1820678 0.362318 -0.71586835 -2.0143106 -0.9090194 -0.40926653 0.5868449 0.6329767 1.2231491 -0.6054332 -0.9740183 0.495411 -0.8313143 0.80570906 1.6811764 -0.5292354 1.7277176 0.6921952 -0.14651704 1.6805614 -0.03771343 2.3088129 -1.0103323 0.07923273 -1.0617504 -0.7716819 -0.6811307 0.1989074 -2.126682 2.1570234 0.8757405 -0.8142507 -0.444377 -0.5794884 -0.8127688 -0.4319819 -0.5584019 0.269121 1.3037684 -0.56212014 -1.5548669 -1.4039805 1.1867496 0.43153638 -1.4296937 -0.021882877 0.8709605 -0.005485491 -0.7947705 0.3469049 0.31141657 0.009857294 -0.14412309 -0.0786915 -0.80321485 0.14668778 -1.9896595 -0.93866676 0.83177763 -1.0019073 0.7293819 1.4588897 0.57163876 0.5864982 -0.07193472 1.1124915 0.7975008 -0.45820335 0.3530103 0.21822578 -1.3582528 -0.11818237 -0.14957562 
1.9823446 -0.009358875 -0.14897451 -0.5763709 1.1333344 0.6897328 0.8551715 0.6479184 -0.10839326 -0.47752145 -0.8340693 0.32367197 -0.7145541 0.7486214 -0.31092164 0.0940509 -0.43761092 0.34515733 -0.24262434 1.3113426 0.3508536 1.1888905 -0.10394328 0.9554175 -0.9092729 -1.0675507 -1.01795 0.9428248 -0.35038874 -1.0227026 0.4599913 0.4384336 -0.18638623 -0.53804046 0.59359795 -0.13668573 0.6870744 -0.99479747 0.07290394 0.22770193 -1.5096802 0.82411474 0.55104125 -0.16480109 -0.12474611 -0.9935476 -0.14516872 -0.053496826 -0.41789338 -0.59919786 -0.12966187 0.6971527 0.05564937 -0.40282223 0.445425 0.999062 -1.1581382 -0.27931747 0.100358136 0.75232565 0.4471336 -2.4218724 0.11613569 -0.26638344 -0.37810013 0.94071835 0.12035601 -0.5716297 -0.34204042 0.0544168 0.38393793 0.07757312 -0.101649806 0.54110736 -0.9831482 -0.34018284 0.8168514 1.6128218 0.47889334 0.5970956 -1.5222094 -0.33663186 1.3836948 0.20920902 -1.5255007 -0.39526296 -0.23775859 -0.6718946 -1.5529443 -1.000201 0.3460209 -0.2644046 -0.40479344 0.48794258 0.7211343 -0.18087888 -1.1426595 -0.60055697 -1.0367033 -1.1701695 
-1.4812367 0.0032583033 0.81231725 0.16979286 0.73997706 -1.4889624 -0.80089605 -0.012226736 -0.5394276 -0.7914482 -0.8847856 -0.15616462 -0.44205734 -2.0653338 -1.1474129 0.1351239 1.0126555 -0.12637019 0.15903726 0.33799076 -0.9598286 -1.0997077 -0.0006947353 1.3711318 0.6062206 -0.34586507 -0.66457456 -0.2250036 -0.57234514 -0.27631193 0.20218034 0.5458501 0.15229943 0.49890283 -0.10080239 -0.0010767756 -1.9720829 0.14974971 -1.1172961 -0.42874673 -0.22203402 0.043548796 -0.092470214 -0.60197353 0.11097205 -0.21944381 -0.36257198 -0.16943668 0.354701 -0.5520607 -0.81050766 0.22410464 0.4193039 -0.4245851 -0.36523265 -0.33473182 0.3135075 -0.33788744 -1.1588941 -0.78058827 -0.7959248 0.2348775 0.8166564 0.7095862 -0.08860515 0.9004203 0.8041717 -0.5832477 1.4694186 0.6789165 1.4706887 -1.3719611 -0.069641925 -0.24096698 -0.055762902 -1.152514 -0.05377542 -1.4147234 0.10919847 0.39994118 -0.34712675 -0.84823215 -0.65961134 0.6288423 0.96048445 1.3442413 -0.5467066 -0.5139725 0.608553 -0.01121067 -0.29928544 -0.2899882 -0.34923723 -0.16856527 -0.82937515 1.833181 -0.11449755 0.9521538 -0.3983387 -0.42203644 
0.2310597 -1.209942 1.0619397 -1.0656714 0.12232161 -0.19684146 -0.9275288 -0.37764588 -0.59124225 -0.10434894 0.25826913 0.32335636 0.71280354 -0.28701815 -1.9254835 -1.3389364 -0.52795315 -0.21164933 -0.7958871 -0.0015089933 -0.29176265 -0.2547794 1.0018977 -0.18796717 -1.0995768 -1.62029 0.19517496 -0.25372514 -2.1108732 -0.7261955 0.84630316 1.5737205 0.5870236 0.35156864 -0.5479497 0.25004536 1.3177313 0.16869617 -0.6257601 1.6934317 0.24195161 -0.07938625 -0.28187102 -1.1145895 0.98462963 -0.22893302 -0.15553664 1.6334133 -0.19503677 0.6395119 0.9787394 1.175647 0.8629653 0.007530554 1.1292962 -0.9849821 0.9429443 0.27826706 -0.85987943 -0.33121452 1.0922946 0.36330214 0.43051267 -0.71325725 0.772656 0.36420354 -0.74704736 -1.1358935 0.29393333 2.0554743 0.054435298 -1.1784939 -1.3961351 -1.2737923 0.6182053 0.08282862 -0.02041669 0.24917668 0.29469028 0.007914843 0.39852417 0.30107513 0.48832744 0.80184543 -0.8029438 0.4774189 -0.8094259 -1.0879642 -0.47093365 0.19826183 -0.097745284 1.045946 1.1898733 0.54206127 -0.30567485 -0.24152029 0.7366112 0.24286325 1.32603 0.12988876 
0.4730287 -1.8564906 -0.5737531 -0.08783602 0.16574776 -0.75354105 0.7855414 0.5751273 -1.0084257 0.80131316 -0.065495946 -0.46029526 0.5263163 -0.546327 -0.6747087 1.2429618 1.9127299 -0.4126565 0.89036465 -0.7632632 -0.7913871 0.051393785 1.5178427 -1.5140866 -0.300481 0.5179221 0.7183987 1.3013853 1.1979036 -0.3036513 0.15446216 -0.08845177 -2.0447516 0.31877017 -1.8532717 0.32896766 -0.51976484 0.66226166 2.4692597 -0.40698266 -0.07456998 1.4436101 0.09174454 -1.0418203 -0.40640652 -0.39675763 -0.5432876 0.049698982 0.046852686 -1.1399359 -0.21880855 1.9909469 0.59143794 0.5751914 -1.7328002 -0.9069045 1.0117689 -1.5161744 0.69511795 0.664544 -0.17927034 -1.0523729 -0.8367093 -0.40668166 0.9353424 0.18173301 0.3800404 -0.3346162 1.7110342 -0.4973249 0.18418069 1.4221374 0.44988355 0.3500061 -0.27353677 -0.03396008 0.7302103 0.08436189 -0.5398734 2.104048 0.38517976 -0.45682245 -0.5895438 1.2322583 -0.5054524 0.26828825 1.3372294 0.09886 0.50572264 0.7946788 0.53832316 -0.35661504 0.49041075 0.70957285 0.68881375 -0.50128907 -0.20455569 -0.118230335 0.47569183 -0.18562125 
0.2447221 -0.50857437 -0.7238494 0.30721906 0.27045694 -0.15202376 0.98544824 -0.53824335 -0.17202756 -0.7755627 -0.9476775 -0.82265055 0.8583157 -0.13019133 0.33681166 1.487317 -2.5419443 -1.0875871 -0.25053582 -2.1702042 0.94877017 1.5346727 -1.0920188 -0.05226668 1.0089793 1.3069674 0.15392065 -0.17932726 1.5591892 -0.19214301 -0.16422774 0.8455438 -0.40125617 0.5427048 0.23520096 0.4773939 -0.038604807 0.25086275 1.8750191 -0.067767374 -0.3182764 1.1326911 1.3667701 1.1952472 -0.37988153 -1.67707 -1.8269022 -1.384249 0.23433699 -0.17840299 0.43931872 0.46789512 0.24572273 -0.1254696 0.8617396 -0.21545961 0.34732956 1.3942816 -0.9516282 -0.18424198 -0.2097389 -0.7014244 0.7559111 -0.8325675 0.0011819927 -0.6338413 -0.9648756 -0.10445107 -0.45678204 -0.16727683 0.075949796 -1.1693372 -1.0058593 -0.14473698 -1.0840071 0.095768444 0.49948397 2.0581365 0.9569351 -0.12706964 0.692346 0.50428843 -0.00864737 -0.85143644 -1.0533454 1.113751 -1.5716544 0.38524643 -1.0946722 0.79918075 -2.6863618 -0.3836419 -0.3381234 0.022464495 -0.33492166 0.9024021 -1.0149593 -0.16462217 -0.34628794 0.019246802 
-0.26650834 -1.1607633 -0.32261154 0.27252427 1.4261615 0.9446664 0.31944087 -0.43329784 -0.51269424 -0.39803553 0.8696832 0.5179985 -0.69048405 0.72752315 -0.7136828 -0.09124703 -0.16526629 0.90454865 -0.3381961 0.21996196 -0.8425318 0.40990958 0.5660789 -0.6517847 -0.24566777 0.25959378 0.663898 -0.47365633 0.15969552 -0.53742707 -0.112781994 0.99297416 0.63200694 -0.6397841 0.08464634 0.2507242 0.29008302 -0.62329996 0.4166852 -0.419566 -1.4430405 0.01464895 0.03224381 -0.43265074 -0.44098628 0.20232283 -0.6484671 0.6203131 0.95237994 1.1410366 -0.79502916 0.027688118 -0.663163 -0.38240376 0.30264455 0.6317584 -0.6432756 -1.2322725 -0.55014795 0.5396219 -0.53462064 -0.19416378 -0.46950823 0.23116392 1.0492347 -0.6237312 -0.48743588 0.34967127 -0.09049884 0.6870919 -0.64999187 0.056361783 0.42604533 2.212011 -0.31282437 -0.25601637 -0.0643259 -0.03948338 0.040080655 -0.13966806 -0.8944095 -0.227756 0.46929348 0.25538895 0.48613337 0.4270099 -0.8229428 -1.3531486 0.14731744 0.43165952 0.06630351 1.070124 0.13551188 0.09188062 1.1111449 0.06803415 -0.16214643 0.3043889 -1.1124172 -0.04735219 
-0.07575006 0.8702332 0.38797787 0.89126784 -0.27334976 -1.4903758 1.5370481 -0.10715485 -1.2072767 -0.01725409 -0.3128866 1.316688 -0.5284898 -0.9104483 -0.966236 0.95762056 -0.24336691 -0.2233941 -0.35243407 0.63107735 0.09591344 -0.69035894 -0.32469967 -0.88906944 0.9142645 0.09736493 -1.4762586 -1.48314 -0.5804963 0.33882093 1.5040375 -0.58348733 0.9879215 1.737407 -1.0184121 0.7848039 1.2467446 -0.23831351 0.32586992 -0.5021609 0.48684356 0.64429533 2.1564772 0.07383525 -0.76225364 0.048505332 -0.43039736 -0.34066615 -0.05502024 0.13517748 -0.7572715 -1.0938424 -0.29421985 -1.9985806 1.1607645 -1.1578368 0.64451027 0.38274026 -0.9340311 0.45101747 -0.2256197 -0.25250417 0.5361416 -1.3377174 0.9925599 -0.5948174 -0.033667125 1.7473745 -0.66623116 1.0255443 0.3718522 0.21979676 -0.12855312 -0.7095686 -0.5858835 1.0183046 0.5343853 -0.48155755 -0.20092788 2.1252155 -0.15161322 -0.71510553 1.4894651 -1.3010727 0.42700776 0.43324852 -0.70447844 -1.0660094 -0.29461193 1.4765481 1.684282 1.2431827 -0.40923548 -1.043666 -0.25732842 -0.88207483 -0.23464853 0.7616577 0.56223875 -0.046197508 
-1.4047364 -0.012117482 0.1867663 -0.07235938 1.6074727 0.10409947 -0.6447474 0.7580203 -0.40285882 0.052048746 0.8087694 0.39105767 0.11136695 1.4162422 -0.30757293 0.08980828 0.49837938 1.1391406 -0.34384665 -0.8103919 -0.79137254 0.54204905 -0.9889774 -1.57424 0.61903083 1.0964502 0.2786443 0.49730402 0.6228087 -0.76292294 1.5100008 -0.673007 -0.5238087 -0.01967124 1.1802666 1.0780238 0.4046192 -1.1051254 -1.5420055 1.1419713 -0.8966417 -0.15589526 0.9245664 -0.27207327 0.21313083 0.07711021 -1.5428213 -0.5166487 -0.022333097 0.48731723 1.1820557 1.1733679 0.70630205 0.572667 0.924022 0.12274324 -0.3217687 -0.49337295 0.50837654 -1.0751878 -0.2799283 -0.01201203 0.02003738 -0.9587367 -0.10646221 0.15100235 -0.44072086 -0.10051228 -0.45394608 0.82619894 -0.07630014 -1.2298983 -1.5105822 0.33265018 -0.58170533 0.83119124 -1.2494261 1.16161 0.9648013 0.38989815 -0.15740225 0.4649181 0.30556813 -0.79836565 -0.7931873 0.5930383 -0.388819 -1.5907878 -0.61724377 0.2094548 -1.6292207 0.96079385 -0.26065284 -0.1705796 1.0274507 0.2941004 0.04172751 -0.5666304 0.4383229 -0.81852114 
0.13483632 -0.07162204 -0.13747728 0.53660184 -0.14371969 0.17425393 -1.249582 0.97300357 -0.12600057 0.08874276 -0.4993951 1.6350884 0.17005628 -0.89519596 -0.21535333 0.17320772 1.4250507 0.9485768 0.42832226 -0.6590051 1.2782692 -0.4654192 -0.7478931 0.31542748 1.1771675 0.9568275 -0.4570429 -0.53702646 0.008907414 0.30348787 -0.25618428 -1.4744285 -0.023406345 0.8553078 -0.24825193 -1.6156046 0.24506517 0.16956407 -1.7116889 -0.9456308 1.1643298 -0.82341224 -0.5861616 -0.19210461 -0.23297575 -0.32524744 -0.24471149 1.0148177 0.9617373 -1.0086458 -1.1774647 0.8641293 1.2451789 -2.4696522 0.5502807 -0.33529186 -0.014144831 0.37117156 -0.5131019 0.32065815 -1.1479166 1.1141502 -0.033676215 -0.014187636 -0.2916527 -0.8330558 0.25759906 0.41986606 0.5259607 -1.3192836 0.50402874 0.84922934 1.2409023 -0.040839877 1.0031123 -0.26514888 -1.474723 0.7151419 1.2991667 -0.28557914 -0.062461358 -0.26831007 -0.9889 -0.19176002 -0.8629514 0.4487048 0.7212305 -1.2422575 -1.3968562 -0.6151373 0.07753996 -0.982028 -0.5676014 0.10576748 -0.55624187 1.0094901 -0.7275116 0.83537674 1.5084695 0.5516488 
-1.0862689 -1.7802854 -1.6000617 -1.0819676 -0.22878042 0.64075184 -1.8541126 0.2532513 -0.403048 -0.7111952 0.21576406 -0.7082943 0.6494438 0.26069772 0.46008793 1.5136065 1.42557 -0.80076796 -0.23271424 0.31473246 -0.6153741 -0.6516033 0.05998022 0.799309 1.3625829 -0.350569 0.075061984 0.055299625 0.13385178 0.13087134 0.5802346 -0.7624824 -0.75440913 -0.2146184 0.68853873 -0.8596363 -0.19271025 -0.6895023 -0.43605313 -1.0432996 0.62009734 -0.1285221 0.035888482 -0.9279984 -0.43400213 -1.4255928 0.38782594 -1.611148 -0.55743706 0.097793244 -0.14846359 -0.20048627 -0.24176948 -0.3646709 0.683699 0.80883396 0.5865258 -0.33795643 -1.3860737 -1.8037586 0.9269202 -0.9348751 -0.63126683 0.67239106 -0.72655123 -0.038347658 -0.8728124 -0.36321124 -0.42368555 -0.5815972 -1.338356 1.2770575 -0.46288025 -0.10934669 1.3382808 0.023075653 -0.3539851 -1.2292075 1.0486599 -0.17109066 -0.5730281 1.4184959 0.049029272 0.42816925 0.60810196 -0.002800928 -0.7874607 -0.14620559 0.21009561 0.5486368 0.079529434 0.13602118 -0.5512528 -0.08105065 0.021045709 0.0037084827 0.4177543 0.12507844 -0.48961014 0.20780136 
0.6854623 -0.73120534 -0.19347712 -0.80198866 0.67414236 1.3111386 -1.5389633 0.0017741122 0.16818395 0.23014623 -2.006516 -0.0035361496 0.12660594 0.19896382 0.2475736 1.3206016 0.5191656 -0.42244068 -0.440717 -0.017855993 0.35026133 -1.166522 0.3366365 -0.57881975 -0.11218416 -0.08201226 0.82849276 0.48051292 -1.5421551 -0.44131768 -1.4875698 0.60592234 -0.11833251 0.49772456 -0.34745067 0.6495255 0.9398275 -0.66223335 1.8291634 0.621967 -0.55696213 -0.053152196 0.17476767 1.4622949 -1.1198397 -1.6815078 2.512616 0.85568607 0.8287282 1.3244632 0.30104288 -0.5114854 -0.13602765 -1.4901901 -0.75854874 0.11558649 0.8725138 -1.2486743 1.1885558 -1.4638352 -0.78782374 -0.7834968 -0.9314316 -1.2677317 1.6111151 -0.41545948 0.2479051 -1.4325851 0.2471621 -0.104113765 -0.9210601 0.73121154 0.5088618 0.12435689 -0.35576499 1.504433 1.5401608 -0.616573 -0.6835046 -0.82900053 0.34091958 -0.60567105 1.2056584 -1.2090262 0.19755977 -0.63772726 0.6028488 -0.82399887 0.85133153 1.3290433 0.9097511 0.12682842 -0.77162087 2.022931 -0.37550825 -1.7106515 -0.09431784 0.13331914 0.029204449 -0.54084057 
0.4796194 -0.07482225 0.45426255 -0.47480756 -1.8102063 -0.054919943 -0.7243183 0.64455473 0.97631305 -0.2936704 0.03488012 -0.68243 0.9681698 -0.25540674 0.9568631 -0.16259062 -0.743039 -0.12301355 1.0081611 0.949774 2.3648868 0.41233444 -0.29375806 -0.22938384 -0.64852244 -0.33044693 -0.08107251 -0.10503283 0.3049176 1.5660347 0.32651493 0.8887276 -0.81683755 -1.5498316 -1.043554 1.9396287 -0.95130765 0.16573219 0.022841472 0.14449671 -1.5335833 0.86948615 0.4853711 -0.4379149 0.64740133 -0.18049121 0.044192296 1.555093 0.27055424 -0.93583167 -0.65134925 -1.2170255 -0.43592557 0.68895227 -0.5861823 0.014867897 -0.9731037 2.0647666 1.6767735 -1.509398 0.008595552 1.4746208 0.2427836 -0.25081617 1.681632 0.6977295 -1.78849 0.28436074 -0.30448636 0.9554631 -0.07589564 -0.15461062 0.5267308 0.7701465 -1.0886512 -1.0192262 -0.16706024 0.6011402 -1.1471429 -0.7565303 0.4138294 0.11046727 -1.1182579 0.95111865 0.98961353 1.1521416 0.44764534 -1.0043274 0.31403148 1.1282511 0.09314145 -0.6746282 -0.5065418 1.4921876 -1.9133253 0.23685181 -1.1166074 -0.16811368 0.40021136 0.39993116 
0.26052052 1.3380607 -0.6789301 -1.191085 0.9551832 -0.7542246 1.8446611 -1.8268676 -0.11561882 0.014511797 0.11470175 0.27898067 -0.6191685 0.6014799 -0.5047271 -0.17109986 -0.35992244 0.0767161 -0.6461847 1.35052 -1.1016159 -1.6914852 0.7955026 -1.432684 -0.23734878 1.6549706 -0.7614181 0.7338114 -0.83297604 -0.4052691 0.4225616 0.44911918 0.58579963 2.0430532 0.94264203 1.2928916 1.3548119 -0.0014372431 0.71758604 0.47744918 0.21865489 0.48833922 0.11728738 -0.81535476 1.8838788 1.6328828 0.8758546 0.39179265 1.1636922 -0.3715982 0.027405066 0.34203377 0.06254163 1.5539675 0.6457347 -0.22795045 -0.33487394 -0.36554083 -0.22144805 -0.03157744 0.49281147 0.97083503 -0.034988396 0.30424556 -2.235683 1.034167 0.712242 0.32918495 0.11505517 -0.8318908 0.46180224 0.61596245 0.07669446 0.7420777 -0.24385099 0.5007649 -1.0860162 0.21485573 0.953639 -0.12673014 1.2666856 -0.40570995 0.042862847 0.19352448 -1.715483 0.6458363 1.7956418 1.3908037 1.2093173 -0.572763 -1.8982422 -0.31444335 -0.014361868 1.7058828 0.1666773 0.67869794 -0.5927096 0.8570308 -0.35305473 -0.570454 
1.2155082 -0.0028777712 -0.89634705 -0.74709344 0.9858829 -0.6061894 1.840114 -1.2509692 -1.2033527 0.93016297 -0.39345673 0.89369977 -0.27497393 -0.93312746 0.8918741 1.3657454 -0.5210065 0.69112206 0.13372447 1.1536423 -0.17995869 -0.40250272 -0.88745934 -1.9546338 -0.27443305 0.30839127 -1.0447016 1.0716271 -0.3926977 1.1533927 -0.3222192 0.8337029 1.4778948 0.49149218 -2.508308 0.047306463 1.0866822 1.331932 0.32655978 -0.6294972 -0.84459674 -0.085731216 1.0670242 -0.95154554 0.29735494 0.4463506 0.65079767 -0.43752098 0.5070545 -0.89910764 -0.6295764 0.1707729 0.4974778 -0.35205138 -0.07941557 0.73251516 0.26341814 1.4907577 0.10583632 0.8485761 -0.4013534 -1.0798767 0.085291006 1.0263236 0.7594928 -0.14413062 0.6588199 0.4991099 0.8512674 0.7094934 -0.04219016 -0.30469123 -0.2928164 0.83954364 0.014334793 0.46959203 0.73766327 1.1995554 -0.6686827 0.024229094 -0.69129753 -0.6367462 0.66126126 0.41402048 0.090158485 0.17144391 -0.8719042 0.58136815 1.8041186 1.4737884 0.13783832 -1.0648037 -0.015526857 -0.37254354 -0.28684658 -0.3040285 -1.4684395 1.0040418 0.35577187 0.5995454 
-1.2287412 -0.09843445 -1.087106 0.6512019 0.5687659 -0.5407307 -1.6339777 2.5923643 -1.0171565 -0.54804635 -0.11718985 1.0759718 -0.9990923 -0.5461722 0.13345303 -0.52319473 -0.6393214 0.62353027 0.65248376 0.40279794 -1.7822891 1.4816275 -0.8353914 -0.42284805 0.40913463 0.4674088 0.7925377 1.3452249 -1.2498044 0.10839353 0.6544437 -0.47658676 -0.1538985 -0.15313983 -0.7635386 -0.58208805 -0.65241444 -0.91991854 -0.30835304 -0.44342253 0.0831009 -0.602858 1.4569706 1.3668103 2.1690147 0.21987025 -1.0391306 0.27243423 -0.43350133 -0.47742257 1.6404613 -0.5136076 -0.082596354 1.4984657 -1.0522884 -1.4650269 0.4899557 0.12753622 -0.7671731 0.25781313 -0.89634067 1.4139788 -0.7343455 0.96508133 -0.37942532 0.3029834 -2.1903028 -1.1658148 2.5341733 -1.1689914 0.071292356 0.17460465 1.179799 1.0846422 -0.3953367 -0.5893271 -0.4375821 0.64041895 1.0763218 -0.38986826 1.3781309 -0.3401595 1.5343595 2.0758376 0.7060736 -0.44898137 -1.6845474 -0.7832928 0.885374 -2.9424357 -0.8326786 0.24740623 -0.8752073 1.907417 0.10613019 0.10610704 -0.123445004 -0.10221729 0.28297448 -0.24360383 
0.023032846 -0.22257254 -0.5078485 0.102791205 -1.0720023 -0.1894932 -0.9269872 0.42447978 0.51868397 -0.97368485 1.4496939 0.59191734 1.122676 0.57593095 -1.9912206 0.5949994 0.03865254 1.0161241 -0.46201798 -0.5271463 -0.7803633 -1.3237271 -0.09848622 1.6055673 0.17983666 -1.2504311 0.4336126 -1.6097053 -0.6972149 -0.40778813 -1.3826802 -0.8168075 0.055658773 -0.80449015 -0.22837067 0.16549462 -0.22697489 0.6506326 1.5640845 0.8952585 0.647493 0.52798444 1.9442366 0.6272945 -0.98855954 0.4389111 0.88646084 -0.6358583 0.48243955 -1.1507367 -0.40244943 0.91486675 -2.0706372 -2.1000469 -0.23648424 -0.22116677 0.16194329 -1.7653083 -1.2908845 -1.1989473 0.69562495 0.76416576 -0.43188432 1.5415912 -0.5044043 -0.3572265 0.008001684 0.35037223 0.86045915 0.52952516 -1.3849789 1.0630286 0.28243312 -0.9366632 -0.6832347 -0.8049636 -0.658693 -0.36666164 0.0151140895 -1.4159461 0.7761162 -0.13707562 -1.7139773 0.28460193 0.45759076 -0.48490095 -1.0101584 1.4734313 -0.16805172 -0.026535118 0.7070776 -0.07692855 0.7335697 0.052308753 0.32506457 0.506986 -1.1567438 0.015058562 1.9611653 0.018761648 
0.4107681 -0.20791091 -0.2544575 0.98754865 -0.66213197 -0.021137152 0.61014366 -1.2924526 0.23595063 -0.8947319 -0.0005829502 -0.42112425 1.1158221 0.79969454 0.6075096 0.74663126 0.9747062 0.9155901 0.43242535 -0.30210498 -0.6133154 0.23666148 -0.57489806 0.48666474 -0.13307932 -1.804154 0.79053825 1.9241563 0.35100213 1.3423942 -0.016664447 1.6103948 -0.34438062 1.1317754 0.1390185 1.2208757 1.0568166 0.46334276 -0.73850876 0.77464455 -1.9323075 0.19974989 -1.2718287 -0.13761717 0.47621924 -0.036817923 0.98763406 1.137462 0.08615519 0.18098265 0.80115527 -0.4931857 -0.17390126 1.2497685 1.8676895 -0.10489678 -1.5575265 -0.9090068 -0.7660594 0.08809458 0.27546963 -0.42601806 1.0325054 0.622716 0.166357 1.4841359 -0.011027295 0.6658198 -0.018970294 -0.37022117 0.14383884 -1.2313799 1.1949037 2.1209476 0.07562194 0.7619561 -1.159428 0.8343 -0.33214843 1.0032443 0.8645955 -0.83799314 0.3590294 0.62174845 -1.2788916 -0.6219161 0.67469364 -0.43389133 -0.9660734 0.21817933 1.0066178 -1.0604974 0.0924056 -0.53047395 -1.1905106 -0.5093532 1.2869991 -0.39058277 -0.3851868 0.042466756 
0.5025345 -1.1141174 -0.23421954 -0.31725433 0.0370653 0.08157363 -0.036009144 -0.17669106 -0.021703402 -0.13031943 0.7382864 -0.37801248 -0.13390441 0.38732296 0.10879932 -0.35509455 0.11717737 -0.17496279 -0.6830356 0.6993173 -0.3258319 0.25512952 -0.5071902 0.027171994 0.35564122 -0.12210528 1.5728065 -0.16351828 -0.06473794 0.683047 -0.26458287 -0.39328307 0.24273401 0.017358603 0.35298568 1.1555086 0.7257678 -0.17119093 -0.4859985 -0.06928092 -0.31729138 0.17926283 0.37240037 -0.311776 0.504431 -0.14328973 -0.23035215 -0.34319162 -0.5641107 -0.30541274 -0.23793745 0.31830922 -0.9016089 0.1280994 0.8385561 0.13349481 -0.55477464 0.8390146 0.24940512 -0.060908813 0.5570193 -0.382794 0.10471855 0.45041096 -0.08770427 0.30500484 -0.0688891 -0.56826764 0.03712658 0.49348253 -0.69630677 0.6502793 -0.1788056 0.03247169 -0.22321424 -1.1815573 0.009422224 0.5964946 0.18469208 -0.35112563 -0.30512992 -1.1837685 -0.35316065 -0.88697296 -1.681351 0.36973432 -0.19132648 0.48983374 -0.9158084 -0.31393537 0.45227608 -0.36827967 0.056064624 0.33924043 -0.32009313 -0.47081283 -0.2958044 -0.50414693 0.15129744 -0.16177568 
-1.0424528 -0.57058746 -0.024087775 0.32478607 -0.4024923 -0.19854257 -0.52558243 -0.8117714 -0.7783953 1.0236965 0.72261703 1.4984833 0.03940234 -0.14470983 0.40101594 0.53769284 -0.120272964 -0.5209232 0.48823342 0.2164679 0.52089167 -1.5765204 0.24800402 -0.74326265 0.8739704 2.5349715 0.431258 -0.22265816 0.2922732 0.13154742 -0.8485726 0.06768288 1.1334162 -0.3833257 0.47104648 1.411681 -0.0047833007 -0.52763027 -0.4659202 0.37618563 0.44348928 1.5831441 0.02443146 0.86886495 -0.2816375 0.70903534 0.71127427 0.18805847 -0.13126151 1.3389965 0.053620826 -1.9992535 -0.75887114 1.7089332 -0.078816116 -0.9385819 1.471986 1.0677277 1.6006595 -0.46540165 -0.018192548 -1.2036945 -0.2848112 0.47542188 -1.6593282 -0.00054731016 -0.791726 -1.5595416 -0.7569688 1.581932 -1.7923462 0.06924117 -0.23324107 0.94251657 0.37319782 -1.4468614 -0.76291376 0.95783055 -0.8031073 -0.8880582 0.9322692 -0.97770816 -0.97570896 1.4993786 1.1337695 -1.2423137 0.012241671 0.41476086 -0.1390086 -1.1507527 0.27148956 0.029881723 1.0400778 1.0751216 0.6690873 0.0012542424 2.1331718 -0.51155657 0.10368462 0.6240041 
0.08649913 0.1127094 2.4243147 -2.605956 -0.68406874 -0.17626065 0.76116693 0.0024224357 -1.7626636 -1.3051198 -0.05670959 0.5838151 -1.8171339 -1.3409098 -0.9800681 -0.11488095 0.38981375 0.03545319 1.3523097 -0.27616033 -0.24103892 0.3198588 0.14855415 -0.026484817 1.53307 0.5554638 0.5006725 -1.9050713 -0.52807075 -0.08556814 -0.7183967 0.79885024 -0.6461609 1.0808556 -1.4097121 3.8706076 -0.65029925 -0.9434548 -0.3083021 1.6562499 0.73648703 1.2849535 -0.50941205 0.59323686 -0.38285092 -0.98545 -0.8328871 0.018524926 -1.2490555 -0.7631715 0.39176455 1.0681871 -1.2015771 1.1546248 0.27790543 0.5905338 0.702104 0.62217706 0.5325672 0.39639288 0.48816004 1.6199214 0.5611912 -1.285811 0.1441025 0.72288495 -0.39142656 -1.8088299 -2.1355665 -0.5828726 -1.3776073 0.97168994 -0.11281325 2.2121549 0.22909361 1.1735615 -1.6544304 1.2313969 -2.4763434 -1.0587904 -0.9845071 0.22827709 -0.2906908 0.42876175 0.8364343 -1.1826054 -0.6038217 0.5735733 0.13097294 -1.0126737 -1.4317738 1.9105494 -2.0944865 0.037129898 1.3372983 0.6734857 0.8379516 0.97217166 2.7425513 0.6791842 
-0.48775667 -0.2436742 1.134408 0.7756726 -0.050576203 0.359921 -1.2434416 -0.744436 0.06724908 0.12129072 -1.5486596 0.25824547 -0.9047206 0.22433 0.061780784 -0.87882876 0.16231604 1.64034 -1.1954719 -1.0212302 -1.0667324 -0.6409665 0.7700532 0.19965461 0.16613524 0.6633635 0.106850885 -0.23458196 -0.32239237 -0.37799692 0.07771847 1.247528 -0.43779063 0.8976589 -0.5266666 -1.3642734 -0.9709147 0.057957627 -0.19451304 -0.08799487 -0.40711865 -0.18787095 0.8451415 -0.26001415 1.1666492 0.4148224 -0.7524866 0.4958477 -0.16765456 0.0053796656 0.546945 -0.44728306 0.50274605 0.4596368 -0.96683276 -0.6400249 -0.956584 -1.9071337 -1.1621094 0.8967177 0.71031636 0.39808813 0.38884094 -0.82939655 -0.7586582 -0.7846024 0.23551035 0.4342533 0.23801221 -0.68827987 0.0058976356 0.8588873 0.07033866 -0.19517572 0.49643397 0.677712 1.3972915 -1.8986825 0.15427068 -1.1020211 -1.2614934 0.6608078 1.01351 0.6604505 -0.08104055 -0.48711598 -0.9728589 1.6801591 0.38306665 -1.7709612 -0.7962838 0.56875026 0.9360084 0.39606005 -0.7564125 0.22531441 0.47961146 -1.272432 0.08563235 0.27399012 
-1.8642175 0.58186984 0.13068043 -2.1641092 -0.17473145 0.060044274 0.83014184 0.49590176 -2.5092287 1.3557703 -2.375895 1.1366551 -0.85053957 -0.4307161 -0.34286276 -0.92547786 0.5477303 -0.03074752 -0.04240923 -3.338827 -1.0485045 -0.007416772 0.059941925 0.061764207 -0.020802157 -0.5091556 -0.8497671 -1.0413697 0.49471584 0.6995388 -0.9207485 0.75354254 -1.97212 0.53032935 -0.8159024 0.94739485 0.7300933 -1.3800988 -0.9084472 -0.047025405 -1.0578003 1.3355707 -1.4736325 -0.6670455 1.4272764 -0.5254962 0.28299156 -1.7204342 -0.7685736 -0.9868478 1.369078 1.172279 -0.66473335 2.3294885 -0.24621727 -0.09961779 0.21092866 0.46467355 -1.1836154 0.55966556 -0.5891448 1.0613995 -1.1495008 -0.11648084 0.2975512 0.016839912 -1.7487155 -1.166135 0.0680343 1.3824122 -1.2796015 1.9516968 0.2682576 1.6357076 1.5239301 0.12501217 -0.9368665 1.1265789 -1.6974541 -0.15645637 -0.2441872 0.8558348 -0.118522614 0.3184169 -2.8428218 0.16561252 -0.4401536 0.8273146 0.15572001 -2.0998948 0.9048066 1.814308 -0.457371 -0.034663007 1.0848968 1.4931254 -1.0880855 -1.5279522 0.0077507123 1.265862 
-0.00975271 -2.158747 1.2295734 -0.31408542 0.71624124 -0.6354437 1.8809544 -0.12383811 -0.1555851 0.83998847 1.22543 0.68841046 -0.26166007 -1.4916599 -0.5572865 -0.4508287 -0.8035002 -0.19843456 -0.15259199 -0.30760443 0.35489947 0.58149654 0.27476722 -0.17729497 -0.5731096 0.2804306 -0.82931316 -0.3105292 0.53428316 -0.32521954 -1.5237098 0.20725232 -1.3526115 0.7527825 -0.5546061 0.22503059 1.0669639 -0.13550162 -1.2652272 0.621012 0.28068197 1.0336665 -0.51831406 0.56006074 0.8108122 -0.032168265 -0.53781617 1.5609162 -0.34281552 0.82542217 -1.159063 0.45004767 -0.0080716545 -0.7220744 -0.5975443 0.97095525 1.1174049 -0.60407937 0.7836155 0.136815 -0.6537913 1.0323614 -0.8015765 -1.1842676 0.2615693 -0.36455452 -0.43483484 -0.55619496 -0.3407826 1.108193 -0.6419962 -0.12794319 0.60598284 0.9893554 -1.0972879 0.08178813 1.3407155 -1.1064607 0.053477418 1.0344731 -1.3419708 0.99817455 -1.1705022 0.42952323 -0.4381658 -0.45334244 0.5086475 0.21542692 -0.8678788 0.6006568 -0.8657251 -0.70132804 -0.14809823 1.1153327 2.056443 -1.2432622 0.8481757 -0.6301872 -0.11709789 -0.53244746 
-0.8378752 -0.22947031 0.44946188 -1.5002824 -0.20353323 0.07409158 -1.3601887 0.56097853 -0.7770499 1.2087014 -0.027364567 0.33998245 -0.73587686 1.1515802 1.3711237 1.4799935 -0.560112 -0.4040361 -0.25405243 0.36571878 -0.45564708 -1.3344115 -0.98703635 -0.7620554 -0.4938552 -0.9549016 -0.25834674 -1.034106 0.06675114 1.1324805 0.17939176 -0.0937749 0.5358116 0.07339827 0.9959407 0.7182084 -1.8821235 -1.111933 0.9042212 0.10685342 -2.467893 -0.68722904 -0.3435012 1.2236614 -0.480135 1.6887555 -0.17503902 -2.3949137 -0.43132314 0.20337708 0.1985224 0.82844216 0.027928244 -0.121156864 -0.22888489 0.16978072 0.59695345 0.21588887 1.4153677 0.40319625 -0.41018835 0.008773845 -0.26000583 0.23204707 -0.34761077 -2.1459453 -0.5593922 0.61062694 -0.51918024 0.91793567 -0.35441718 1.1317875 0.40543166 1.1341286 -0.6081054 0.33855194 -1.0063186 0.3541434 0.6586353 0.98856723 0.25998962 0.8474643 -1.2024757 1.3130009 -1.8280852 -0.9166054 0.6040318 0.38383973 0.7979522 -1.0509926 -0.14027989 1.6336921 2.081034 -0.5907602 -0.33788347 -0.41262725 0.4037805 -0.45612863 0.12366602 -0.30102792 
0.83495945 1.7975019 0.49179843 0.39314577 -1.3095813 -0.786691 0.67877257 -0.45190024 0.19948858 -0.59432346 -0.34230882 -0.719239 0.17589264 0.9795231 0.02473759 -0.47851688 -1.2693797 0.8154021 1.2315773 0.19906376 0.31166533 0.33363706 -1.3346047 0.3154898 0.15166317 0.6905945 1.1148543 -0.0129851885 -0.5039182 -0.6241827 0.2541943 0.7563342 0.66679823 0.7629162 -0.52233493 -0.5738762 -0.81545633 0.73137325 -0.7109039 0.86876035 0.14114422 -0.8345732 0.7412636 0.3091443 -0.5028748 1.545998 1.0239363 0.860743 0.022208743 -0.19638997 -0.36888993 -0.48739251 -0.042405117 -0.15298611 0.3456577 -0.1576927 0.16555797 0.98073775 -0.49602437 2.0962455 -1.1082909 1.0885421 0.0145679545 1.0007478 -1.1716014 0.82710856 -2.1715894 0.69300354 0.9007392 -0.54792506 0.17828612 1.3340079 1.2561837 0.67370254 0.7254717 -0.9242677 -0.9270642 0.03969118 -0.66864735 0.50671935 -0.44203493 -1.1823449 1.6712986 0.3565138 0.8273166 -0.8185452 0.08754345 0.6527546 -0.022460517 0.6160998 -0.5858836 -1.0339532 -0.39525968 -0.041896123 -0.23645106 0.35655224 0.10288195 1.0469449 -1.0732756 -0.79906553 
-1.6690294 -0.7004488 0.11717964 -0.09425063 -1.9003046 -0.08124411 0.33503154 0.7940796 0.60834235 1.0430217 0.3121692 1.6856796 -1.2043903 1.3292886 -0.19945249 -2.4202788 0.7341047 0.7556649 1.6605234 -0.6866216 -1.747911 -0.083762325 0.0025779044 0.019678317 -0.8597953 -1.2734752 0.41351894 -0.25788662 -0.58300775 0.54071987 1.3304535 0.28071773 -1.1668534 0.2361236 -0.40467343 -0.8829985 0.4965629 0.056793578 -0.531319 -2.1671226 -0.56355774 0.8163483 -0.6800873 0.014700683 0.4006359 -0.16106874 -0.5509659 -1.2356699 -1.0696368 0.27504635 -0.8255385 0.4820198 -0.6937587 0.1468989 0.06035948 0.7277361 -0.111572355 -0.21450356 -0.28745916 -0.48843524 -1.0227224 -1.8492683 1.4244725 0.06491557 0.06603489 1.129339 -0.45887935 -0.33830458 2.2142088 1.4258293 0.5815182 -0.117590815 0.4558919 1.4409037 0.7655394 0.5279348 -0.24733962 0.69268507 -0.39472106 0.5132337 -0.8864365 -0.6833099 0.32442915 -0.11788791 -0.8145252 -0.21635456 0.6935191 -0.17137691 -0.020616662 0.08072575 1.0611068 -0.8305611 0.8782003 -0.8026712 2.105442 -0.027139034 0.51720846 0.29302645 0.17860878 -0.43381703 
-0.19002153 0.43501642 0.33377865 -0.17121933 0.40001646 0.44448435 -0.10556309 0.6670458 0.08265801 0.025860319 -0.5490495 -0.18682592 -0.7830185 1.309614 0.71960956 0.15535022 1.4337839 0.7249207 -1.0099577 2.290297 -0.7440975 -0.769095 0.16473258 -1.3271675 1.3955629 -2.0546799 0.60680526 -0.095810965 -0.8791664 0.15101469 1.5141981 0.65986615 -0.09449444 0.6638393 0.9509277 0.45632055 -0.60405296 -0.21944545 -1.1275086 -0.14273754 -0.77631664 0.70679104 -2.5876236 -0.22307082 -0.020042982 0.5599319 -0.030557048 -0.48678994 1.5376589 1.9295734 0.14213262 -0.54463214 -0.12147591 1.8760282 -0.4895191 0.1095513 -0.6614262 -0.29144362 -0.2276824 -0.65642756 0.62890124 0.64347583 0.20751223 -0.9459291 0.20359708 -1.6068923 0.35055843 0.053107277 0.83524966 0.90157837 -1.770349 0.9625021 0.56398547 2.2330177 0.8061799 -0.35287783 -2.2778618 -0.3479673 -0.14006725 1.0228922 -0.18047114 0.663567 1.1254512 0.42176098 0.2777973 0.7882061 -1.3618255 -0.09845402 0.8780911 -0.90392816 0.9537816 -1.1115513 -1.5060743 -0.57109404 1.1413944 0.40648055 -0.5940433 -1.0565636 -0.7991913 0.7137205 
-0.5653165 0.658297 0.014075658 1.5189068 -1.1201708 0.40891552 -0.77781534 1.5139602 0.10316715 -0.50123686 0.00097080605 -0.4529627 1.8428127 1.5037316 -1.1276611 0.28740987 2.004903 -0.80242604 0.3007219 -1.0762469 0.08431151 -0.4798786 0.8525176 1.62144 2.377221 -0.46944538 0.72660136 -0.30795896 -0.5252032 0.44089252 -1.0899404 -0.17051274 1.1693556 -0.23110957 0.45292327 -1.4773527 -0.3155664 0.318388 0.063742645 -0.2251276 -0.49055326 0.1714685 1.5592434 -1.1281806 -0.07830239 -1.3496357 -0.698645 -1.6531154 -0.2869673 0.18783416 0.7870628 0.47986645 -1.4791976 1.7241722 1.3500831 -0.98269993 0.41633344 -0.8252344 -0.6274936 -0.057121415 -0.64619726 -0.42004755 0.73001647 0.39060625 0.82575387 0.8072598 0.10682499 -0.840526 -0.8408496 0.035218403 1.115264 0.6298584 0.72397643 -0.20555942 0.5982526 0.0726232 -0.10581401 0.67868835 -0.44570202 -0.21418259 1.6499218 0.47966853 -0.507448 0.5321307 -1.2770797 -1.3723155 -0.2090551 -0.1387458 -0.15331343 0.4245167 0.09492505 0.2811 -0.88140106 -0.7042146 -1.2614405 -0.517413 0.59562707 0.6052177 -0.009499325 2.0072 
-1.9058919 1.2829434 -0.7087358 -0.19929342 -0.008598267 -0.052309617 0.3258879 1.8105506 0.52007437 -0.9675335 -0.6228121 0.42692092 -1.1750945 -0.46640867 -0.49509197 0.12840189 -1.488048 -0.105360396 0.073372595 -1.3973955 -1.7331274 2.0572245 -1.4626623 0.08050391 0.1391496 -0.5096404 1.6544182 -1.296153 0.7061828 0.5908773 -0.37449345 1.5055017 0.08972306 -0.4547799 -2.0483944 0.5199627 0.7683905 0.35172695 1.0222461 1.9683933 -0.79355603 -1.3023789 -0.31673327 -0.27471685 0.15428738 -0.601874 -0.005711479 0.86671656 0.1753138 -0.44065413 -1.5040209 0.4618736 -1.1052619 -1.4102314 -1.5787958 1.1517051 -0.5639266 1.2159014 0.20652108 -0.26125982 0.6383172 0.42561132 -0.6637818 -0.81872 0.473418 0.68082225 1.6046492 -0.7081526 0.10736131 -1.3476999 1.0616959 -1.0778184 -0.14975044 -0.8938875 -0.39522243 -0.034253776 -0.8759819 0.13591829 -0.84877735 1.092476 0.45976046 0.03453147 0.17837396 -0.03667815 -0.15634513 0.28585985 0.005432253 0.6466833 -2.0428786 -0.5029333 -0.5653592 -0.80815345 -1.4303144 0.77973264 1.0823059 1.6922134 0.82729894 0.9396534 1.7557402 -1.0532625 
-0.042472742 0.811601 0.11842171 -0.9706179 -0.49063045 0.5643939 -1.578628 0.59620655 0.16818152 0.0144029455 2.130743 -0.7994502 -1.050467 1.1179516 -0.08540683 -1.0212162 0.16386047 -0.38874242 -0.29636565 0.40559822 -0.14668226 -0.43650824 -0.46288857 -1.1146195 -1.2585374 -0.3225979 -0.10239565 -0.71731454 0.45229906 1.6682985 0.09662399 0.08645538 -1.4210246 0.1947319 -0.14468078 0.9845195 -0.7106781 -0.27904668 1.9275316 -0.5540922 -1.654767 -0.13148503 -1.0095704 0.83907926 0.40734592 0.7033019 0.4550657 -0.9082839 -0.05084576 0.09480282 0.080592565 -0.2072225 -0.7854545 -0.17424555 -2.4030762 -0.16467953 -0.9735436 2.0224245 -0.6686422 -1.5152391 0.58716667 -0.064093664 -1.0163237 -0.630374 -1.0340015 -1.1672814 -0.04328066 -0.82925755 0.7437223 1.085197 -0.37193936 0.9299237 0.8149602 -0.964422 -0.53858846 1.668809 -0.35127833 -1.9663517 0.14171757 0.77271026 0.19553493 0.34222707 -0.07990055 0.9697367 0.4061426 -0.47537705 -0.35975626 0.7971438 -0.10604985 -1.4333202 1.1317685 -0.2183056 0.90974414 0.19109917 -0.5713213 -0.096541055 -0.0006289723 0.83545053 0.94946694 -0.76579666 
-0.8528413 1.2930741 1.3922505 -1.0022864 -1.6389964 0.758894 -0.9771986 -0.94357806 -1.4012479 0.2012317 -0.07549442 0.06259523 -1.0479555 -1.119865 -1.2639934 0.114481054 0.007951182 -1.1782216 -1.0188596 0.39775354 -0.3176964 -0.6205712 0.81683505 2.2797527 1.2929021 -0.06090955 1.0503696 -1.9202462 -0.8386248 0.037246533 0.11645999 1.0396725 -0.49951452 -0.45968556 -1.3227094 2.2176108 -1.6452467 -0.3345748 -0.99427015 0.31605697 -1.9751722 -1.1477118 -0.5674681 -1.4564942 -0.9412516 -0.34310392 0.692444 -0.80761063 -0.5127106 2.074629 0.31705123 0.5246304 -0.42702058 -0.11738983 -0.3135988 0.99813604 -0.7064633 -0.52511936 0.5351693 2.5325022 2.322767 -0.1511945 -0.6040589 -1.4573429 0.7048445 -0.25321028 -0.3888484 -0.39720267 -0.5292866 0.82090133 -1.1466175 1.2566842 0.45595604 1.9345608 -0.014235275 0.06713649 -0.1579196 0.3544781 -1.6203638 -0.9913328 -1.0798278 0.8507758 -0.49504632 0.7633558 0.20061636 -0.9431325 -0.1015535 1.4189079 -1.3618168 -0.809448 0.66381776 -0.17654689 1.1746233 -0.81256914 -1.79294 0.94319916 -0.5841331 0.032396052 -1.2436627 0.52709436 
-2.6211636 0.16314319 1.4065491 -1.4202421 -0.67979383 2.1375968 0.12002611 1.4831349 -2.970987 0.11839459 -1.1175262 2.6963592 -1.1172987 1.6328905 -0.417716 0.7029907 1.489461 0.8453934 -1.2190888 -1.7831125 0.5196516 -1.7418698 0.437787 -0.57378227 1.247213 0.2882225 -0.3944046 -1.4818727 -0.0422296 0.8127298 -1.8393441 -1.4987509 -0.5925702 -0.38766205 -1.2918702 1.0000005 0.52207595 0.72653 -0.52373266 -1.5841444 1.0257525 -0.8222848 -2.600904 0.21383643 1.8550196 1.180254 -0.13421732 -0.7166362 -1.6207242 0.050131515 1.6275411 0.55085987 -1.6758376 -0.47958642 -0.38423842 -0.910738 0.670818 -0.41394877 1.0164452 -0.08907391 -0.15433225 0.8784407 -2.633905 -0.6839642 0.6146983 -0.20238295 -0.91296005 -0.83028287 0.5617511 -0.993558 -1.2814871 1.3812997 2.621711 0.9349473 -1.5192952 0.37667304 -0.9856969 0.22164229 -2.0011578 -1.3061941 -2.45014 -0.11785422 -1.6009213 0.3197466 1.4424335 0.64715964 -1.5392969 0.65395504 0.06036383 -0.8547297 0.7858936 -1.6771951 0.39570507 0.3197783 -1.5829593 3.3094587 2.0807545 -0.7002906 -2.4193723 -0.6400136 
-0.42659223 -0.3353358 -0.47287723 0.81155413 0.4343647 0.48533294 -0.9226048 0.24932495 -1.2948061 -1.0920938 -0.6591846 -0.47593305 -1.5088646 -0.7311856 -0.3447797 0.6521102 -0.7794553 -0.28076124 0.21919212 -0.5037931 -0.61668587 -1.6413853 -0.017334355 -0.23084249 -0.3281684 0.56457525 -1.5641904 0.8169651 -0.43570653 0.65900624 -0.17145246 -0.019258576 0.097457066 0.30615604 0.1874155 -1.4609822 -0.3140785 2.624781 0.5382509 -0.87484205 0.36517772 1.0389826 0.6753939 0.52785885 -0.200855 1.4602113 0.9724495 1.9739311 1.8546013 -1.572524 1.1683474 0.3006739 1.2353138 1.0591598 -0.33768216 0.31665042 1.2623678 0.16867222 -1.2398638 0.6626285 0.37801152 -0.72590077 1.5772144 -0.36791474 -0.5198572 0.0051831226 -0.48566657 0.6311909 -1.0086238 -1.3629972 -0.18939972 0.0098987445 -0.39433035 0.7006123 0.07803745 0.8235204 -0.13999818 -0.72544277 1.6102726 0.681568 -0.15410672 0.03146471 -0.47049898 0.32013792 -0.6974336 0.8029388 0.51351225 -0.6317262 -0.3592738 0.28321272 -0.61603606 0.27932727 0.11053974 0.0036513591 -0.9128538 0.6812411 -0.08820862 -0.10942773 -0.40276256 -1.5588566 
0.5746694 0.58469844 1.5162181 -2.3174548 0.17106114 0.7514515 -0.46486136 -0.13084707 -0.7352852 1.4049289 0.6035135 -0.14981985 -0.48951983 0.77301776 -1.7004031 -0.12278219 1.1731153 1.11547 -0.888506 1.2917018 0.56286865 1.0957065 -0.16859056 0.85540205 1.0728582 -0.8023057 -1.459751 -0.5004885 1.2258002 -2.4822745 -1.0523267 -0.025592482 1.1783065 0.05713805 -0.37077236 2.3112562 0.10539445 0.44598404 1.0086061 -0.015586459 -0.4260632 -1.5836321 0.16116092 0.98666734 -0.67523575 0.108495295 -0.999044 -1.9344585 -0.9256285 -0.23475191 0.4179035 -0.033063896 -1.3215177 -0.89653176 0.7191003 -1.0507369 1.5114096 0.6257512 0.06255942 1.3701148 -3.2983036 -0.4314125 -0.6340959 1.442633 -0.97043246 1.0773659 1.03031 0.6866176 -0.27995652 0.09171105 0.8758159 0.27637497 -0.48764712 -1.774386 0.3938522 0.28201085 1.2404631 0.43837363 0.72396535 -0.28242007 0.7224663 0.6847148 1.3681909 -0.014716953 1.8112969 1.894325 -0.2153381 1.0325463 0.6228593 0.39321667 -1.252847 0.14260179 0.6133936 -0.7284902 -1.3152903 -1.247703 -0.8669061 -0.35815427 0.4401066 1.1668677 
-0.882073 0.8219295 0.92221975 0.99471176 -0.9198564 2.195926 0.48875883 0.015994627 1.3552059 1.1408092 -1.1508807 0.50649786 -1.360617 -0.57998586 0.33990833 -0.04152082 0.83765435 -1.5083785 1.3511674 0.19192095 2.361036 -0.41338903 -0.38230994 0.6536248 0.16908333 -1.7752993 -0.05404912 0.51468474 -0.43657944 1.1477445 0.44816196 1.4493175 0.50556767 -1.3709332 -0.5098091 -0.2660282 -0.54958177 -0.9748593 0.40643567 -0.92885613 0.4850031 -1.4567868 -1.3081005 -0.45791033 -0.017172828 0.4397326 1.27055 -0.4693951 -1.3396075 0.8950751 -1.1259918 0.022282425 1.292344 0.18645726 0.3581025 -0.79996526 -1.9399275 -0.22039628 -2.6836731 -0.62197536 -0.23806857 -0.36835578 1.2531868 1.045205 0.3663132 1.5485808 0.058463696 -0.52485913 -0.03607856 0.53402746 -0.27533138 -0.21661173 0.32619625 0.37988943 -0.26167142 0.1035931 0.28461155 -0.55744344 0.20635708 1.5932623 -0.9275158 0.3049459 -1.6907891 0.2666533 -1.1189693 -0.64696527 0.07501535 1.8659683 0.8552759 -1.92372 -0.44514322 1.1958239 0.02068181 -1.3739039 0.78605705 -0.11840791 2.3871708 1.9433839 0.32285252 1.2230543 
0.9934915 -1.0846114 -0.4232506 1.0815043 0.48263773 -1.01134 0.15956384 -0.5140671 0.38361117 0.115527906 0.33378816 0.9470712 0.6655645 -0.7161845 -0.77660304 0.21272372 0.77698994 -0.80339414 -1.9083961 -0.68005854 -0.5121911 -0.94080883 -2.083916 0.695948 -1.283773 0.008228627 1.0762821 0.04015424 1.265481 0.5641903 1.0651335 -0.24929297 -0.6940143 -0.8717446 1.335096 0.6900109 -0.14770365 -0.29464468 -0.9240012 0.19035345 0.26551262 -0.93017834 1.2654167 -1.0183076 -0.98004675 0.5237695 -0.666797 -1.2595695 0.1633536 0.21381983 0.1785654 0.6958217 1.3956687 0.12434068 -1.2948964 0.51700705 0.57781154 0.3151767 -0.8102024 1.0059996 0.72615707 0.628174 0.21561654 0.8974874 0.4479517 -0.39901087 -0.35419545 1.4844929 1.1335255 0.07928863 -0.34604645 -1.0639431 -0.6913203 -1.3844941 -0.035305277 -0.38863397 0.7398803 0.5816307 0.6176438 -0.654449 -0.8992874 -0.11427639 -0.4542204 0.68854535 -1.1936953 0.7826666 0.96910095 -0.0934292 0.09712441 0.44251606 -0.42520443 0.29798102 0.66540575 0.021746024 0.39712456 1.8119655 -0.7027483 1.429829 -1.3694241 -0.057167843 
-0.13096121 1.3190157 0.0058757653 0.12699662 0.99218786 -0.16639572 0.08517893 0.40491128 0.69261295 -0.96751857 0.618857 0.52139586 0.4528775 -0.9993875 -0.4899474 -0.70574135 -1.6131771 0.34961194 -0.23716827 -1.4371516 -0.5843115 0.10411252 -0.69401884 1.1662766 -1.4757345 0.7003099 0.33055407 -0.75507474 0.12995501 0.21812615 -0.83214587 0.5033914 0.3316368 -0.91337913 0.9103282 -1.1530037 -1.5715626 1.1212304 -0.6911706 -1.2586402 0.6281317 -0.0329054 -0.3022045 2.0668085 -1.2293416 1.2728454 -0.019177364 -0.98207057 -0.31081468 -0.912647 0.14983302 1.1440476 -0.30166623 0.71062106 1.5119193 -0.48728386 0.92738694 0.44458413 -1.1344016 -0.41458845 -0.47221905 -0.6941755 0.76046216 0.1779422 0.07923826 0.5394497 -0.24987079 -0.3488197 -0.43312195 0.79604703 0.058526732 0.9765027 -0.25259182 -0.20951807 -0.4684758 -0.88829905 -1.5848663 0.16431512 0.115933105 0.98612607 -0.7038752 0.9663862 -0.98020583 0.08410108 -0.3054226 -0.38517025 -0.94046515 -0.82422954 0.66160643 -0.7876182 -0.30203357 -0.7090389 -0.53957087 1.2326294 0.4783779 -0.6476305 0.064615645 0.88235676 1.038003 0.39455333 
-0.103318445 0.80751413 -0.114550844 -0.69932365 -1.1718255 -0.7985815 0.6986241 -0.12841626 -1.7548643 -0.23171866 -0.08178554 0.2307069 1.4995024 -0.33378354 -1.0140859 0.64576215 -1.2045863 -0.27755973 0.76437354 0.38190264 0.4568203 0.6316433 -1.6643324 1.2663002 -0.3856242 -1.5242171 0.56709987 1.1181298 -0.23774882 0.2625485 -1.011645 -1.6885871 0.09217116 -1.3423295 1.1094425 -0.013040459 -1.6775315 -0.23973417 1.1896822 -0.31337646 0.30090514 -0.68647164 0.07634645 1.0186328 0.24553014 -0.39220387 0.20640737 1.8661188 -0.91433394 1.364625 0.26421344 1.4898754 0.9518241 0.35365236 0.77126217 0.6844086 0.5904497 0.7412037 0.25774446 -0.15114348 -0.9085852 -1.2040313 -0.1794487 -0.32215697 -0.68206936 0.0015476053 0.15797868 -0.8456093 0.78632325 -0.87517756 -0.8118671 0.95927733 0.8575006 -1.0144051 -0.053744785 1.5623535 0.9238765 1.0296507 -0.23442017 -1.0222944 -0.016899044 0.21700187 0.08149545 -0.73075795 1.0072916 -0.70577496 0.5555027 0.86872935 -2.1174538 -0.5530378 -0.12550513 0.008004195 1.7687535 -0.1875557 0.86855876 0.15461196 -0.89091074 0.116580635 1.097881 0.3421647 
-1.5681989 0.1684658 0.3491132 0.17902444 -1.0276664 0.13661264 -2.0084221 -0.64284956 -0.60917157 1.3936255 -0.56418866 -0.16408183 -1.607068 2.260633 1.3222132 0.9136729 -1.0561234 -1.167855 -1.1620724 -0.33018154 0.73578006 -2.7387843 -0.98706865 0.8318854 1.1526713 -2.601902 -1.1579518 0.47817972 1.0578638 1.6133878 0.4117526 0.119420364 0.74290675 0.43041155 -0.20467974 2.4963217 1.5560689 -0.64483875 -1.6451099 -0.23390344 -1.1034771 -0.6531315 -1.2737771 -1.2713506 1.2286125 -0.15471455 -0.8317777 0.3536025 -0.19493301 0.5101172 1.5650796 0.048407596 -1.3025883 -0.40752068 0.542951 0.21575221 2.036391 -1.5239983 1.2048379 1.6173184 -0.7172132 0.06855684 -0.3859474 -0.56937325 0.63015836 0.5832827 -1.8982952 -0.45266625 1.6059128 0.5900391 0.3214847 1.1245902 0.84523684 0.19750097 -1.2744992 -0.42720562 1.9828898 0.20428729 -0.81249297 -0.9522383 -0.34258988 2.4243462 -0.119516596 0.93802065 1.3165467 0.5957077 -1.1692364 1.4675233 0.31167194 -1.645963 0.997441 -1.3678674 -0.68211585 -0.40165472 2.1742342 3.6360054 0.64964396 1.559385 1.0726357 -0.23148425 
-0.09440135 0.23416425 1.3804607 -1.0823504 0.17423704 -0.07452908 -0.1755097 0.569551 -0.19712219 1.1168618 -0.42826682 -1.0563421 -0.012947037 1.2540365 -0.34627435 0.15625626 0.021452472 -0.11853866 -0.58847284 0.5058734 1.0555689 0.7056417 -0.732558 -0.49216494 -2.3270473 -1.0801159 0.11897042 0.9350177 0.40653262 -0.8727221 1.0019119 0.58102024 -1.0649303 0.4186037 -0.9189205 0.4787212 -0.84887075 0.36254483 0.46615493 -0.623454 -0.71277213 -1.6090947 -0.93438303 0.47290632 -0.03448915 0.80015767 -0.84240323 -0.6049876 0.44293812 -0.31646675 1.616214 0.3290972 0.74462765 1.4163833 -1.3530706 -0.709739 1.2815332 0.006372923 -1.22748 0.9196816 0.32667473 0.33920085 0.76422966 -0.3990698 1.3025084 0.77492905 0.639411 0.66820014 -1.8212018 -0.101630144 0.09947714 0.62443835 -0.4482266 -0.29444668 -1.4059545 0.48053846 -1.4669299 0.5811091 0.9596959 0.59690213 -0.7743728 0.54175663 -0.080391034 0.31183642 -0.7665763 -1.1595787 0.57674056 0.5003816 0.19651832 -0.74625075 0.40880895 0.61528987 0.2962645 -0.38957086 0.79394096 0.5208323 1.4462875 -0.13628893 -0.28704625 -1.5588535 
-0.042772412 0.70136595 0.7641957 0.69952184 -0.40478715 -0.6616442 0.3030583 0.31165895 1.7043008 0.014179162 -0.1697494 0.8721288 -0.45021015 -0.8110768 -1.4364218 1.2946441 0.28631493 -0.26982218 0.077189706 -0.44147402 0.22589256 0.23400061 2.2142408 0.24152711 -1.0847844 2.3187864 -1.432972 0.8597146 -0.24247383 -0.045951746 1.2983195 1.4384096 -1.3580928 -0.24331011 -0.88265085 0.61928046 0.09449917 0.81288016 0.41090307 -0.6065379 -0.9985166 -0.55393225 1.0821486 -0.6699151 0.778134 0.3749699 -0.33234328 0.46487707 0.73789185 -1.1321287 0.28414655 1.0935991 -0.50755566 0.2063067 1.6446263 0.5176936 0.62938774 -1.0135711 -0.7243025 0.24498035 -0.7818565 -0.58918643 0.73765564 -1.558889 0.27901012 -1.5458928 -0.86617243 -1.3483661 1.7817217 0.35784402 -0.27348533 0.6413731 0.30927902 1.0415748 0.09409262 0.4133773 0.74681956 -0.58234113 0.7956493 0.38715035 0.30006883 1.1959934 -0.1595666 0.09442277 -1.1457986 0.6606687 -0.5309369 -0.23503797 -0.3029666 0.531537 -0.74398184 -0.23462394 -0.0195455 1.2430416 -0.5528992 0.65239966 0.40760654 0.914344 -0.80947 0.64382297 
-0.7199259 -0.80346334 -0.02857165 0.13058724 0.5948326 0.9489841 1.0814115 0.4891555 -0.83819956 -0.5275653 0.049204715 -0.44834247 1.1460203 -0.60443467 -0.5125316 -0.39252618 -0.72256446 -0.753436 0.43292043 1.0079198 0.061275735 -0.8305689 0.02511383 -0.35696337 0.09365416 -0.30066448 -0.29604983 2.163138 1.2238781 -0.29607946 0.79426444 0.27631268 0.24089698 -1.0868367 0.15241468 -1.0705528 1.0900029 0.14167158 0.8122072 0.0022119582 -0.9140777 0.064946555 -0.47524086 -0.027622724 1.6300198 -1.1857015 1.3924081 -0.20674552 2.09487 0.5430597 -1.6862348 0.51750505 0.79026806 0.6291288 -1.8265867 -0.44875926 -0.17107467 0.4423267 1.1852566 -0.46941483 -0.10316486 0.5874607 0.65474474 0.68970233 1.1107578 1.1948164 -0.06397405 -0.5073781 2.194814 0.9359018 -0.5933864 -0.039883412 -0.2620337 0.682148 1.0041299 0.28283033 -1.4759151 -0.5005289 0.4052474 -0.5693443 0.050442167 0.34746405 0.18528432 0.14012463 0.34818292 -0.3449879 -1.2958138 -0.5878206 -1.2285858 -0.9655868 0.3716837 0.24048916 -0.03198205 0.7829697 -0.060738225 0.69575757 0.4484309 -0.31553552 2.2634444 -0.14890674 
-0.08752491 -0.14145519 -0.6929389 0.67334104 0.07356951 0.33237225 0.19043316 -1.3077168 0.9160232 1.734394 -1.1143669 -0.4265164 -0.34394345 -0.58758354 -0.031458076 0.98528767 1.0054345 0.49260175 1.0659821 0.6019981 0.5895432 -1.1198288 0.32187065 -0.85318047 1.4397117 -0.38921475 0.10899739 -0.47505662 -0.25290483 -0.4687878 0.9818193 1.0521723 0.6179724 -0.4240896 -0.9880507 -0.903193 -0.10773455 0.3005618 0.60471416 0.009315821 0.27412617 0.5058694 -0.13599652 0.19847989 0.16487569 -0.857963 0.15626156 0.7784523 -0.09372448 0.5147041 2.2012696 -0.7397676 0.08843358 0.26272923 0.12582317 0.070120975 -0.21852335 -1.0871967 1.4903448 0.9862374 -0.46167955 -0.6195804 0.04182283 -0.12088341 0.955418 0.66772157 -0.96617526 0.3077155 1.2149515 0.6937195 -0.06103001 -0.8387171 -1.0639149 -0.7745101 0.3546736 0.5659754 0.41021818 -0.41205862 -1.1006993 -0.632346 -0.32520095 0.5803889 -1.6578199 -0.4282335 -0.3824351 0.78813523 0.33117694 -0.0493624 1.436169 -0.68020356 -0.3210356 -0.5716098 0.052198194 -0.2128767 -0.679567 -0.18257941 -0.25094983 0.1884545 1.7767037 0.4854866 
-1.2267653 -0.3908504 0.7956172 -0.312163 0.8437892 0.18049832 -0.03267833 1.1398036 1.0411211 -0.2703239 -1.0311202 0.49349406 0.0116215795 1.5975081 0.3990364 -0.95323616 -0.12676264 0.2054756 1.2732552 1.5272224 0.45171195 0.39958882 0.894263 -0.12777698 0.49087933 -0.8342786 -1.064532 -1.9820737 -1.9815567 0.2492102 -0.4238804 -0.8686227 0.14759742 -0.55832034 -0.7009544 -1.3508086 -0.23572843 1.4178011 -0.51440454 0.730967 -0.17259796 1.2001445 -0.7838883 -0.26527065 0.71121234 -0.45902222 -0.28985798 -0.67398274 1.2897843 0.24486323 -0.8418359 0.2040487 -0.17401984 -1.3866056 0.9850851 2.0583026 -0.47752962 -0.0658658 0.3315153 -0.9476227 0.40962934 -0.052561186 0.5632973 -0.2078956 0.43793622 0.66226417 0.54397386 -0.40256834 -0.4408653 -0.19976953 -1.0972639 1.8443174 0.49667335 -0.25832313 -0.3026352 -0.72935706 0.9658997 1.039266 -0.16132118 -0.02821793 -0.6675918 -0.3873636 -2.046501 1.9836727 -0.7768558 1.089837 2.5400965 0.23156363 -0.6947494 0.25647357 -0.63215387 0.7268953 -0.45484695 -0.5801434 1.4690261 0.50753164 -0.42981404 -1.5821323 -0.99813294 -0.15382013 
-1.0757962 0.43957487 1.6155336 -1.363968 -1.3268429 -0.21080312 -1.9101976 -0.87687635 -0.019913683 1.5022291 0.9442839 0.30792162 1.2513397 -0.833464 -1.6389049 1.2274677 -0.23873094 -0.3579511 0.61490273 -1.4455369 0.48816505 -1.9054595 -1.9885457 1.9529352 0.87223125 -1.1034021 1.0375789 -2.2145224 0.17469478 0.026573177 0.06343703 1.2220998 1.1774768 1.666184 -1.440547 1.9346901 -1.4752848 0.26306352 0.3681033 0.14863509 -1.8570726 -0.01916092 -1.8648496 0.3093367 2.3023765 0.33822018 -1.0443945 -1.5399032 -1.2622894 1.5045701 2.6785955 1.8081967 -0.4106756 1.765951 -0.18291698 -0.19862683 3.3718984 -0.0565976 1.2267334 2.1992428 2.7652845 0.24653476 -0.30704945 0.7892365 -0.96185523 -0.85580343 -2.172471 -0.27229428 0.4887403 3.4136045 -1.9544573 1.6515126 -0.779192 0.66285855 -0.62580985 0.71496993 -0.79354554 0.8064667 0.18743317 0.7822197 -1.4191469 0.4655431 -1.0888071 -1.6410084 -0.4147169 -2.8738024 -3.1793873 1.0244989 -0.47970578 -0.6604818 -0.90352756 2.2354603 -1.027877 -0.8625921 0.63000184 1.9008309 0.9647769 1.3341342 1.895006 1.8617975 
1.0906844 0.070003085 -0.9411374 -1.2299733 1.0228688 0.23108381 -0.09919093 0.39573562 -2.3337336 1.5231932 -0.19117603 -0.46331087 -1.5055212 0.81041145 0.30095297 -0.3831402 -0.91975915 1.2068648 -0.5539558 -1.0694066 0.20380619 -1.0409806 -0.8549503 -0.7137553 0.20462707 -0.34224504 -1.137407 -0.616433 -0.4859783 -1.2674533 0.7945248 0.35813576 -1.6065097 -0.40569502 0.8533932 -2.1847434 -0.91802216 0.33531705 0.012617146 -1.0616444 1.7412881 0.06897058 0.35154313 2.0842793 -1.792165 -1.3647343 0.007907915 0.36392406 1.0101085 0.25591117 0.123085916 0.3858459 -0.9723021 2.4072497 0.5979273 -0.15152043 1.3314282 0.5034135 -0.7028523 0.3082321 -0.61738634 -1.1577932 -0.22879496 1.5880874 -0.8761311 -0.046843953 -0.90291965 0.07720431 -1.4636233 -0.105299145 0.19861789 0.5817166 -0.7398305 -0.17503686 -0.003967452 -0.79075646 -0.7382683 0.5670905 0.047997463 0.32930213 -0.77845055 -1.1680458 0.77636117 0.06502644 -0.21708116 -0.73461866 0.75340694 1.2929344 -2.0642517 -0.34103853 -0.6639237 -0.6728194 -0.31649092 0.5088021 2.4465244 -0.3341579 1.2978364 0.5059113 -0.0461066 0.83183724 
0.51213396 -1.0838596 0.8577676 0.85024476 -1.1564054 -0.18063024 0.7382976 -0.15096691 -0.4863885 1.5008112 -0.8351207 -0.76630455 -0.60757 -0.0683743 -0.40790296 0.5212916 0.86980444 -0.46841663 -0.2641005 -1.2361773 -0.8700414 -0.54141635 -2.3005383 -0.41172832 0.62264985 -0.03240333 -0.073027834 0.47201794 -0.12839296 1.5231009 -1.1032829 0.5778595 1.8908201 0.76535183 0.36697492 0.62475914 -1.1338402 -0.31517366 0.647422 0.5814718 -0.06843179 0.5773368 0.34401938 -0.5801411 -0.6993747 -1.2777138 -0.55484796 0.472714 -1.6780299 0.5904923 -0.15557128 -0.47058442 0.0863549 -0.7967767 -0.796959 -0.5392109 -0.2665485 -0.240748 -0.4610364 -0.41240308 -0.8149047 -0.4982195 -1.6389425 -0.10032232 0.35751784 1.4238294 -1.6366589 -0.22791858 0.11780004 -0.9180309 -0.95466703 -0.03462805 -0.23800895 -1.2880292 0.2729453 -0.23010072 1.0796069 -0.2758003 0.5335784 0.86059445 -0.60464174 0.7209679 -0.37228796 0.41953126 -0.10826029 -0.28883138 1.7601504 -0.2044244 0.8768781 0.58853376 -0.7331712 0.1471025 -1.6264805 -1.0779907 0.17819008 -0.72447693 -0.44442353 0.20913246 0.38904527 1.6463432 
1.2804165 -0.30856365 1.5952973 -1.2049781 -0.42721862 0.8755229 1.3358828 -0.27935135 -0.3422189 1.1013898 -0.19853243 -0.7286442 -0.8531259 -0.65082777 0.7352561 -0.30884466 -0.37198037 1.3298405 -0.4255452 1.6461066 0.27052265 -0.09856431 -0.50719446 -0.26486722 0.6100728 -0.8214113 0.1534121 -1.4399853 -0.5596403 -0.02653678 -0.9385868 -1.6066569 -1.2417469 0.24140292 1.1651113 1.8629802 0.20278698 0.81040204 1.3315567 -0.20644145 0.70763594 -0.21738665 -0.39060387 1.2117814 0.8876608 1.0736257 0.17640537 -0.058374017 -0.5795135 0.7353609 -1.2625549 0.86347777 -0.6374308 -0.05160451 -0.15961185 -0.75746 -0.54437715 0.43967387 -0.23176965 -0.09949812 0.43761763 -1.2198831 0.517512 -0.3077832 1.6373712 -0.7782537 0.42869136 0.005212756 -0.55435336 -0.1942814 -0.77381945 0.9392592 -0.9523854 -0.62754494 1.0198858 -0.058750484 0.9170247 -0.7423837 0.54289657 0.3005468 -0.060947336 -0.12693153 -0.70130247 0.4986271 -0.49078235 1.2099215 1.2678684 -0.13989623 -0.011567535 -0.8739568 -0.950259 0.34472796 0.10993522 -0.6926585 0.8914145 0.65445393 0.18847989 -1.2566996 -0.41781312 0.9585662 
0.12709543 1.0507805 -0.38018903 -0.2851417 0.07686932 0.82922053 -0.73009294 0.41660112 -1.202446 -0.05906963 0.111080185 -0.58282304 0.39253858 1.4100043 -1.2468123 -0.16954683 -0.0028191062 -0.7745846 -0.08781515 0.06717253 -0.80195075 0.051698685 -0.13308208 -0.34473902 0.2512889 -0.46444666 -1.874263 -0.80594945 -0.025506292 0.74422365 -0.8652694 1.3023629 0.57017905 0.64060795 -0.7073581 0.8536991 0.79274374 0.2552165 -0.06851543 0.35414836 -0.15993045 -0.0960301 -0.9204608 -0.6805931 0.4540821 -0.7788029 -0.19045432 0.69803774 -0.7346192 -1.0751702 0.8044774 1.1183999 -0.45046285 0.5041504 -0.22071318 2.4383588 -1.243637 0.79259217 -0.16214468 -0.067356795 0.1533445 -0.9469192 -0.122723036 0.94482905 0.5321126 -0.7664537 0.6872613 -0.19010845 0.1258009 0.7659525 -1.1076154 1.0590198 1.2438061 0.59418607 0.8965881 -0.14556924 0.7237835 0.010637342 1.070858 1.6865913 0.9820326 -0.42940816 0.76100075 -0.6561331 -0.8179439 -0.30474392 0.31835994 0.12286707 0.30052516 -0.27371165 0.59819704 -2.3146017 -0.29693803 -1.090792 -0.24753287 1.410235 1.2306099 0.25394082 -1.3371811 -0.23920412 
-2.3059545 -1.4711388 1.5348936 1.3309116 -1.7865834 -0.5849226 -1.4130955 0.6270595 -2.6782126 2.3445475 -0.7356919 1.4123098 0.05921488 -1.5607971 -1.1296204 0.70313436 0.60131156 -1.9280449 -0.60693735 -4.2183123 -2.1890552 -1.0254824 -1.7370716 2.2086155 2.8173797 -0.8353879 0.74385434 -0.13148326 1.7454232 1.6508989 -1.2368368 -0.07576023 2.19504 1.1055912 -2.1301966 3.4408314 0.01402671 0.5366581 -2.7189002 -1.5440519 -0.6402422 -0.29068682 -0.036054373 -0.24193566 0.665576 -0.95446765 -1.4423114 -0.52601296 -1.132093 1.3691586 4.1401906 0.64826304 -1.4134719 1.0017328 -0.9103602 1.0457445 1.7615818 -0.10775357 1.4211149 1.3901515 0.7401848 0.7779806 2.822324 1.3333104 0.41465133 1.0748783 -2.838728 -1.0455317 -0.68284696 3.6118138 -4.678665 3.2183418 2.9265513 1.6262882 -2.6560779 1.5151792 -2.8914437 1.3514009 -1.7463602 1.8182667 -1.6910522 1.7617891 -2.896304 -0.19397706 -0.906635 -0.38475713 -1.5138456 0.75669014 -0.43780333 -0.6564474 0.21170415 2.2089517 -1.2172972 -0.35669458 -1.445323 1.7360266 0.29862773 0.6969275 1.1907128 1.1870986 
0.56618476 0.23085259 0.40877694 0.32911104 -0.6910053 0.043484963 -0.77595764 0.898031 1.329573 0.2097704 -1.2438085 -1.8911802 0.37922063 -1.0115387 0.20267266 -0.2603615 -0.35282615 -0.14954695 -1.3669763 0.081992164 -0.3233638 -1.571657 -1.1448379 -1.3293389 1.4463668 -0.6421647 -1.0610957 0.6168447 1.5511684 1.0485263 0.1888497 -2.012555 -0.56783557 0.9887786 0.7596088 -0.52697915 1.2245349 -0.5076364 0.45917743 -0.3503642 -0.5404306 0.7546533 -1.1044838 1.5086385 -1.3632674 -1.1085051 0.07307599 0.10731839 -0.4322014 0.3221479 -0.18921131 0.30949134 0.09297485 0.5625679 0.19073053 -1.2285963 0.4287865 -1.1464549 2.5092866 0.3944366 0.16671617 -1.5136625 1.011814 -1.0113089 0.5419303 0.09652096 0.7918936 2.1925766 0.30975747 -2.1539423 -0.9427632 0.87557745 -0.35393927 0.83363515 0.93213165 -0.18933079 0.7149392 0.045389753 0.37917265 0.37203467 -2.0115385 1.4635394 -2.3010569 0.2872121 1.4841825 0.0002974754 0.81182134 0.17875 0.5299937 0.72151387 -0.6108799 0.3192942 -0.8587327 1.8046801 -0.48108524 1.528651 1.4195836 0.8507364 -0.5600358 0.13608848 
-0.26649195 0.18755612 1.1418521 -0.7711473 -0.48505124 1.4215287 0.69358253 -0.5254098 0.3689342 0.7361442 0.33480066 0.99070793 -0.50732803 0.5418752 -0.64653116 0.3367918 0.00023684239 0.98276013 0.13775325 -1.4349029 0.44847885 0.6339156 1.1505536 -1.2638332 -0.5382177 0.61424345 -0.9876259 -0.6029344 0.2916238 0.36712164 -1.136553 -0.14918198 0.6870934 -0.48588583 -0.20291577 0.8712149 0.5459911 -1.5853463 0.48954365 0.7111955 -0.64783674 -1.5816861 -1.0044389 -0.3575249 0.31378755 1.0473121 0.26350686 0.6250132 0.9853301 -0.012629811 0.24030748 0.23129755 -0.7500522 -0.18581197 -0.6959175 0.31776643 -0.73521096 -0.12980121 1.0724843 1.9094731 -0.5575575 -0.30910313 -0.8457898 -0.07575079 0.02397067 0.08210643 1.0707222 -0.5190218 1.2671865 0.88126904 -0.2676036 -1.8972241 1.4730101 -0.22148685 2.2483554 -0.16914131 -1.3639126 -1.2397946 -0.19357811 0.3333638 -0.07718793 0.49064633 1.0863625 -1.9351571 -1.4201416 0.2641963 -0.54256356 0.44695383 -1.0566427 -0.16217493 -0.82981443 2.5450377 -0.966657 -0.050515752 1.5072345 -0.51288277 -0.5122435 0.56513715 1.3060755 0.4827315 
-0.9410607 -0.33219004 0.51384175 -0.6056594 -0.69497865 0.42896459 -0.30951497 0.6247631 -2.5921204 1.3224106 -0.16251771 1.3951446 -0.8678506 -1.0846452 0.01877335 1.2509775 0.33347896 0.5123389 0.39362574 0.5878896 -0.7198222 -0.2258111 0.0112621905 0.05200311 -1.2955846 -2.0383668 1.2396944 -0.29869732 -0.5889812 -0.164609 0.12037046 0.56024027 0.109438315 -0.03193858 -0.71003336 0.54190373 0.7062882 -0.42788225 0.58983994 -0.53881246 -0.3367886 -0.5090923 0.12470006 0.55880755 0.60724115 0.35444826 -1.0802387 0.62717026 -1.9437622 0.8228503 0.58466274 1.5205323 0.4230152 -0.43596688 0.46092245 -2.251385 0.19461273 -1.200669 1.1224948 -0.46792835 0.08734857 0.469459 -0.026727686 -0.18911406 1.3575573 -1.0402637 -1.0880967 0.92762667 -0.59268636 -0.40922168 -2.1676881 -0.32267803 0.73579663 -0.64193976 -1.659113 0.4687071 1.1416771 0.35851446 0.8015837 -1.5559263 -0.6116619 0.34627625 -1.0091501 0.16267797 -1.2732481 -0.25515443 1.2858065 0.37860915 -0.041584082 1.3007953 -0.724002 -0.3709074 2.0068095 1.295121 -0.2642798 -1.0512819 0.0040691555 -0.42005882 0.20674363 0.2399071 
-0.15234041 0.74169165 -0.34706753 0.7055052 -0.8813637 -0.54791546 -0.34750977 1.36828 0.5413084 1.8775696 -1.1338136 0.71395165 0.7021711 0.9464482 -0.29304564 -0.52691555 0.076268375 -0.06906477 0.15752244 0.90204835 -2.20162 0.5527418 0.3236047 -0.4252312 1.1771173 0.3993964 -2.0844443 1.1113484 -0.12678306 -0.15264732 -1.2632927 -0.5838976 -1.1837705 -0.2545589 1.2481176 1.4469463 0.4901503 -0.45159572 -0.8108116 -0.73402476 -2.3293636 1.2851914 -1.1888882 0.8086164 0.77907306 -0.801121 0.78594357 -0.1865708 0.26775408 0.33982736 -0.6204625 -0.35414132 -0.60047424 1.5575346 -0.9403111 0.56499153 -1.0056429 0.6750534 0.21030849 0.8749991 -0.44980487 0.442939 0.048885435 -0.14917645 1.6541954 -0.9137848 0.0013543726 0.4073659 1.1525413 -0.416917 0.011602484 1.1863397 -1.6270111 0.83137935 -0.5400711 -0.15325908 0.057761014 0.61160886 -1.886327 -0.80716616 0.89821965 0.36578026 -1.2289717 -0.6962469 -0.9560642 0.6626724 -0.055520702 -0.4078152 0.0028794243 2.0182478 0.73540866 0.76807094 0.7437805 -0.62272525 -0.40297708 -0.69165957 0.98836344 0.029319348 -1.5212219 0.90968007 
-2.209214 0.26101682 0.04826698 0.8296117 -1.5066323 0.67657846 -0.9057623 0.65330243 -0.7182165 -0.43953872 0.6896357 0.33825243 -0.93565637 1.0939759 1.4903868 0.33588085 0.057106975 -0.31312123 -0.47602785 -0.046902552 -0.970896 1.6063246 0.5036839 0.47795016 1.0013444 0.37277815 -0.94199526 0.16575786 0.10683916 -0.27202424 -0.6914355 0.450212 0.92158246 -0.5873455 0.28177577 0.2641889 -0.06838224 0.2270494 0.27977085 0.17970777 2.2600896 -0.3268319 0.6490426 0.5007411 0.78999317 0.4215906 0.12581387 -0.3367535 0.68926096 -0.13261645 -1.2679354 -0.42022184 0.2701159 -0.15343255 2.1980176 -0.3259089 -1.3400496 -0.17149697 0.32880166 -0.7015636 0.57946473 -0.2822483 -0.33879247 0.82717276 0.96761334 -1.2760274 -0.4910448 0.14698352 -0.28668627 0.83748895 1.7609811 -1.1113019 -0.7419386 0.4660389 -0.22573105 1.2128259 -0.051688764 -0.031404365 1.1449604 -0.7331982 -0.30924293 1.2490809 -0.31363147 0.56641656 -0.4713475 -1.1206042 -0.88410115 0.013490728 0.09096279 -0.23371634 0.9794062 -1.4940681 1.0279517 0.6096814 0.13804092 -1.4801363 0.26588243 1.104823 -1.2225165 -0.48753005 
-1.1505322 -2.455496 1.5565981 -0.31813988 -0.5923858 1.6358914 -1.0296335 0.55073136 -0.81178534 0.85676336 0.5155174 0.5200705 0.8498164 0.31904402 1.6614659 -1.4802629 -0.42494953 0.1336703 0.6985722 -1.1972806 -0.68240273 1.3962524 -0.2642153 -0.15965761 -0.9463937 -0.30751666 -0.6488135 0.5303002 0.03058546 -0.8978978 -0.33003145 0.48230964 -0.0147692915 -0.121967815 0.41557252 -1.428282 -0.93658805 -1.1214542 0.62496483 0.019699287 0.69172317 1.0473667 -1.9175565 -0.7255001 1.6836219 -0.86112964 -0.13632396 0.7991277 -0.4895065 -1.2538598 -0.023495484 -0.28892657 0.69291544 0.47028843 -2.092133 -0.89847916 0.12900321 -0.060602657 -0.2877641 -1.0472914 2.2317684 -0.60795844 0.043046195 0.28418067 -1.6108261 -0.141706 -0.6708181 -1.70827 -0.9617215 0.591419 -0.6174798 -1.822824 0.31191614 -0.2733982 -0.916851 -0.97591007 -0.014763158 -0.84252226 -0.066014856 0.3617629 -0.8912687 -1.0788666 -0.16474259 1.1713861 -1.179708 -0.0633629 -0.20982955 -0.9841876 -0.3710276 -1.6897787 -0.2815681 0.5718737 0.15668762 -0.34978178 -0.4593351 0.99058455 2.14164 -2.2263138 1.293447 -0.76081985 
-0.7990715 0.71657693 0.8417672 0.0785468 0.27125707 -0.38057342 -0.5349974 0.1678913 0.75401485 1.3112293 0.4764449 -0.7430556 -0.4473733 0.23407078 -1.125656 0.42597488 0.049958408 0.21446775 0.13765518 0.28838357 0.2858397 -1.1174173 1.3812817 -0.13257611 -0.7342067 0.45837542 0.22926655 -0.10023052 -0.45686066 -0.30013227 -0.8910285 0.3699884 1.01282 -1.0010608 -0.16258062 0.55539626 -1.0199066 -1.202543 0.20358822 0.0621116 0.28401178 0.73423207 1.0617343 -0.5620985 -0.047573723 -0.99438006 0.54787123 0.34159014 -0.42579016 0.48827708 -0.18729278 -0.48030785 -0.201267 1.1747987 -0.51096785 -0.5915999 -0.27743512 0.8756337 1.6010364 -0.8525288 -0.6834812 1.2730238 0.16891465 1.0439397 -1.0713911 -0.2095209 -0.49391097 -0.25394568 1.3322747 0.29158384 -0.7346313 -0.17292076 -0.67066467 0.09441295 -0.03234651 0.23916847 0.3934323 -0.0929173 0.34068462 0.41780874 -0.2312798 0.084270634 0.95359844 0.30403522 -0.60904866 -0.78729707 0.4749788 0.37237784 0.0061301775 0.95859206 -0.46164337 0.29299703 1.2681482 -0.15781666 -1.9494419 -0.6915261 0.9691897 -0.9274245 0.707219 -0.19145145 
-1.0150194 0.08731407 0.31176877 -0.2653085 0.10373292 -1.4191177 -0.8632428 -0.535577 -1.1334527 -0.08906442 0.09757568 -0.056898814 0.4243819 0.500325 1.2397001 -0.12386255 1.9372605 -0.72195387 0.5381191 0.026229732 1.357236 0.7308411 -0.1413953 0.3199144 -1.0175347 -0.7480133 -0.07848643 1.7402236 0.059855625 0.15628706 -0.016895195 0.10524677 -2.4062805 -1.3244443 0.45634508 -0.6886515 -0.58653724 -0.12008329 -1.2555249 -0.8991859 -0.5847816 0.9605909 0.3446807 0.17264782 0.33738312 0.86661017 -0.529228 -0.65167713 0.076489076 -0.362294 -0.68843573 0.085813336 -0.14150481 -0.24345745 -0.14086722 0.14863393 -0.7119962 -1.0973036 0.08999897 -0.17084208 -0.2549122 -0.6280226 -0.6964818 0.7897336 -0.29410213 -0.37830463 -0.019570187 -0.7687674 -0.43829802 0.1258594 1.0300884 0.16983102 0.74942565 -0.9239214 0.3280872 1.0815957 0.54897976 -1.0471808 0.22808887 -0.6550833 0.8467317 0.019504683 0.033741828 -0.0109914895 0.73976535 0.0459172 -0.1195352 -0.10096872 0.49570724 -1.5362661 -0.23425518 -0.83218586 2.0009725 0.5770878 -0.38281476 1.3821782 0.2908762 -0.013237164 -0.1350854 1.0791607 
-1.9183404 -0.61543274 -0.431372 -0.5036709 -0.13401207 -0.5790106 -1.1560291 1.7120862 0.6495626 -1.4633542 0.22553171 0.53359133 0.24812901 1.5591083 -0.742215 0.41089723 0.52668256 1.2487117 0.9853677 0.105859615 0.03540992 -1.1451072 0.95024097 0.32642582 -0.37421244 0.47787565 0.63630867 -0.9023546 0.87711656 1.8432066 0.1870336 -0.23818356 1.0655679 -0.6400409 -1.9214612 -1.5188583 -0.001826707 1.2707227 1.1646801 1.137816 0.8309461 0.038487907 -0.5667832 -0.3925566 0.8196767 -0.36368755 -0.020257156 1.1259282 0.3385063 0.52954507 -0.7437464 -0.277123 0.43327364 -0.51487666 -0.008013583 -0.8508849 -1.9562001 0.32978034 1.3213953 -1.1385875 0.31361663 0.7532937 -1.9191623 0.27759418 0.122715935 -0.30458647 -0.5199174 -0.04928393 -1.0430408 -0.20368922 1.050951 -0.21902189 -0.5172327 -0.040043496 0.15746005 0.38749233 1.4499044 0.5179003 -0.17510685 1.04192 -0.74216944 -0.06404719 -0.19657686 1.0147254 -0.5088818 0.58607376 -0.7056678 -0.4086382 -0.13538675 0.31794515 0.074830584 0.00997058 -1.430544 -0.63474363 -0.6488678 0.019101411 -0.869532 -1.9042755 -0.16522245 -0.21813147 
0.21592548 0.27036595 0.48608106 1.3599806 0.58256567 -0.51924133 0.115474805 -0.1307857 1.3096672 -1.0950925 0.38919237 2.142418 -0.9385655 1.7651548 -0.10495464 0.33761448 0.38589105 0.53183 1.0318053 1.1445692 -0.3705719 -0.1696844 -0.20684662 0.3528513 0.14544794 -0.21267273 0.052089464 -0.29546416 0.20745344 0.56980747 0.8882224 0.55130506 0.9116493 -0.46737707 0.77460456 0.18568671 -1.8812696 0.87450147 0.94201785 -0.78064203 -0.346091 0.8118884 0.0321136 -0.43216807 0.36006695 -0.14119445 -0.37001902 -0.8385866 0.8187014 0.932568 0.41739827 -0.7385758 -0.3295507 -0.28867292 0.6765602 1.0434085 0.32336017 -0.57663006 -0.45313233 -0.7625002 -0.51008624 -0.16319758 -1.0925002 0.45189497 0.6418876 -0.23451029 -0.42877567 -0.0076893326 -0.1530505 0.9581954 -1.4232932 0.085688636 -1.1258842 0.5097214 -0.22684507 -0.30127236 1.2187896 -0.5205262 -0.80091816 1.6493818 -1.2938648 1.0201452 0.643457 -0.88126314 -1.1312283 0.12942049 -0.2174288 0.6172662 0.9933729 -0.17198987 0.25911573 0.24260846 0.035142075 0.5752291 0.15927011 1.538861 0.20684512 -0.943003 0.6496378 0.15142201 
0.22866252 1.0741895 0.3555337 0.85278225 -0.7436756 -1.1323419 1.0825014 1.1177236 -1.1176107 -0.8289361 0.63444936 1.0489974 -0.3117283 0.49954075 0.043831777 0.20156798 0.50384176 -0.4958956 -0.97995645 -0.3276377 -0.47205654 1.8175931 -0.4545728 -0.6337332 -1.3322673 -0.93054193 1.7057847 -0.85838586 0.031511053 -0.14152934 0.095161006 -1.2049232 0.1575571 0.21755241 0.531856 1.1377385 0.6710751 -0.08574806 0.11263884 0.2451722 -0.37847397 1.0397601 0.411998 0.36527345 -0.26047865 -0.07135911 0.7776028 -0.11714449 -0.68083775 -0.14960027 -0.2762027 0.5862081 -0.93784654 -0.11532908 -0.9404629 -0.05495317 -0.35113916 -0.02857215 0.16164942 -0.09704046 0.64547986 0.20268105 -0.11595806 0.31393108 -0.66863245 1.0960314 0.8581484 -0.11013696 -0.50876796 -0.5134575 0.091324836 -0.48801228 1.2064708 -1.6753775 0.26979154 2.5655932 -0.6102159 0.39042267 0.9082902 0.29112217 0.7040968 -0.5688996 0.13585816 0.005989384 0.74425584 -0.19605109 -0.021948244 0.69092333 0.25223732 -0.52852213 2.1487687 -0.06810932 0.26857904 -1.6057032 0.6993317 0.73370034 0.9102587 1.3640836 -0.13147932 -0.41619354 
1.9220895 -0.029019227 0.03101008 -0.564198 -0.8720368 0.40164298 -0.6391581 -1.1871428 1.3405198 -0.20591627 0.30926603 -0.32914913 0.41144514 0.43982354 -0.4458328 0.42518044 1.1454327 -0.2813134 0.17701459 0.83742076 0.017110728 0.73043346 0.09516596 0.8209174 0.13684839 0.87324935 -1.2630793 -0.44905043 -0.72102994 -2.1088004 -0.28127635 -0.99106234 -0.41468474 -0.7857422 1.6268547 0.57298255 -0.0062759253 0.17454384 -0.20576005 1.1625457 -0.8120243 -0.62446815 -0.73177564 -0.0050725606 -0.9280073 -0.36610398 0.23562694 -0.85984975 0.59421414 -0.9794058 1.6175872 -0.047916006 0.05414566 -1.3336275 -0.053898748 -0.2512736 0.29720128 0.24572685 -0.065840475 -1.0074304 1.855273 -0.18627572 1.0787796 -0.23678479 0.21528324 0.19380872 0.78960085 -0.2260789 -0.9687776 -0.6235674 -0.91854405 -0.50563294 -0.13051675 1.695598 0.6984659 -0.9573904 0.36687398 1.0200222 -0.22518751 0.49901894 -0.15533632 0.59841675 1.1003011 0.31513652 1.4325919 0.78619456 -0.14743595 0.78306264 -1.4843727 -0.3127921 0.02232116 -0.33781758 0.43152407 -0.12494063 -1.0156054 -1.4113681 -0.13456735 -1.2396566 -0.14820616 0.13417152 
1.4727522 0.7456757 -0.10590312 1.6445061 0.5423514 0.1233975 -0.7045787 0.7571902 0.03160933 -0.3833244 1.3562045 -0.48631936 0.84508926 -1.0904684 -1.13433 0.5477679 1.0449485 -1.2359793 0.77696884 0.14424752 0.3542341 1.0779283 0.5526418 -0.3971431 -0.8967653 0.26048043 -0.6438467 0.712182 0.72348034 -0.27724424 -0.722041 1.9184667 -0.13574198 1.0679431 -1.7696415 0.20905183 -0.123666085 0.46518746 0.63498783 1.1081951 -0.14307874 0.90001374 0.13736439 -1.1260544 0.7289409 -0.15596001 1.8179504 -1.1170967 0.5828176 0.11820986 -0.049170468 0.19555293 -0.21061718 0.5576042 -0.7946998 0.8904538 -0.47720504 1.6454878 0.98729366 -0.20233978 0.6471096 -0.17046848 -1.0138417 0.68855786 -0.08464819 0.7352027 -0.29278144 -0.68906915 0.0068533514 -0.795284 0.53425956 0.8245009 0.07771975 0.68790424 -2.13625 0.35125187 0.69158125 0.45656502 0.75341994 -0.5432696 0.8048274 -0.18526296 -1.4875362 1.904431 -0.019586053 -0.14926466 0.19597462 1.5156624 -0.00085758365 0.98743224 1.2798702 -1.971458 -0.7234625 0.08430446 -1.09305 1.2899312 0.0718855 0.22437546 0.084259875 0.21930672 
0.65277725 -0.44379798 -0.6366719 0.11751621 -0.5399402 -0.35021073 -0.44842464 -1.0416507 -1.1697806 0.47845206 0.87631154 1.0516386 0.33946785 0.05132191 -0.15785228 1.1465995 0.095085874 -0.056644093 0.33970642 -0.7431144 -0.39286733 0.27339125 -0.1628463 -0.8671548 -1.3216054 -0.18391342 -0.31509554 1.3802233 -0.52998376 1.2810936 -0.6671958 1.3833613 0.42258382 -0.2073814 -0.33856606 0.90675676 -1.6331742 -0.84345704 1.0774839 0.5972112 -0.63100564 1.0042125 -0.9152777 -0.5885431 1.8410456 0.379795 -0.7554383 0.024665914 0.84817487 0.3344415 0.18030965 0.29024747 0.6847191 0.055596106 -1.7201684 -0.48692536 0.45260915 0.44539538 0.36347142 -1.0441513 0.31575388 0.4529103 0.553418 0.26255056 -0.8369002 0.6363597 -0.44925568 -0.8240988 -0.25036848 1.1117318 0.03649699 0.7719771 -0.46950933 -0.24816869 -0.52449965 0.03789242 1.3266543 0.54214364 -0.37712917 -1.555642 -1.1797552 -0.58480084 -1.1461128 -0.786037 -0.08353924 -0.17990945 0.43808925 -0.3421006 -1.2163526 -0.67852014 1.2017981 -0.10802683 0.07896193 1.6400007 -1.4382567 -1.4570616 -0.34941912 -1.3250009 0.5065645 -1.2255588 
-0.68632686 -0.45435464 0.60969055 1.1443048 0.8451773 -0.42410874 -1.0771796 -0.14577134 -0.4222008 0.21782875 -0.05019358 -0.9274401 -1.4867258 -1.1127414 -1.1761789 0.30198658 0.8547248 0.0005164611 -1.0851063 1.3083072 -0.6335192 0.12802044 0.3801003 -0.41810527 -0.84887296 -0.17652325 -0.25976494 -0.72766703 0.11210336 -0.102878965 -0.37368828 0.3886347 -0.56012964 0.23432454 0.5793188 -0.14532429 -0.78421795 -1.3430183 -0.997143 -0.3309813 0.06472134 -0.45505744 0.9870756 0.86573374 -0.9344158 -1.4321612 0.5187828 1.8418003 1.4546126 1.6126051 0.38668397 0.364017 1.031055 -1.2590991 0.084087186 0.20382343 -0.9848387 -0.50060594 -0.72530586 0.0025040037 -0.5000746 -0.06679542 -0.8637521 -0.1268448 0.30870083 -0.1817788 -0.27234042 1.3263897 0.1372507 -0.22525322 -0.12191342 0.63275164 -0.77546084 -1.7439735 0.69647515 0.06880752 0.31027803 0.57451105 1.1628973 0.4962796 -0.75839484 1.3264228 1.0943371 1.4521224 0.9554453 0.40459704 0.79919857 -0.628483 -0.6287812 -0.13985538 -0.6579681 0.46135497 0.30417573 0.09963108 1.3643789 0.11287487 -0.57429713 0.13629983 -0.24247223 0.06443476 
0.37618548 0.7703796 0.25082102 0.20342454 -0.12366709 0.39136088 0.64244133 -0.15836573 -1.4431945 -1.3628693 0.33450133 -0.23907462 0.14337197 0.27137142 -0.29674858 -1.3257463 0.67570984 -0.3729376 0.029280048 0.06807799 -0.38169482 0.6049915 0.72379434 -0.74392 -0.11196367 -0.30960166 0.6556549 -0.86349124 0.6622614 1.112826 0.83570445 -0.010388934 -0.37928393 -0.09702099 0.069308035 0.27885482 0.19549663 -1.0323461 0.5817456 -0.29038808 0.22177471 -0.36306086 1.1882361 0.32603356 -1.070502 0.13087526 0.057366952 0.32849574 -0.95171624 -0.26173738 0.5274824 -0.3516994 -0.58172023 -0.68306017 -0.015623033 -0.5343289 -0.586229 1.0529257 -0.44877496 0.20339213 0.55580634 -1.1672004 -1.0231802 0.6609786 -1.109046 0.016157174 -0.83399814 0.39201188 -0.8269989 0.18451194 -0.06624011 1.2311597 -0.5620082 0.416013 -0.13586295 0.10879789 0.48089227 -1.2550732 -0.7427965 -1.222201 0.20421414 -0.6416462 1.1424043 -0.5455573 1.1458018 -0.5577113 0.9789413 0.06953402 1.1742119 0.75785434 1.1335084 -1.5381808 -1.8776635 -0.24336761 -0.94320416 0.9308672 0.86342186 -0.5035089 -0.03708902 0.22574507 
1.0499287 -0.39837807 0.17812374 -0.1770612 0.8146776 2.5931602 1.4754559 0.4851885 -0.91986364 -0.63180816 -0.9962214 -0.21440603 -0.19032776 1.3626281 -0.8194774 0.7599283 1.8573227 1.0313503 0.29283002 -0.50525635 -0.8995321 0.17669676 1.0506833 -1.0617435 -0.5851612 -0.9639631 -0.1076992 -1.6440874 1.3752811 -1.2174028 2.0323691 -0.22112978 -1.7208314 -1.2518582 1.4891655 -0.2609031 1.6943511 -0.8556101 -0.359851 0.2869961 0.16021724 0.3987188 0.6154226 0.32853493 -0.39120874 1.1511257 -0.6602024 -0.48880264 0.5343288 -0.1311283 1.2540181 1.5201255 1.073741 0.3317268 0.29293853 0.09778333 0.04505837 0.37386155 0.36684528 -0.330506 -0.6185189 -0.081740655 -0.987244 -1.2551523 0.08862829 0.79534554 -0.8394593 0.7912678 0.50009555 0.18144163 -1.5894157 0.08230239 -0.2584868 2.3258355 0.77403355 1.3015368 0.17216195 0.40341386 1.0672842 0.88756275 0.676479 0.36616638 0.66002584 -0.1848717 0.17132127 -1.7099874 -0.11082881 -0.07781464 1.611509 -0.17236212 -0.60220426 0.74427277 -0.40612492 0.5671468 -0.0225243 -1.9174864 0.10545961 0.41916075 1.4064667 -1.3628737 
