-0.45717335 0.9384839 -0.026863875 0.9390148 0.9421134 -0.48265544 0.5438306 -1.3779895 0.19445987 3.2144706 0.04169446 1.5273397 -1.2458627 0.70873106 -0.8756831 -1.5821643 -1.6957264 -0.05473356 -0.79467374 -0.561344 0.886716 0.45599288 0.5895465 0.12404664 -0.44302753 1.4260926 1.936752 -0.8117086 1.4046916 -1.8740008 -0.5964039 -0.37218675 -0.57509696 0.74910927 -1.0156419 0.9837251 -0.73051715 0.3577223 1.4633554 -1.0015155 1.3547208 0.27524108 -0.9245291 -1.8087231 -0.54272276 1.1630582 -0.08071494 0.9068958 0.030394722 -0.7064108 -0.595629 0.5381873 0.8161862 0.95920664 -1.5844119 0.11102403 -0.8121027 0.4732182 0.7275935 0.24574833 -1.4378914 -2.342197 0.53799593 0.498087 -1.6354861 -0.70866126 2.5011082 -0.38418564 -0.7686921 -1.1856898 0.4685338 1.1592213 0.14856353 0.23497024 0.9157792 -0.038988456 -0.14424227 0.53777635 -0.029231923 0.35427108 -0.87295324 1.4494174 0.8251264 -1.2861322 0.10652446 -1.420416 -0.73957735 1.0636262 0.06686113 -1.3569376 0.5451211 -0.61324114 -0.68871665 -0.97563726 -0.10399215 -0.03716452 -0.112528756 1.2250774 -0.23319536 1.1121675