0.022983585 -0.68032664 -0.76889133 -0.20437695 0.5579439 0.9556877 -0.75449014 0.83051574 0.44997543 0.088658705 0.12401484 0.942279 -0.7635741 -0.09607561 0.6446043 -0.6445119 1.54844 0.54921556 0.13598411 1.5665728 0.848671 -0.61548245 -0.43631825 -0.111561514 -0.5514086 0.2703299 1.0814745 1.3393596 -0.10344823 -0.18367572 0.46883488 -0.37762105 0.9625508 0.58063847 0.59241986 -0.9138752 0.30204147 -0.3134551 0.26140958 -0.024235785 0.085734785 2.2514796 -0.9626948 0.27496156 0.057089563 -0.15420207 -0.81341165 -1.0882744 -1.1354115 -0.0843788
-0.47593546 0.5944312 0.1414723 -0.20715731 1.7838904 -0.87900126 0.40913427 0.59736586 0.9689438 0.03937584 -0.60350806 0.22159995 0.9020704 0.24536052 -0.74008316 -0.25995743 -0.3963189 0.74667263 0.5724513 -0.8183024 -0.94751 0.82654977 0.7494063 0.37259892 -0.24043308 -0.27727997 -0.38537583 -0.3582753 -0.21340726 0.07763146 0.21641941 0.33714285 -0.15307064 -0.36063594 0.30067906 0.3155216 -0.44853592 -1.1290094 1.0306674 0.3034374 0.15407667 -0.36364058 -0.4544644 0.011931534 0.7444916 -0.21890621 0.18674007 0.6947208 -0.51827925 0.075890966
-0.1493943 -1.318985 0.028244715 -0.4388417 -0.7984818 0.066792384 0.24848473 1.1616282 -0.26472193 0.9907972 -1.0575165 0.19861099 0.04610808 -0.83423966 0.6320489 0.8326059 -0.03066846 -1.3169273 -0.13793027 0.3161221 -0.95488775 -0.5663425 -0.810958 0.32543248 -0.30423066 0.017070733 -0.34712362 0.797282 -0.21256061 0.49359268 0.73386544 0.9521712 -1.1950903 -0.1336893 0.5921181 -1.2109056 -0.20379642 -0.99304926 0.83428556 -0.51114315 0.20005995 -0.2203973 0.46747866 -1.3026212 -0.1731074 0.6700137 0.4846184 1.1815041 -0.5971025 1.2823027
-0.67460555 -0.16738471 0.49222076 0.9291725 -0.621915 0.7509863 -0.70396614 -0.7407929 0.78836447 -1.017392 0.35457245 -0.028285068 -0.8441866 -0.0043338994 0.5875984 0.27327016 0.019589083 0.33765858 -0.05495903 0.29049277 1.9035251 -0.8128566 0.46767783 -0.9779607 0.7984728 0.31010938 0.9543229 1.0838605 0.9101821 -0.107303634 -0.04555716 -0.48485532 1.4508172 -0.32084456 -0.8027658 1.1799432 0.46679044 0.3514099 0.08902462 -0.3934169 -0.69084615 -0.12812993 0.19082677 0.92422336 -0.46355128 0.0060956427 -1.3983889 -1.8583897 0.69736737 0.065321244
0.5112104 -0.57179695 1.0096225 -0.174354 0.8567614 -0.19417141 0.05682234 -0.4216712 -0.52185005 -0.5439566 0.21859273 -1.0912275 -0.6511638 -0.14647202 -0.06637852 0.24487893 -0.9798334 -0.5139338 0.96342325 0.08563419 -1.2382388 1.4257833 0.27872103 -0.3216245 0.6232069 -0.5631904 0.70668495 -0.6938124 0.04886282 -0.32630065 1.1717876 0.1844907 -0.25583252 0.016992705 -0.15504178 0.42438975 -0.26911798 0.14885852 -0.32902756 0.1282046 0.19477926 0.14310144 0.00011561635 0.01961243 -0.32210815 -0.51971996 -0.33086613 0.3195504 0.55730635 1.0787569
0.04838028 -0.26832432 -0.46828625 0.08364241 -0.7705401 0.022627812 0.032272223 0.56215274 0.24841483 0.18096976 0.13281554 -0.23715793 -0.33373705 -0.20816204 -0.7913656 -0.19067499 1.5147772 0.5722134 -0.79394215 0.552879 0.19458482 0.15602337 -0.63770074 0.027528042 -0.095758535 0.009776899 0.6531552 -0.11017983 -1.1410804 -0.22789101 -0.54139435 -0.95284367 0.40617156 -0.37479547 0.18042076 0.37738368 1.1330384 1.0067102 0.8281612 -0.22105606 0.12671672 -0.56487095 0.50227636 -0.039417118 -0.20324108 0.3798685 0.1828538 0.8104472 0.45495808 -0.3015227
0.1421697 0.39307493 0.41003412 -0.70196515 0.52396464 0.08624277 0.16045228 0.54402643 0.49124208 0.33444348 -1.2026805 -0.20880903 0.8823239 0.20505016 -0.67894125 -0.3261395 0.6206717 0.9996738 0.8101727 -0.6034746 -0.65610623 0.6699818 0.07985078 -0.8528633 -0.46568337 1.0244988 0.17828162 -0.17499387 -0.44576964 1.8286031 -1.2140576 -0.1286238 -0.69678605 0.49712178 0.9554505 -0.58570695 -0.84398925 1.6431831 -0.6703408 -0.58022904 0.68963295 -1.2063414 -0.048488915 1.2976829 -0.10143757 0.24268071 -0.39135823 -0.020806469 0.19488798 -0.43445936
-0.50567293 -0.58748 -0.4058164 0.87054306 -0.79959935 0.386396 0.13963242 1.2866724 1.2084639 1.0246856 0.2690898 -1.875824 -0.22701114 0.07334115 -0.28134546 -0.5278123 0.4212623 0.7138885 0.7841808 -0.11462121 1.908728 0.16889691 1.3095945 -1.0635816 0.29251605 -0.3094029 -0.044262182 -1.1411229 0.4341175 -0.8651376 1.9852678 0.12591709 -0.98066115 0.27234784 0.9449406 2.242454 -0.4188068 0.81177235 0.68019843 0.14543279 0.558911 -0.97824043 -0.29996413 0.15678947 0.2600371 -0.95602894 -0.09059501 0.81310815 0.6424584 -0.47973177
-0.3787677 0.60130614 1.000403 -0.5223519 0.7710331 0.1626739 -0.50705 -0.98994607 0.11594581 -0.705923 0.35510674 -1.0947933 -0.045301154 -0.4518618 -0.71134067 0.62647665 -0.7714548 0.33134112 0.08094605 -0.21908061 -0.60503507 -0.73874646 0.27107042 0.32178736 -0.52055234 -0.38977906 -0.6713958 -1.2841454 0.11465728 -1.0164539 0.86170566 1.07108 -0.41333097 0.0683091 0.6051515 1.7245525 -1.2946963 -0.71709293 -0.5300308 -0.82847697 0.5779638 0.9367327 0.3913053 0.0744497 0.7771657 -0.33307847 1.3581694 0.030401895 1.0486922 -0.5542151
-0.34542137 -0.14861412 -0.87550145 0.5037339 0.7704719 -0.096388675 0.4065607 -0.29213423 -0.2962601 0.5878157 1.0652057 -1.1238805 -0.50608116 0.6625069 -0.0032472506 -0.8527499 0.06977519 0.32194468 -0.7199026 0.7101676 0.06932632 -1.2217205 -0.16087297 0.45592943 -1.2773216 -0.5065311 0.48885575 0.4676557 0.33014995 0.21173336 -1.1347415 -0.7790358 0.1758199 1.0181091 0.76424074 1.0416919 -0.41718695 -0.7950565 1.0682312 -0.33908662 -0.25977337 0.07144063 0.11268853 -0.7251427 0.7116018 0.13573585 -1.1008329 -2.8750942 -0.70382446 0.9892688
1.4250691 -0.15386033 -0.5179806 -0.045541424 -0.20391415 0.08953273 0.4767723 -1.2375808 -0.07972074 -1.1340758 0.035125103 -1.7301856 0.46735495 -0.6363579 -1.2407833 0.8724895 -1.5871438 -0.030082231 -1.4329752 -1.1223954 0.4950497 -0.06653046 -0.27834934 -0.3258813 -0.4176977 -0.63477194 0.9637629 -1.3725885 1.0847337 0.6146338 -0.9749632 0.1849692 0.8896567 0.8262574 -0.31950027 0.27047348 -0.1986691 0.44370067 -0.46040756 -0.32215065 -0.6333588 -1.2076943 -0.55758554 -0.36612517 -0.38975486 -0.64887667 -0.079116315 0.66058314 0.69350296 0.45088053
1.0230676 -0.25112608 -0.19184448 -0.018139612 -0.54721326 0.21995622 0.07871731 0.4102517 -0.22542542 -0.72552675 -0.093213946 0.22658712 0.42735147 -0.079904385 0.06394766 -1.0095214 0.44622993 -0.3101615 -0.41767615 -0.44238564 0.19218928 0.10497672 -0.165487 -0.2566723 -0.37866917 -0.87957954 -0.15722097 0.7808518 -0.11677765 0.42599073 -0.23161013 -0.4523111 -0.45551872 0.19667496 -0.8129773 0.050511856 0.528299 0.15979406 -0.39935791 0.013752759 -0.20615172 -0.7633873 0.65515584 0.27106488 -0.6321636 0.10223814 -0.27815852 0.6240957 -0.28583613 -0.18045926
-0.4960588 -0.34193537 -0.12248771 -0.33507568 -0.15382917 -0.9041817 -0.12830164 0.1263837 -0.35017195 0.46190304 -0.23658663 0.53557813 0.22002925 0.026927615 0.46546933 0.049542677 0.2976902 1.0021374 -0.46561745 -0.29889584 -0.7826143 0.3645871 0.18432069 -1.0130413 1.4897622 -1.3753905 -1.1036274 0.5592083 -0.5395854 -0.029745076 -0.62063575 -0.50394833 -0.27961096 -1.1239423 -1.2312403 0.23112227 0.31570366 -0.38964698 -0.33908096 1.4965533 -0.98503256 0.31033066 -0.43176222 1.5053103 -1.4478045 0.61771035 0.30530226 1.376745 1.21385 -0.5889207
-0.055744387 0.046402905 -0.5699348 0.59727895 0.09442177 0.54960036 0.686179 0.26161718 -0.83497953 3.3984718 0.50676745 -0.45892617 -1.1082536 0.442356 -1.70123 2.0915387 2.6462622 -1.0146896 -0.82725334 1.3700192 -0.44241214 0.048766077 0.13037208 -0.3837873 -0.83374536 -0.7277582 -2.4352827 -0.52758795 -1.8141462 -0.032720167 -1.0392903 -0.38951376 -0.83507025 0.16639987 0.08269934 -0.6810115 0.052219175 -0.6936295 -0.33936056 0.1081833 -0.1481339 -0.4019937 -1.7340312 0.97739625 -0.27752945 -0.012221744 -0.07535856 -0.065907255 -0.91285527 -0.2957721
0.5936215 1.1687344 0.68217593 -1.1779814 -0.5306104 0.48054183 -0.24799864 -0.6577393 -1.6770992 0.0098267915 -0.18799873 0.34395686 2.4627428 0.53977996 0.07878644 -0.077349626 1.8640329 -0.74355817 0.75141346 1.371697 0.36924475 0.2969738 1.1529979 0.47897214 -0.7645114 1.906164 1.8993051 -0.8090947 1.6522878 -1.2800728 1.2678847 0.46914732 0.28128186 -0.5773315 -1.9897016 0.23348764 2.2538288 0.89868057 -0.5459603 -0.02442301 1.0981978 0.9945492 0.090017356 -1.2487916 0.5003478 0.17093058 -1.1626278 0.18700866 0.28277504 0.0087353
0.17406592 0.07000087 -1.6208432 -0.970094 -2.0908442 0.02088687 -1.7230587 1.9968342 -0.9872859 0.9577545 1.1891853 -1.0204767 1.2936573 0.51372385 0.94428635 -1.8600324 -0.15288569 -1.396835 -1.0013838 0.610185 1.9978082 -1.2308776 -0.31195465 -0.15407324 -0.19320114 -1.2769668 0.123391904 0.94042146 -1.5635278 0.675576 -0.9183071 0.9005871 0.48320642 -0.97635293 -1.8735291 0.9036042 2.3000498 -0.7259758 -0.6082538 -1.3783205 -0.24240562 0.524572 -1.2502081 0.015967622 0.19340794 -0.053752575 -0.13199137 -0.3157417 -1.5040004 1.3008908
0.45270354 -0.42590562 -0.68701905 0.3507673 -1.6636488 0.04421649 -1.2596097 -0.34732366 0.058187325 1.0842952 -1.1563525 0.56984043 1.8979111 -0.08708651 1.6858246 -0.86169124 0.009807674 -0.2792185 -1.6841655 0.011347611 -0.69130355 -0.20984179 1.4299575 0.5556913 -1.2104269 0.5400313 -2.1102588 -0.45577282 1.0653816 0.634462 -0.45317617 0.62735957 -0.18695569 -0.6407515 0.008533893 -0.38387382 -0.5821376 -0.35563192 -0.11230942 -1.1004529 0.4338362 -0.5294839 1.0076293 0.56140137 0.019378264 0.824674 0.27917287 -0.9235601 0.6911169 -0.90953
0.06371457 -0.3530477 -2.4006364 -1.290856 -1.1142539 0.80932117 -2.5572734 -0.5131 0.49986872 1.3986042 0.17185837 -1.0052459 0.362463 1.1291357 -1.402087 0.049466517 0.56131107 -0.05942572 0.79816777 3.1072507 2.151113 -2.020977 2.3755703 -0.098085724 0.1079732 -0.18818998 -1.1335398 -0.60196185 -1.3697823 0.06494338 -0.7348698 3.122658 0.94130254 -1.0598966 1.4402369 -0.9830105 -0.076250315 0.046587862 -0.8736341 -0.28230035 0.47574598 -1.5972306 -0.5012928 -0.6122681 -1.1170478 -1.5295975 -0.32879022 0.1827301 -1.5581087 0.5807965
-0.42570612 1.3482547 0.2136278 0.2521984 0.41484952 -0.33522856 -0.7063935 0.31240803 0.02747501 -0.68845254 0.9872035 -0.049969107 -0.7276656 0.34931958 -0.59354925 -0.14348106 1.4711939 -1.0052856 0.40719038 0.45408463 0.8445594 0.56560266 0.5342222 -0.19309026 0.02547951 -0.12142952 -0.8796459 -0.45738032 0.13988836 -1.0446213 0.13030757 -0.4973135 0.27650386 0.39842042 0.16884048 -0.2775395 0.15210213 1.1260116 0.35123864 -0.05947281 -0.27431583 -0.47456565 -0.94389856 -1.4540516 0.3482408 -1.3144044 -0.4210322 1.0425234 -0.31243163 -1.5018871
-0.15166003 -0.72287744 -0.38600302 -0.15088347 -1.6095787 -1.1873066 0.43037736 -0.29825482 -0.21400304 0.615385 0.08519101 -1.053863 1.3765923 0.5275816 0.063674025 0.61675334 -0.77280337 -0.48942035 -0.33013842 -1.3197216 -0.14271927 -0.024162311 -1.0841827 0.40411615 -0.51646405 1.0977974 -0.34972343 0.17927717 -0.7934646 0.51714975 -1.3479923 -1.364678 -1.0886348 -1.232449 1.0018907 0.38310134 1.2378929 0.37215778 -0.49644458 0.60786736 -0.50258523 -0.29778945 0.3871669 -0.39479786 -1.7939155 0.29353422 0.022792036 0.9785985 -0.45688382 -0.5348897
-1.5573293 -1.0788028 0.52854156 0.25285435 0.67535 -0.59238654 0.19184655 -0.17046894 0.51275086 -0.82831484 -0.42708322 0.38645318 0.8804053 1.088497 -0.28323936 0.90271163 -0.28114158 0.88122255 1.0073379 0.21371326 0.2574471 0.82077205 0.13755731 -0.29479262 0.47381315 -0.82539356 0.21905802 0.81952417 0.52689 0.32445785 -0.5469491 -0.39476138 -0.2788768 0.29808646 -0.08177686 -0.4380257 -0.35981494 -0.2558392 -1.0839528 0.16079426 0.27679405 0.06550387 -0.4149303 0.38579303 0.07941982 -0.06913832 -0.026651338 -0.3033781 0.62310964 0.47778624
0.32543135 -0.7013518 -0.74743974 0.3639868 -0.76396805 -0.018634342 -0.56381464 0.087438606 0.046894982 0.15607475 0.3628287 -0.28105238 -0.0018469448 -0.39359078 1.0672908 -0.11625111 0.7446525 -0.24546058 -1.6508611 0.18026602 -0.16571921 0.4765318 0.03725012 0.36883023 -0.55354214 -0.17018081 -1.50536725e-05 -0.016075915 -0.09341461 0.20931624 0.7408168 0.15530159 0.7461227 0.49710673 -0.224932 -0.07717825 0.3681126 0.1673192 0.23478317 -0.1060062 -0.09913174 0.0830463 -0.33890057 -0.28937063 -0.016636193 0.7524757 -0.38635206 -0.717872 -0.6712144 0.13244045
1.417831 0.85034215 0.860715 0.7778463 0.19189155 -0.8152344 0.0061422125 -0.4144927 -0.53497535 -0.76328796 0.8798203 0.28316146 -1.5220327 -0.18575421 -1.1210022 -1.3653218 -1.0757877 -1.4783919 0.9057522 -0.81718844 2.15016 -0.6309161 0.9735496 -0.2726173 1.4891768 0.9909909 -1.0045837 -1.0701385 -0.1983644 -0.5820922 0.4632644 -0.35416013 0.27789554 -0.4166016 0.54470813 -0.21282813 -0.024602227 0.24433774 -0.46694294 -0.21525322 -0.26125556 -0.2616738 1.4145019 0.068878956 0.6902346 -0.71731734 0.8180432 -1.2290883 -0.09976286 -0.73354465
-0.64800465 -0.041284446 0.32960984 0.3239807 -0.79372466 -0.104843855 0.12779124 -0.083840296 0.23043537 0.19501397 0.23331288 -0.27175048 0.36150065 0.43112633 -0.19352698 0.80451304 -1.0502024 -0.05295987 0.91231143 -0.34490973 -0.043163102 1.2507136 -0.9539248 0.070234455 1.0314994 -1.0159745 -0.48360136 0.52126235 0.4170717 0.07800457 -0.7723804 0.0057481444 -0.42784855 0.97212946 0.43487775 0.26091483 0.16741574 1.2427601 -0.35257187 -0.2101055 0.23699482 0.109098844 0.65250736 1.5300642 -0.89824355 -0.14900418 0.21552089 0.04813739 0.29918432 -0.019362036
0.8130761 0.49980158 -1.0165023 0.19839081 0.3185194 0.57420176 -0.5782722 -0.11385063 -0.38027266 -0.23981555 -0.7058509 -1.1099062 -1.0256991 -0.44574377 0.097349405 0.36140338 0.580356 1.8870046 1.3083575 1.3308692 -0.76311237 -0.5510343 -1.2926191 -0.26275948 1.389961 1.3313105 0.027890896 0.44539103 0.10040742 -0.81845766 -0.93520147 0.18130788 -1.2895018 -0.0633342 0.30137673 -0.820641 -0.3476021 0.31411284 1.1069603 0.3066997 0.33270714 0.6805738 -0.14330544 1.773323 -1.0447668 -1.0500115 0.28869605 0.08962865 1.0320325 -0.94258094
-0.44725066 -0.040835604 0.23902884 -0.16341336 0.29578242 0.07369707 -0.7086038 -0.84990185 -0.9721868 0.3968875 0.26808107 -0.4103208 0.6072502 0.56206775 0.49709156 0.21108775 0.28837672 -0.4713706 -1.0863564 -0.39373016 -0.42332548 0.61939096 0.53356934 1.1863233 -0.38624477 -0.13328983 -0.10154582 0.2797521 0.25769857 -0.39052805 -0.33668217 -0.18625039 -0.3312046 1.0994383 -1.3597806 -0.2436132 -0.88190407 -0.49280676 0.022593949 -0.8659357 -0.4334938 0.8892749 0.10737725 -0.3667511 0.5260241 -0.5051179 1.0201068 -0.54443306 -0.01589596 -0.9471979
1.326908 1.226929 -0.10631117 0.3518248 -0.7056533 0.20031029 0.14342932 -1.2132089 -0.54375476 -0.86780113 -0.31524825 0.23689596 0.56335056 -0.7727714 -0.39087436 -0.3175539 -1.0838203 -0.26173955 -0.6300643 -1.1290665 0.90703243 -0.55445564 0.011107972 0.1763079 0.060676422 0.6735596 1.0729318 -0.02637781 0.62386245 -0.5456198 0.20367976 0.057369836 -0.48769826 -0.6068251 -0.9350119 0.43723512 -0.102377616 -0.24965692 -0.18125579 0.41826752 -0.8193337 -1.7561939 0.27474144 0.38536733 -0.7039001 -0.8552126 1.1366243 0.49398506 0.9318049 -0.50741774
-0.029137649 -0.023972578 0.32143557 0.0028788298 1.0239595 -0.29525772 0.88132447 1.3723118 0.64317507 0.72033834 0.66512144 -0.35402778 -0.77825934 1.134962 -0.78797114 -1.3806918 0.71658516 0.96199965 1.3616995 0.46045983 0.044062197 0.28697306 0.28437263 -0.05688659 -0.5823868 0.86524826 -0.3585382 0.39209953 0.13045324 -0.1712489 -0.53383136 -0.30825222 0.07899795 -0.0061192755 1.0227997 0.5128294 0.39293697 0.92451304 0.71300995 -0.22512445 0.6844347 -1.1990091 0.3124548 -0.61190265 -0.31774095 -0.3622057 -0.9858459 0.1560222 -0.24032888 -0.20526174
-0.19238713 0.11175167 -0.6661897 -1.3336641 -0.046501692 -0.3221187 0.22584938 -0.5477897 -0.11957777 0.2636592 -0.6949157 1.0946351 1.015807 0.027686788 0.50085825 0.5370505 0.5987865 0.729681 -0.06636294 -1.4047973 -0.75687146 -0.66046494 -0.9851206 0.3553229 -0.09036658 0.3181963 0.6207075 0.00942117 -0.441458 -0.08569987 -1.2609556 -0.41847673 -0.14949743 -0.67302907 0.013112603 -0.80611336 -0.8803748 -0.07898614 -0.45636696 0.065163046 -0.61928123 -0.6207704 -0.64077324 -1.2054214 -0.021306379 -0.65745807 -0.09441875 0.159573 0.050650273 0.7670934
0.25292403 -0.71989566 -1.2513603 0.19067782 0.30049056 0.19070117 -0.6437951 -0.048889842 1.152234 0.5554799 0.4787582 0.8690165 -1.2522318 -1.0339742 -1.1095791 -0.30838138 -0.52238667 0.7886141 0.18506089 -1.1291554 0.41521764 -1.6323673 -0.3499077 0.7391401 -0.45208228 -0.29072046 0.31164163 -0.25243092 0.12900743 -0.7640552 -0.0055988827 0.37605065 0.5797346 -0.11214982 -0.085319236 -0.1657313 -0.72994506 -0.9444825 -0.26873282 1.3083436 -0.8247153 0.41992164 0.27625453 0.8816532 0.3689706 0.0026653386 1.4254477 0.52004737 0.97512376 -0.60001296
0.016548159 -0.0006654782 0.4906373 -0.580883 0.43007872 -0.46846467 0.1813391 0.14995436 -0.74250424 -0.54119706 -0.4531445 -0.28533277 -0.37285668 0.28570768 0.06150016 -1.1599447 -1.3920201 -0.41908437 0.60052943 0.5474871 -0.3647721 -0.6508683 -0.7736987 1.2221447 -0.32460546 -0.2339077 -0.39843604 0.3022581 0.40439138 -0.07604266 -0.21312405 0.18967907 -0.100229524 0.6752015 0.10488106 -0.52829516 -0.47443512 0.5458777 -0.10278463 0.52119464 0.55118656 -0.31499684 0.3022831 0.26111135 0.12854092 0.06387828 -0.47999185 0.92549247 -0.3529278 0.12355085
0.48480827 1.1356927 0.3629291 -0.8440887 0.24632573 0.4159594 0.47554657 0.30631995 0.01254338 -1.3183006 0.21812978 0.30368286 -1.0154208 1.1596154 -0.76301837 0.07244877 -0.50901145 0.79182434 -0.20130491 0.8539011 -0.71157956 -0.24374092 -1.0555575 -1.1856675 -1.7755375 -1.2505895 0.32915828 -0.687605 -0.113191515 2.008041 -0.30269876 -0.8317557 0.7893414 0.28386122 1.0978688 0.2617195 -0.39032522 -0.23545156 -0.41373166 0.0012632079 -0.8620338 -0.38974327 -0.7755858 1.2409316 -0.25872278 -0.34373248 -0.533357 0.97427994 1.384335 1.9231395
-0.8753637 0.82094353 0.3268207 -0.02717116 -0.6789209 0.07516413 0.79192036 0.76280797 0.7246546 0.5103869 -0.08422018 0.37404242 -0.5351957 1.5904878 -0.78140277 -1.2078009 0.7316224 -1.4849452 -0.22857879 0.035046663 0.058258582 -0.28020874 -0.17988117 -1.7260392 0.52107847 0.7678091 -0.84813946 -0.41204688 -0.17047328 -0.7965787 -1.079711 -1.3750297 -0.40203762 -0.6925021 2.257044 0.3623159 -0.09184951 0.326847 0.7088051 -0.58697164 -0.028134849 1.54888 -0.8171874 0.17570499 -1.0412261 -1.699558 -0.116420336 1.5939945 0.66195226 -0.16037084
1.2405797 -1.8321576 0.031682815 0.67046064 -0.13670702 0.8888771 -0.23772195 -0.22083874 -0.26094845 -0.08445106 0.46526042 -0.80755156 -0.8833725 0.56147003 0.34931195 0.3276756 -0.57606345 -0.08258803 0.5713138 0.9515522 -0.2672911 0.51195365 0.26952177 -1.4615214 -0.06461142 0.8416982 -0.91074514 0.025323203 -0.40019915 -0.44348353 -0.68105394 -0.16385506 -0.33917478 -0.89931935 -1.0726991 -1.8201771 -0.112448506 -0.28609687 0.19779399 -0.3849191 -0.4189746 0.45225778 -0.36200723 -0.1140035 -0.16079156 -0.06376649 -0.24663597 0.54782456 0.50675064 0.18729351
-0.15168534 0.030762553 0.0318854 0.32682073 -1.4316427 0.3214508 -0.14740844 -1.1616032 0.11051634 0.6892875 -0.9076193 0.119980596 -0.19646326 0.22230859 1.0302423 -0.14533801 0.12344873 0.25345495 -0.17160714 -0.2248681 0.19947904 -0.17668946 -0.2699695 -0.6479 0.2353788 1.1601226 -0.87308854 0.073575094 -0.4393722 0.5921272 0.079142764 0.6930794 0.03848995 -0.89140797 -1.3863896 0.15499446 0.62165475 1.2662339 -0.6124637 0.5399611 0.14891057 -0.08673983 -0.3261777 -0.693221 -0.32028025 1.8738891 -0.12396663 -0.99529356 -0.44344845 0.16290888
-0.9559694 0.47987136 -1.1593289 0.8239618 -0.8298191 -0.69219583 0.31744486 -1.0326967 0.23381984 -1.0873715 2.1802764 0.15255843 0.14175054 0.8961734 -0.11241762 0.37397665 -1.6483818 -1.4688308 -1.1502442 -1.1637585 0.2020905 1.2160907 0.5255403 -0.96416575 0.15767306 -1.4927064 0.51363045 -0.17888175 0.03956257 1.1544691 -0.04806729 -0.5218176 -0.28902265 0.14579013 -1.7726946 0.26857567 -0.20649332 -0.85746837 -0.81823105 -0.93172544 -0.7666002 0.27879056 0.048773468 0.16940606 -0.23382644 -0.001589492 -0.13660026 -0.5831909 0.16396238 0.44777817
1.3977529 -0.5376686 -0.21155286 0.827065 -1.6318129 0.97021776 0.34061483 0.02970016 -0.66376567 -0.5241779 0.2957661 -0.40417117 0.33601582 1.1911919 -0.34518144 0.76580256 -1.3353977 0.41604337 -0.3159955 -1.0643157 0.56465834 0.15274592 -1.3182845 -0.15020952 -0.80404913 0.41475284 -0.5465047 -0.9019644 1.1509995 0.9920167 -0.83679736 -0.4313731 1.6374539 -0.04505653 -0.65114796 2.6622353 1.060026 0.07179993 1.7978407 -0.64212406 -1.0231848 -2.8862011 -0.38726202 -0.05332833 0.22061619 -0.27391472 0.0807595 0.7164918 0.81774026 -0.5560659
0.015084194 0.15466665 -0.011171058 0.5947732 0.43835118 -0.32047784 -0.7528306 0.3595805 0.4148215 -1.9247667 -0.65783316 -1.8036081 -0.087639414 -0.7815649 0.9022237 -0.73174006 -0.31796837 -0.30147293 -0.8864272 -1.8823863 -0.4205452 -2.2665255 0.03132855 0.6307997 -0.300511 0.60816705 0.74133986 -1.7442064 -1.2248871 0.9285541 -1.2600505 -0.71523243 -0.7059072 0.26529315 0.24757183 1.7789177 -1.4335581 0.1522704 2.236597 -0.43351012 -0.93540496 -0.54886705 -1.5288928 -1.3677648 0.5336527 -0.25915518 0.51895064 -0.36783633 1.3746969 0.3241592
0.17694242 0.32150292 -0.344001 -0.59858567 -0.689058 -0.65798986 0.038159147 -0.15838893 -1.0083084 -0.9204374 -0.4278724 -0.1825335 -1.1150899 0.3940243 0.749912 -0.4306366 -1.2035973 -0.65064085 -1.1665192 -0.20480344 -2.2735531 0.06815429 0.3847228 0.6096663 0.5242909 0.40370408 -0.39615437 -0.37997156 0.6566443 0.8205831 0.008479828 -0.81650215 -0.63285273 -0.17255427 -1.3584759 0.35102084 0.7699831 0.009083022 1.619746 -0.180342 -0.14331247 -0.59811246 1.3608674 -0.15144388 -0.5678864 -0.34046018 -0.043044917 0.7930867 0.7052882 -0.069453254
0.8525895 0.74366355 0.9517297 0.9612148 -0.35010648 -0.29270947 -0.60676897 -0.34033865 -0.21637599 0.19673981 0.13059346 -0.29244667 -0.33036226 -1.4741597 0.4563595 -0.9506007 -1.2641821 -0.11710564 -0.34790492 0.215534 -0.013703144 -1.0962764 -0.5085076 0.23797123 0.5049158 -0.64362925 -0.8811867 -0.4482287 -0.08583051 0.061866418 -0.063472584 -0.26826566 0.49114496 -0.48362145 -1.024203 0.2881795 -0.4384644 -0.26800776 -0.17155136 1.0177488 -0.42128703 -0.55719197 -0.79322 0.5223094 -0.0763744 1.031341 0.3634597 -0.060865123 1.650848 0.31656176
0.21923572 0.22126332 -1.2619916 0.08828696 0.10555732 -0.043260276 -0.3793311 0.8562877 -0.89519954 0.21798074 1.1107688 -0.37898815 0.009414878 0.20903479 0.3861134 0.6120831 0.52832 -0.32657048 1.3744195 -0.20042448 0.31011465 -0.7309602 0.10900504 -0.55800027 0.3863376 -1.0438504 -0.3991838 -0.113260835 0.046972137 0.51075506 0.17167869 1.3733041 -0.009797525 -0.3516459 0.35688913 -0.6304794 -0.93658805 0.28805736 -0.36489356 -0.11028518 -0.11937197 -1.1650505 0.17654254 0.64144903 -1.5144153 0.519035 -0.30346632 -1.1076167 0.48229927 -0.3178052
-0.6527055 -0.25430366 -0.42973697 0.32296327 0.13402125 0.12707525 1.4041834 -0.39487466 -0.5136155 0.17434654 -1.248801 -1.3940507 -0.4125461 -0.6089396 -0.84765935 -0.36763576 -1.1799177 0.34760857 0.8789085 -0.016713636 1.059053 -1.7839692 0.48991144 0.0663297 -0.687199 -0.2608975 -1.9267908 1.4193356 -0.16364597 0.4621656 -0.74144506 -0.6451084 -0.57394975 1.0682161 0.549157 0.1784718 0.86356986 0.0373291 0.12451681 1.0107692 -1.0115807 0.093984954 1.2125168 0.56102246 -0.9829778 -0.21589445 -1.3130016 -0.32446408 2.3799381 -0.3421724
-1.6218628 0.94787216 0.039575454 0.40848622 0.10527396 -0.45660862 1.3000429 -0.011762138 0.48549497 2.2814808 -1.2181208 0.22654164 0.65712744 0.094249405 -1.4659504 0.85282075 0.21944098 0.18628624 0.8195865 0.7720027 0.21089815 -0.47441006 -0.21598329 0.26275373 -0.88667303 0.56290835 -0.69921505 0.53790927 -0.7767599 1.4609517 -2.2268956 -0.4164962 -0.50602514 -0.64492565 -0.27325052 0.79962426 0.25393152 1.0841644 0.38876826 0.68829316 0.75665593 -0.15400629 0.45249653 -1.8433111 0.19829947 0.9568694 0.5525845 0.5747724 0.17522666 0.7966201
-0.20302725 -0.33353862 1.0921236 0.045828007 -0.9767998 0.25401405 -0.09550721 0.49324352 0.20836404 0.37538186 0.23269299 -0.45373893 -0.17620371 0.3261429 1.0142367 -0.07623878 -0.50055486 1.6410903 -1.297153 0.44730628 0.055055343 -1.0685413 -1.6146016 0.9497066 0.5201332 1.1163139 0.30472 -0.97498596 0.47513828 -0.025378125 -0.0864037 0.39769328 -0.5278956 -0.60062313 -0.18140262 0.70471376 0.6422739 0.046163943 0.7702114 -1.2079089 -0.26586917 0.93536043 1.3193685 -0.46849346 -0.55316156 -0.0042430162 0.21619016 -1.1276488 0.6325721 -0.63877994
-0.438555 0.4153742 1.7799016 0.18212613 0.6041892 0.9183308 -0.5842736 0.23431775 0.10157776 1.4089278 0.0108354045 0.15218776 1.8576285 -0.5199018 0.2610128 -0.050092205 0.41789368 -0.72318166 -0.34447765 -1.1016866 -0.977281 -0.5740761 0.665871 -0.026322214 0.41090035 0.5904325 -0.15985745 -1.171528 -0.9215795 0.28904015 -0.15712012 0.1267549 0.038475715 -0.004060378 -0.010987695 -0.80872476 0.047666408 0.61159015 0.06989787 -0.12874724 0.28735435 -0.1703 -0.32185683 -0.06223818 0.60067254 0.39302164 0.1952679 0.4090452 0.5701747 -0.62107664
1.2950113 -0.0022881848 -2.0039403 1.4771008 0.83357674 -0.61309683 -0.50920975 0.5739496 -0.03131246 -0.40200445 1.5872633 0.12981133 0.7701353 -0.75473773 -1.153697 0.26774135 0.16342536 -2.6054578 -1.2249106 -0.93963 0.85392666 -1.127972 -0.24146514 0.18332218 -0.26626137 -0.25152647 -0.26568523 -1.45293 -0.9577834 -0.36371383 1.6996646 1.7877383 0.3727861 0.7152151 -1.476691 0.39358386 1.8312912 -0.50954086 -0.8886284 -0.07310221 0.6871483 0.13753341 1.0271878 1.613199 -0.01715367 0.9124864 0.11883293 -0.3066603 -0.40819597 0.39276713
-0.3332472 0.14547491 -0.27907172 0.41701725 0.08176427 -0.28795648 -0.49060982 -0.39953116 0.6535959 -0.80701005 -0.9403998 0.73814195 -0.2098476 -0.042153005 -0.78425753 0.6426346 -0.32836738 -0.31235424 -0.90416074 -1.5140104 0.60932297 -0.9733332 -0.23362263 0.6543206 0.8254208 0.3406234 0.1723624 -0.8287006 0.38527963 -0.45122188 -0.51775146 0.093693614 0.6492851 -0.60895675 -0.16851804 0.12500362 -0.09101384 0.74773866 0.79530144 0.16323975 0.1572969 -0.5586341 -0.062456504 -0.4201729 -0.3956943 -0.057682224 1.0198112 1.1173837 -0.9797404 -0.67128265
0.7630648 0.23672712 1.4131519 0.5314694 0.14257039 1.6634308 -0.5065996 0.90202963 0.8416131 0.08766205 0.054620102 0.7537085 0.48664087 -0.42867914 0.24872462 -1.1419013 -0.34836167 -1.4487668 0.2785459 -1.1208214 -0.09369315 0.5042609 -0.1322537 -0.24072672 -0.87270904 -0.7307095 -0.99392956 0.5485217 -1.1634164 -0.1496684 1.1699886 1.3109486 0.64611405 -0.7003015 1.2675632 -1.4007801 -0.21732885 0.09303529 -1.2279642 -0.38607854 0.97218883 -0.71856505 0.04527247 -0.7973707 1.51917 0.9664583 0.36029425 0.2009275 -1.0872062 0.7839587
1.3045545 -0.34526956 -0.94813186 0.60910434 0.1457157 0.529599 0.9832151 0.5757288 -0.83953106 0.27714422 -0.71264344 -0.5122195 -0.7731873 -0.7117365 -0.66308373 -0.15321478 -1.9080014 0.8475317 0.6672621 0.43263444 0.8786879 0.6297747 -0.15018874 -1.4939071 0.7150967 -0.13988031 0.03700075 0.27971318 0.16396907 0.7228851 -0.26246673 0.58361113 0.22675647 0.34726718 -0.5323927 0.18173869 1.0628486 0.6773586 -0.04677048 0.5184551 0.038474705 -0.6747165 -1.0940455 1.0096753 -0.6994254 -0.15658522 -1.0801165 -0.10229329 0.42179602 1.3496075
-0.44197994 0.5595591 0.7704498 -1.3672483 0.8734763 -0.024181498 -0.29565462 -0.10083754 0.202775 0.19912265 -0.061997224 0.09002729 -0.7382289 0.18425228 0.42039362 -0.41221258 0.27150455 0.6718492 -1.4177457 0.66235775 -0.5290214 -0.7623412 0.16037095 0.4297589 0.5359135 -0.9410695 -0.32550934 -0.42962232 0.35669392 0.10791144 0.11205641 -0.06725623 0.96480846 -0.30242786 0.64641625 -0.13225268 -0.8013913 -0.061798055 -0.22823502 1.3265665 -0.43885502 0.69135416 0.69843847 0.58394486 -1.0586209 -1.2795975 0.43261215 0.4359763 0.21910925 -0.75855136
-0.74933946 0.68308496 1.5602009 -0.7396024 -1.6185212 -0.7920223 -0.31872973 -0.40416518 0.47860616 1.3427535 -0.27157158 0.25832835 1.877356 -0.30108643 0.18805516 0.5800971 -0.52539754 0.78990084 0.78896815 -2.3477666 0.5297657 1.0215502 0.9198605 -0.2202275 -1.4102972 0.1091248 -1.0331299 -1.6838313 -0.5138614 0.28343225 -0.2623354 1.2675992 0.921277 0.43493846 0.3413272 -0.63318837 -0.6846466 -0.45356572 0.009124775 0.15398738 0.437402 -0.11971939 0.64180326 -0.3903849 0.35711643 0.5286013 0.7071626 0.15809278 -0.8493311 -1.313533
-1.5622107 -1.8613927 -0.6178195 0.16980714 -1.4729114 0.8129978 0.4120208 0.9526942 0.21321051 -0.020969942 -0.22533044 0.6080707 -0.83679056 1.2077216 -0.3102123 -0.7565257 -1.7789855 0.4914137 -0.485616 -0.5942502 -0.15043458 0.0031328516 1.3977937 1.013541 0.3363391 -1.5455645 -0.6101237 -1.1194078 0.41977328 0.3104156 0.20626107 -1.1206541 0.14632644 -1.05382 0.18284489 0.21433109 0.34349215 0.57914287 0.86632645 -0.96934885 0.88613796 -0.60232604 0.70520127 0.49282682 2.0609028 -0.22686327 -0.5401924 -0.6715472 2.0149448 0.10566185
-0.69923264 -0.8846563 0.84761095 0.19858745 -1.0672125 0.93896675 0.7730366 -1.3451505 -1.8538359 -0.26039317 1.560171 -2.0069473 -1.5584865 -0.6586448 0.13483769 -1.2033435 -1.1107464 -0.27552137 0.20764248 -0.6102617 0.908931 0.43452567 -1.3248409 0.5158641 -0.8432156 -1.7257336 0.63254315 0.2166107 -0.9395967 0.27563182 1.5027151 -1.7634921 0.6616339 0.2966554 1.0203602 -1.0133194 -0.47832286 -0.22971474 0.57902575 0.19636966 0.34649405 -0.66935146 1.4168334 -0.5290617 0.015110684 -1.8556305 -1.0465811 -0.7974002 -1.5603744 -1.7884661
-1.1080859 0.775835 -0.32428142 0.20485632 -0.83324546 0.4276192 -0.27524534 -0.11997052 -0.46219718 -0.8076316 0.9533811 0.2016348 -0.15550855 0.44010705 -0.36530906 1.0200574 0.52576125 -0.7205886 -0.16955179 -0.78209364 -0.49677175 -0.23228042 -0.65304273 0.3449494 -1.2199341 -0.013004671 0.45348838 0.22314467 -0.47762358 -1.1952957 0.37244225 -0.21348587 -0.38171345 0.08871297 0.14535229 0.3514686 0.7127235 -0.17422652 0.4289483 -1.1440232 -0.10311214 -0.6021542 1.3101258 0.032864872 0.70178 0.070441164 -0.299661 0.5207584 0.6145133 -0.8896337
-0.6361995 -0.4922753 -1.2554908 -0.51660705 0.5250886 -0.21065833 0.23132537 -1.1621605 0.4093493 0.94225323 -0.27241132 0.06703251 2.2329323 -0.8660791 1.0063741 -0.3079054 0.19338742 0.23773047 0.4202862 -1.2108829 -0.051555462 0.50657123 0.7694609 -0.67322445 -0.87590915 0.66709393 0.14585868 -1.0636293 -0.16183724 1.1360723 0.12747374 -0.12856796 1.3560334 1.2531176 -1.2022845 -0.1708364 -0.026203249 0.34088156 0.07421395 -0.007101126 -0.67683065 0.6630428 -0.40791202 0.70642537 0.11110255 -0.7611644 -0.1862019 -0.0693973 0.72195715 -0.47358286
-0.98061293 1.0398573 0.7894721 1.43323 -1.684148 0.17139505 1.2064226 -1.8458047 0.3931611 1.898351 1.2111737 0.043913197 0.5105659 0.70333874 -0.21508658 -0.38904995 -0.81086564 -0.09741733 0.98148775 -0.4608527 -0.73166424 0.43398374 1.1094959 0.20226139 -0.9963442 1.5149769 -0.21642122 -0.35162812 1.9057765 -1.165418 -0.6774424 -1.123302 1.6069416 -1.4428095 0.25376704 1.049433 1.1051272 -1.0171275 0.23189351 -1.0023053 1.0879604 -0.6098545 2.0810986 -0.70867485 0.63916224 0.47588173 -1.5158101 -1.4087842 -1.5371602 -1.1660352
-0.019928062 -0.4519679 -0.41713503 0.62771136 0.011547683 -0.6835519 1.3326099 -1.2711563 -2.0557387 1.0444648 -0.37770012 0.3787686 -0.61178654 -0.37186438 -0.004820369 1.8534906 -1.2569705 -1.6283909 -0.11508328 0.11410533 -0.83944744 1.482296 -0.61818963 1.0797551 0.35458162 -2.0786955 0.27235028 -1.373245 0.6264476 0.018165577 0.4362339 -1.4158453 2.3474126 1.2933168 0.72538763 0.3050031 -1.0756998 -0.908003 1.1778934 -0.9149629 -0.776755 -0.09496353 0.7019572 0.5587434 -1.1823276 -0.90898055 -0.47403243 -0.10879965 -1.8205173 -1.2489641
-1.662809 -2.192679 1.1224242 1.3030322 -1.0852045 -0.2553074 -0.40608132 0.4560164 -0.11983613 0.5717465 -0.019427782 0.14916018 -0.44396198 0.46902996 -0.24492119 0.49651796 -0.86882776 -1.3145088 -0.573237 -1.8599554 0.44448858 0.8538824 1.2498102 0.89307153 -1.4277722 0.050229892 -0.8229112 -0.71468234 0.8943854 -0.35867447 0.6505491 0.14438565 -0.15407962 1.2368642 -0.7331421 0.30894706 0.54842085 0.06900034 -1.3939248 -0.17516029 0.8061046 -0.8011073 -0.39922315 -0.4470234 1.4879457 0.3774972 0.3825976 -0.104279034 -0.67949945 -0.025427133
-0.40300936 -0.11152849 0.34270608 -0.5300636 -0.71401185 -0.07707399 -0.43717048 0.91681856 -1.7519912 1.0222405 0.79380476 0.8202706 1.195351 -0.84390116 1.9815989 -0.9706928 1.346996 -2.976241 -1.1685528 0.026687337 1.4983834 1.3597962 1.9778152 -0.0012060732 0.89289105 -0.27577564 0.20374034 -0.11192886 -1.2900692 -0.26289144 1.820198 0.7196392 0.52852327 0.67805094 0.06920424 1.1382966 0.5723345 0.16420919 1.8197602 0.45704532 -0.9791033 -0.10868208 -0.7415098 -1.0668216 -0.10188522 0.5780962 -0.6126633 -0.37647027 0.25642866 0.6371512
0.22929433 0.4561373 -0.108909965 -0.12766184 0.2623894 0.4716543 0.8188337 -0.73248243 -0.96768945 -0.6364899 0.53177166 0.021847676 0.9626953 0.9164916 -0.3855176 0.05874569 -0.25042635 -1.2602798 0.11089277 -1.978254 0.92038894 1.056283 0.7023404 -0.42658162 0.34914723 0.41595855 0.78983223 0.5227181 -0.49473265 -1.2833561 0.27659804 -0.06339978 -0.99242836 -0.3234257 -0.5411576 -0.5724492 0.5059637 -0.22248176 -1.4803745 1.0085931 -0.9225568 1.215814 -0.4755354 -0.21790665 -1.0534427 0.17814893 -0.5801091 1.2608109 -1.2475299 -0.5261135
1.8058358 0.34655175 -0.81786716 1.0073701 0.78559995 0.92730594 -0.930335 0.93043673 -0.6842192 -0.654969 -0.12221455 -1.1185491 0.53549856 -0.4073377 -0.26096544 -0.38748556 0.91354936 -0.3318606 -0.9503528 0.91911846 -0.5807845 0.6644632 0.19143257 0.4389575 0.8236331 -1.5737885 -0.98070276 -0.7384907 0.6325035 0.024468418 -1.0115043 0.09934599 -0.21482171 0.37775213 -0.073353745 2.0278702 -0.55054516 0.84770995 -0.46735942 2.1670625 -0.71583694 0.7334651 -1.297664 0.50594664 -1.1893097 -0.7995224 0.96201843 0.06356452 -0.30033982 0.31971574
0.40047753 -0.16658802 1.7021487 -0.033320803 -0.45979333 1.6110951 -0.6041857 0.12989217 0.28639293 -0.8898124 0.28118533 -0.95798475 0.11734632 0.60971284 1.4912446 0.2276269 0.96113914 0.51043 -0.07898619 -0.55814123 -0.7854752 1.331017 -0.35619003 0.32664496 0.27588537 -1.4934117 0.45387068 1.1722474 1.4008723 0.5119909 1.0320677 0.8960248 0.9357361 -0.144758 -0.01317182 0.6137072 -0.32163393 0.58422816 0.02727373 0.12243673 -1.0159045 -0.38604876 -1.2870395 -2.2221284 -0.67156947 0.8781469 0.11075661 -0.46461937 -1.3583069 0.6895087
-1.3522372 -1.5905515 0.49845526 0.04710131 0.9857286 0.6986681 1.1840689 -0.4235821 1.188456 1.0490156 -0.44811216 0.17112033 -0.8838414 1.3244596 -0.08928484 0.46190485 -1.4505851 0.40237457 -1.2281289 -0.9379767 -0.21305148 -0.055630043 -0.5639305 1.9923251 1.0511892 0.3882747 -0.354542 -1.0600138 -0.21318957 0.5668432 0.1299321 0.6669875 -2.0218892 -1.0624375 0.032053065 -0.82398844 -0.4826807 0.06936651 0.03514327 0.14254013 0.05115372 0.41693935 1.6674993 0.056634583 -0.32430774 0.1617873 1.3192816 -0.5823157 0.38235208 1.1500027
0.7783251 -0.40909994 1.6131765 -0.075678594 0.6866071 1.4056357 -1.4167529 1.2395538 -1.1932033 -1.7310556 -0.2522148 -0.187272 -0.70801735 0.30161008 -0.054559574 0.12281997 1.5550885 -1.1076595 0.31375402 -0.06626053 -0.084590055 -0.5724677 -0.22594966 1.0339091 1.1671039 -0.5998006 0.7971128 0.8063142 -0.11236054 -0.96458495 0.7446556 -0.6195158 -1.6534635 0.5839136 1.5229721 1.8436276 -0.41340077 -0.0075859046 -0.74656355 0.3727047 -0.18780237 -0.41562575 0.09637601 0.41760442 -1.4865843 0.44656885 0.21755162 0.27091652 0.646865 -0.2540207
0.13550514 0.1908316 1.3888656 0.15292963 -0.14153397 0.49054843 0.5587729 -1.0001326 -0.12649748 0.05233233 -1.2847899 -1.1194156 -0.37912688 -0.19208834 -0.6871598 1.7018716 -0.97172046 0.07836757 0.022954904 0.77857953 -0.7061122 -0.104345895 -1.2459174 -0.039632745 -0.8581608 0.17013282 0.020124983 0.0064788596 0.41768602 0.219038 -0.28373885 0.3492248 -1.1322219 -0.020353867 0.37600216 -1.1337081 -0.9784554 -0.3860892 -1.0391765 -0.024363983 0.681483 0.059881166 0.55193067 -0.4879095 0.31654873 0.39611092 0.22095561 0.15265827 0.33475974 1.265699
0.3064621 -0.4493042 1.7342706 0.6968237 0.21239229 -0.5438169 0.16019982 0.9750201 0.1777201 -0.102754794 -1.668889 0.4841047 -0.4823133 0.49308032 -1.3265575 -0.075800695 1.066054 -1.4265637 0.62614286 -0.5065997 0.84856856 0.008128559 -0.6506544 -0.5300548 1.2363151 0.0020335976 0.36523214 1.1974647 0.18393055 -0.43265685 -0.04913938 0.3291306 -1.1347436 0.06819658 -0.46264043 -0.63081414 1.1745763 0.1557908 -0.5728045 0.8498049 0.29611224 0.5901968 0.61916703 -0.97164786 -0.42464313 -0.73075444 1.4743755 0.06488539 -0.48036584 1.7037499
0.43312067 0.5185429 0.017563494 -0.2866991 1.1195364 0.0061752573 -0.1028461 0.36547503 0.0469609 -0.70191836 -0.24232343 0.6793667 -0.55870336 -0.599035 -0.15854661 1.2954278 2.0244818 0.4183188 0.49560288 -0.6208517 -0.0031975198 -0.076153256 -0.7855907 -0.86567575 0.113606 0.9677716 -0.3601853 0.2576798 -0.39183375 1.0906063 -1.0284501 0.431751 0.8880714 -1.389302 0.5402825 -0.9468199 -0.66305745 0.48302665 -0.6421042 0.13606724 0.046289816 -1.5259879 -0.23957379 -1.3500792 0.27712357 -0.88992506 0.7314471 -0.5049353 0.46369722 -0.67292446
0.047198303 1.0887705 -0.13040866 0.7559189 1.2756274 -0.011227358 0.011383988 -0.31142735 0.36163756 -0.82053345 0.007506554 -0.25319082 0.027301863 0.008833557 -0.79746515 -0.06122125 0.16401388 -0.41264248 -0.42805305 -0.25533634 -0.16460858 -0.0843058 0.5045452 -0.00083141454 0.52628714 -0.15484373 -0.0549338 -0.082339995 1.0075659 -0.33191025 -0.15241545 0.27408144 -1.5810117 -0.24957334 -0.13699736 -0.92566997 -0.64560354 -0.4248989 0.43970016 -0.49938366 0.45757812 0.5151994 -0.27618456 0.8464405 -0.5023229 -0.2331155 -0.04045771 -0.9048939 -1.5329158 0.10172174
0.9127789 0.9450873 0.6095866 1.424162 1.1475756 1.4662287 0.16786958 0.19791315 -0.6055941 -0.91028214 0.34295684 -0.33635312 0.79795015 0.2328624 -0.30800134 2.2218156 1.0978749 -0.823254 0.016990606 1.4061384 -0.98276407 2.6584368 0.09916921 -0.37402225 0.513663 -0.31427175 -0.7977106 0.21945848 1.4969947 -0.41815975 -1.9051391 0.47857547 0.44967848 -0.4802036 1.9996173 -0.058115646 -1.9170744 -0.12815157 -0.20050293 -0.38421172 -0.54927 0.6701974 -0.31115115 -0.7918366 -1.2632899 -0.45312878 -0.11025023 -0.36328194 0.95906305 -0.5622076
-0.9087112 0.29253647 -0.02069815 0.37187082 0.57294726 0.46491075 0.0043796347 1.4845406 0.20870194 -0.50048524 -0.49728328 -1.5974368 0.35471982 0.3223274 -1.6031946 0.31190956 0.17478676 -0.27382347 -0.17831236 -1.3099866 0.17368692 0.8078813 0.058470678 0.40195465 -0.49122658 -2.483927 0.47262385 1.231019 1.1001923 -1.0811497 -1.9775938 -0.8362697 -2.1879656 -0.79054886 0.88956225 1.223392 -1.3457904 -1.436349 -1.9374217 2.1770332 -0.6794028 -0.3419582 -1.6037896 1.4794188 -1.6344107 0.5028389 1.0793252 0.9087773 -1.0853816 0.5645197
0.98165685 0.6160906 -0.89610535 0.73683685 -0.17432894 -0.4910138 0.15629087 -1.3017035 -0.98431945 0.5136564 -0.22609292 -0.09671899 0.38971022 -0.8714854 0.37398562 -0.054402087 -1.0003048 -0.29928797 0.97664636 0.42740428 -1.2379388 -0.11674908 0.20952569 -0.16411346 -0.13195147 0.023295797 0.1769751 0.2471405 -0.19135815 -0.56489235 0.72860235 1.0055957 -0.98986995 -0.2599102 -1.5301198 -0.51160866 -0.003128869 -0.51385295 -0.37970465 0.98266274 -0.07363818 -1.4947416 0.42260805 0.8095162 -0.85352606 0.31416032 0.71619695 0.47341132 0.4645864 0.78872156
0.67486984 0.70167446 0.31072885 -0.32086986 0.5129872 1.2820448 0.7013481 0.3859883 -0.9593557 0.13451014 0.17611612 0.07611779 0.5389327 1.7191563 -1.0102537 -0.82716495 0.5386414 0.8233991 -0.95093554 -0.6768449 -0.4878171 -0.25708252 -1.0776124 -0.6730567 -0.028497973 0.80231434 -0.9732039 0.54614216 -1.1460737 0.28421402 -0.5808719 -0.26489633 -0.6345433 -0.105638176 -0.17133282 1.3199831 1.6892349 0.4108253 0.048701603 -0.23910713 -0.031129342 -0.11133748 0.2040842 -0.5377143 0.65980166 1.3901031 -0.29832676 -0.87174016 1.2002124 0.19023024
0.59581506 -1.0020987 -2.1971498 -0.075588286 0.6350518 2.347615 2.3708007 -0.34502634 0.42705655 0.003980921 -0.9076325 -0.8684201 -0.7428096 -0.20571837 0.5992954 0.8379371 -0.5112517 -0.3354234 -1.3833911 0.08745824 -1.9002935 -0.91008884 1.2041757 -1.2236044 -1.3584417 2.2036688 0.020071166 1.694843 -1.2789555 -1.7070441 0.9341125 -1.2482258 -1.4315864 -0.4492244 -0.2386688 0.19675338 0.85605454 -0.10754818 -0.5142622 1.2671224 0.68167895 -0.5927121 2.5751963 -0.9459882 -1.127872 -0.742173 -1.6465669 1.9702603 1.62313 0.69636875
-0.2572064 0.7777539 0.50980616 1.502199 0.41796914 0.30048102 0.23756054 2.2109158 1.5528101 0.6444203 1.587363 0.11294703 0.6581379 0.5801992 -1.1723557 -0.7670937 -0.026822524 0.8349843 -1.1194015 1.1105001 -0.37603682 -0.17249262 -0.3415464 -0.13747478 -1.0385706 0.99390584 0.13792126 1.0561771 -0.11640896 -0.16653141 -0.22498265 0.41436735 -0.33673283 -0.91696656 -0.11793465 -0.75041527 0.6164442 -1.1289638 0.05555518 0.118709 1.3511173 -0.68943566 0.035156157 -1.9447745 1.5364645 0.7224169 -0.08572517 0.8173518 -0.17421323 -0.14562154
0.7360264 -0.18938172 -0.49424118 -0.308283 -1.2436093 -0.94891995 0.6384899 -1.291908 -0.09268297 -0.49574235 -0.5261836 -0.6162486 -0.97082126 -1.4906003 0.51381934 0.1385449 -1.1828218 -0.18760274 0.72321236 0.19397466 -0.24781632 -1.0195576 -0.24442391 0.31493178 0.6977506 0.45651114 -1.0617967 -1.1866109 0.53001106 1.5877526 0.7598412 -0.93399346 -0.31674868 0.55945116 0.42783433 0.472956 -1.0311588 0.1802447 -0.64957124 0.41936535 0.5194359 0.24487923 0.9472265 -0.2262226 0.96016645 -0.614201 -0.48512632 -0.1024122 -0.693675 0.6173369
-0.08735033 -0.1776624 -0.28943154 1.7690558 -0.57074 0.24573301 0.14216334 0.9207059 -0.11143669 1.7102876 -0.6161068 0.43727878 -0.6913386 0.54013646 0.59099984 -0.47684538 -0.66776115 -1.0406836 1.2410322 -0.1252224 -0.5254615 1.3571016 -0.006253692 -0.17721471 0.5109718 -0.12728569 0.14506565 -0.6791976 -0.42645693 -0.12055286 -0.083220646 -0.8005432 0.42315954 -1.3293673 0.72659767 0.8442895 -0.027275877 1.3080726 -0.5649505 0.8242759 1.1467061 -1.131583 1.47373 0.6801198 -0.7554151 -1.2114726 -0.5381553 0.9075502 -1.282234 0.7553983
0.25960076 0.4237082 -0.41016975 -0.52220476 0.12293201 0.50712204 -0.19443542 -0.15700449 -0.5319759 0.061151363 -0.12694108 0.9484537 0.06984198 0.85218793 0.110093065 -0.010643595 -0.9120046 -0.2493045 -1.3783547 -1.5462388 -0.45530596 -0.82543904 -0.93147933 0.81085134 0.39783219 -0.5161381 0.49928844 -0.6919239 0.22475685 1.3109491 -0.73681813 -0.7402061 -0.80625117 0.7036053 0.43120286 0.5817499 -0.9244947 0.010120672 0.5601265 -0.15054707 -1.4302434 -1.3402461 0.42713076 -0.3926902 -0.3050879 0.09688886 1.8360059 -0.50638664 0.10914811 -0.16128266
-0.13180283 0.005951208 -0.13415289 -1.9362502 -0.558613 0.26714495 0.37891048 -0.354132 -0.5715274 0.63304156 0.2502686 -0.061283607 0.31458172 -0.08862432 -1.334589 1.4698535 -0.6727711 -0.24945834 -1.2254789 0.53984904 0.55810285 -0.3835412 -0.16170686 -0.9664939 -0.13502303 -0.9614955 -0.46177286 1.3191049 1.066306 1.8259387 -1.2111268 -0.5164184 0.09811691 1.5019271 0.4210084 -0.1304352 -0.74577373 0.31711376 -0.55618393 -1.9459002 0.44375494 0.1214379 0.47791058 -0.518922 -0.50026065 -0.3588084 0.5204149 1.2286478 0.089714564 0.3965848
-0.35033417 -1.612546 0.12731484 0.8107674 -0.35714626 0.74021107 -0.008149159 0.61786497 1.0752074 1.1551377 -1.4611527 0.77250546 0.33279586 -0.7783875 0.10915418 -1.5169586 -0.9530632 0.58986044 -0.57433635 -0.41520417 0.6925011 -0.7640114 0.13824229 -0.2835793 -0.36014387 0.28471854 0.45212686 -1.8276302 0.66446733 0.34415868 0.6743098 -0.04862883 -0.3564506 -0.10486455 -1.0607532 0.79811996 -0.9690779 0.94487613 -0.9710313 -0.69577855 0.5942584 0.27799997 1.0088595 0.5030904 1.6017245 -0.48805133 0.5277601 0.7314136 0.6209791 0.2595622
0.19236852 -0.08800119 0.22186527 0.23142856 0.645336 0.43098938 1.3653948 -1.1934226 0.15621819 -0.54742676 -1.1528788 0.76779085 0.90627307 0.06438564 -0.24999852 0.5812214 -0.5336203 2.6472077 -0.8172639 0.17402156 -0.01895616 0.43413407 -1.2081821 -0.71782696 -0.8715669 0.35283774 -0.91430944 1.0989591 -0.096898675 -0.85890526 -0.64171606 -0.7117409 -0.28655627 -0.4421182 -0.7153009 -0.08896562 0.17692971 0.776278 -1.7604263 0.036581997 0.15798207 -2.3918397 -0.2737295 0.2711503 1.0132215 0.12734018 -0.18247312 1.1920984 0.8318986 0.021885633
-0.059339162 0.25385115 -1.4267873 0.951627 -0.75465894 -1.1732464 -0.40929955 -0.4024728 0.23329006 0.4049526 -0.5328495 -1.4532216 -0.24224915 -1.7500535 1.5153947 -0.28681278 0.27290747 -0.5144581 -2.1082006 -0.8687192 -1.4191989 1.1192006 0.32585993 0.03341992 -0.66933477 -0.32768598 0.4857682 0.12539884 -1.6867893 -2.0578485 1.2383511 2.2745826 -0.48717302 -1.3256534 2.2282383 0.19891989 -1.1678371 -2.2920349 2.0176344 -0.7688486 -0.3354893 0.7145282 0.05647737 -0.33738256 -0.6738208 2.8800235 -0.24268813 0.5575981 -2.9179175 0.07915422
-1.314903 0.6063332 -1.1579204 0.34719914 0.9459311 0.32939252 -0.26687518 -1.2023782 -0.06756787 -0.17901513 0.17187281 -0.18785651 -1.4427679 0.5189702 -0.4437217 -0.06448891 0.9644188 0.27560398 0.3643232 0.24261159 0.2214138 -1.3403076 -1.5047488 0.024559468 1.5212413 -0.59118706 2.0009758 0.07147306 -0.1394989 0.45107153 0.23973227 -2.3961136 -0.82913417 0.77496165 0.6197538 -0.9477181 -1.8092023 -1.2935846 0.027088284 0.40942588 -0.4594742 2.0156016 -0.1348095 -0.0025086626 0.8437356 0.57080483 -0.113490224 0.6376373 -0.045083012 -0.39264268
0.71473974 1.3889258 -1.0230103 -3.0213149 0.4485028 -0.20421642 -0.29948267 -2.0298939 -1.4950361 -1.2476765 2.2427883 0.8680225 -0.48150137 0.004398188 1.3013691 0.12843865 -0.25385496 0.47612858 0.43518424 0.073865645 -0.55820405 -0.33146468 -0.41544074 -1.0686619 0.2401127 -0.080477454 1.0993899 1.3696482 -0.84223896 1.3557997 -0.3321239 -0.026590303 0.27110636 -0.4679246 0.80754334 1.1121919 -1.19746 -0.63622195 -0.09725663 0.18681861 -0.10427863 -0.4274686 -0.4847899 -2.340628 -0.56279814 0.72809 -0.034526106 -1.590826 -1.8127946 0.52243954
0.7369703 0.7569178 -0.2822555 -1.8336539 1.433306 -0.30785143 -0.37241164 -0.49258614 -0.28459156 -1.191098 1.1135591 -0.06148825 -0.72914225 -1.5318195 0.7582941 -0.44043186 0.29962808 -0.71533877 -0.23961198 -0.36933482 1.7793812 0.22626035 -0.37489533 -2.189844 1.2223613 -2.0646832 2.7912884 -0.23500249 1.1927347 -1.008201 -0.7568807 -0.18931651 -1.7893592 -0.22647567 -0.3154219 0.17193405 -1.4371226 -0.84650725 0.32467642 0.44950646 -0.3138289 -0.2786555 0.4650765 0.010118872 -0.23646078 0.3321176 -2.6853251 0.29739293 0.21600227 0.65698755
0.17810504 -0.5797191 -0.5865443 -0.59894246 -0.9095018 -1.2525424 -2.0839763 -1.2347243 0.8779536 -0.48087788 1.4589483 0.1720977 -1.5567396 -2.4615045 -0.051422827 -0.17173049 0.094284646 0.06892822 -1.0373379 1.0759065 -0.79575986 -0.54996514 -0.85566974 -0.76025933 -0.18746631 -1.8752471 1.5266342 0.09398647 -1.0409029 -1.3220702 2.0606024 -0.085774526 -1.6696769 0.820057 0.363341 0.017498115 -0.12604268 -2.4896817 -0.28348827 1.4158589 -1.015602 0.7155359 -0.6954314 -0.8430291 -0.43206066 0.44397187 0.93530834 -0.8316787 0.8531176 0.46241722
-0.07895383 0.56017816 -0.87037927 -0.5982508 -0.9978476 0.16837755 -1.3387158 -1.061827 -0.2498472 -1.1470593 0.506664 0.30612317 -0.40627882 -0.5958924 0.5398458 0.507549 0.18764159 0.73092717 0.75412 0.8251135 -0.93909687 0.39123946 -0.17037682 1.2742387 0.52239007 -0.21028894 -0.42315626 -1.7202419 -0.82699835 -1.4233453 -0.09347415 -0.07029234 -0.0008436447 -0.5588295 0.1996734 0.45414796 -0.48417765 1.6494416 -0.11866086 -0.103345245 -0.24991128 -0.63021785 -0.50249374 -0.5735309 -0.38572454 0.37805104 -0.68914396 1.4455378 1.7413955 -0.67179924
-0.15042122 1.3966475 -0.44776234 -1.8460581 0.29370797 -0.3437517 -0.84694135 -0.39077497 -0.7348272 -0.37698746 -0.37949803 -0.54786515 -0.4777713 -1.3076782 0.65044975 -0.7336874 1.3286964 -1.1482934 0.3620632 -2.7135115 0.10984504 1.1551186 -1.6174546 -1.130227 3.0027294 -0.8448543 -0.20583452 0.6961148 2.4039624 -0.026300844 -1.9156408 -1.6662114 -1.4471459 0.56615835 -0.043433007 0.951739 -1.2582436 -1.8126032 0.8604316 1.0200124 1.934883 0.025988543 -0.6890663 -1.7532635 1.3269491 0.5370419 0.5440659 2.19229 1.5358413 1.0297849
-0.30618516 0.1922939 0.29288673 -1.2338201 -0.49705172 -1.5823151 -0.09494367 -0.23457006 -0.3461296 -0.7581377 -0.5547498 -0.559191 0.13015434 -1.0694107 0.7592533 1.0456985 2.688729 0.835357 -2.2996888 0.2025217 -1.1460956 1.0250657 -0.19681953 0.16711298 0.0669054 0.0146007845 0.6960132 0.8816984 -0.9782649 1.269682 -0.6898514 -0.7484141 -0.8133226 -0.29250985 1.4638159 1.3804486 -0.71127445 -0.7505601 0.18140042 -0.47517425 -0.836344 0.29314756 0.13167539 -0.6714929 -0.23410575 0.78935295 1.166549 0.14758441 -0.7706132 -0.6237921
0.2929258 0.047733657 -1.6769435 -0.16924332 -1.0483019 -0.20205313 -1.5104438 -0.50474435 0.13074656 -1.597506 0.34065804 1.322759 -0.15550874 -1.909844 -0.27627927 0.81588936 -0.099698454 -0.49237558 -1.0418411 0.28635928 0.71489716 1.0643346 -0.13768633 0.5765473 0.21316066 -0.70813423 1.0483652 0.4861974 -0.05643519 -0.514746 0.31019816 -0.40624845 0.5088603 -0.81055534 0.3100157 -0.36934957 -0.63529414 -0.21211554 -0.40750757 -0.64720887 0.6556889 0.17999347 -0.36051148 1.0383797 -0.8797757 1.1989648 -1.0267301 2.291828 -2.4006424 -1.2874261
-0.80023324 -0.98752767 -0.074980736 -0.33081433 0.80837023 -1.3365126 -0.5902938 -0.39641148 -0.83725315 -1.085566 1.2231479 -0.55695784 -0.48345605 -0.9427491 0.60816807 0.12721 -0.4793721 -1.1861186 -0.33303556 -0.65148604 0.27156878 0.857426 -1.3138267 -1.0667586 2.7521648 -1.977759 -0.40077782 -0.47592965 0.6201366 -0.14968295 -0.120676294 -0.67123145 -0.12692828 0.105882764 1.4982665 0.40842715 -0.8678043 0.3526912 -0.51186633 0.29817376 -0.6211142 -1.0043017 -0.9978762 0.6511846 -0.0036299517 -0.050166525 -0.0980801 0.8007742 -0.37746602 -0.14255089
0.24201827 -1.1370734 0.5415634 -0.42933708 -1.4203557 -1.1356696 1.6590465 -0.51796126 0.6467886 -2.182971 -0.07551328 -0.7990693 -1.3901235 -0.6563951 -0.15495247 0.6643631 -0.42436406 2.2199745 -1.5538651 -0.84497315 -0.40864113 -0.45358476 0.22751924 2.1102529 1.2891185 -1.7717282 -1.264228 0.24052392 0.31940725 -0.49336663 1.2783954 1.1175894 0.9223378 0.9964106 0.44924968 -0.5019209 1.3513302 0.07427384 -0.20991795 0.08129801 -0.07341922 1.0031084 -0.13671201 -0.0012976776 1.2970535 -0.6519091 0.041445248 -0.38303235 0.3240709 -0.011940771
1.6443933 -0.7274684 0.91807795 -1.8242668 0.4049337 -0.21090305 0.98886305 0.8898555 -1.9038296 0.007343241 0.016631396 -1.1862879 0.48497668 -0.01608399 0.9257929 -0.25991273 0.0821728 1.9044985 -0.4694578 0.022701906 -0.24852847 1.1722763 1.4411734 1.8377464 0.8253014 -0.71960366 0.52436954 3.4761014 -0.5697244 0.2755987 1.6536757 2.5668864 -0.5079098 0.29064745 -0.22276413 -0.4364203 0.336071 -0.88219625 -0.7630044 0.9438204 -0.40278143 -1.1336019 -0.22143418 1.1111107 -0.6309175 -1.9199246 1.698126 -1.4549974 0.5632096 0.2579151
1.620208 -2.0992815 1.8379185 -0.6626069 -0.77372855 0.020403622 1.7617599 0.38675085 0.32696313 -0.5240736 0.9453808 -0.5015299 -0.24148782 -1.9707067 0.43633798 0.43157062 -0.3970053 0.38884884 -1.6055979 -1.0383765 -1.1882342 0.40999395 1.0985819 1.5410384 0.6011202 -1.9116108 -1.2312144 0.62346816 -1.5098556 -0.31260663 -0.639789 0.99039197 -0.04708236 1.807799 1.9497902 -0.5642507 -0.02685218 0.32085326 0.64113206 1.2368523 -1.0919286 0.8866926 1.2235718 -0.90247416 1.9456245 0.5832857 -0.5412862 -2.6315377 3.041134 -1.1229758
1.9842563 0.1028982 1.1953821 0.25436017 0.4498061 -1.1639764 1.2066594 -0.14799309 -2.6164064 0.32708463 0.7612734 -0.48687816 -0.86084676 0.55626357 0.18647395 -1.2637995 -1.2820655 1.0224826 -0.12750052 -0.6322519 -0.19524032 0.3583179 -0.005339226 0.9655159 -0.91720897 -2.3579788 -0.7761049 -0.28143787 -2.542071 -1.1920115 0.5088763 0.8969885 1.3689686 0.6146593 0.70392734 -0.1533829 -0.80886716 -0.32394373 0.5566368 -1.3937985 -0.59181464 0.39527157 -0.2839632 1.0243323 0.80214447 0.6106907 1.1546876 -1.4318501 0.3518515 0.3207819
1.5428528 -0.6670121 1.5880901 -1.1248714 -1.3999361 -1.2548769 0.21413429 0.6287144 -2.447498 -0.28281897 1.7247214 0.14287491 0.3413688 0.25007772 0.8740406 0.102101274 -1.0244987 1.4242293 0.3467864 0.49248186 -0.17543615 1.3556316 -0.06517712 0.28966665 1.9148262 -0.2950485 0.73994654 0.74201494 0.009311237 -1.4936721 0.049264222 1.4710515 0.031509575 0.38783288 1.1131793 0.63821024 1.1677386 0.275256 -0.9532544 0.123162046 -0.17037754 1.2779479 -0.5281385 -0.39672774 0.054014485 0.90016955 -0.42606083 -1.039968 -0.5008983 1.02906
-0.39841256 0.014968691 1.2115397 -0.34712893 -1.7174493 -0.9395411 1.5671542 -2.475819 -0.45218006 -0.11218102 2.0017574 -0.09338877 -2.0279417 -0.13634573 -1.2607988 -0.62004644 0.14483958 1.1470397 -0.54100317 0.28903604 -0.10305117 0.382154 2.4152315 0.7762822 1.3467131 -2.3082922 -2.2479894 2.0899909 -1.5645415 -2.70366 2.217471 1.1742429 1.4502289 1.0019176 0.38186297 -0.84393084 0.26591945 -0.70337236 -1.0878183 -1.7605394 -0.10049248 2.705957 0.052811336 0.33933133 1.4211577 -0.38881534 1.7202708 -0.77122396 1.7565789 1.0579191
-0.52734184 0.3279801 0.8944631 -0.4788477 -0.31037864 -0.35507363 0.6808467 -0.68013704 -0.020360665 0.316595 1.2056336 1.9849834 -0.09209607 -0.07696959 0.47542205 0.928831 0.36579525 0.8697604 -0.24648577 -0.8630724 0.9502839 -0.4244161 -1.1892549 0.41710347 0.22740914 1.0123849 1.2651666 -0.7434572 -1.3587958 -0.46237174 0.04527602 0.25073934 0.3002504 -0.7551325 -0.8211532 0.347598 0.24373147 0.5458657 -1.1100506 0.03275903 -0.3913358 -0.76432884 0.2514869 0.03677561 0.6901467 -0.91909754 0.59870404 0.15071 -0.4497759 0.67682123
1.8367804 -2.0584896 2.446642 0.5052138 -0.5888436 0.5407386 2.93639 -0.7128004 0.14110895 -0.71149707 2.0020518 -0.5838343 0.31931844 -2.1678295 -0.5282171 1.7417608 -0.36599523 0.76877105 -0.5822524 0.15220802 -1.4258832 0.2786637 1.4252243 0.043414425 2.0481849 -1.3871285 -1.37955 0.8636576 -0.3003523 0.2554007 0.5435854 0.85389686 1.1279962 0.9371639 -0.07344264 0.6654688 0.8095911 -0.9633148 1.4193764 -0.39927423 0.67696404 1.1898152 2.0447762 -0.48506442 0.1131966 0.33620608 -0.6152467 -0.9854986 -0.36041275 -0.77136993
1.366724 -0.40306777 0.09392996 0.71066743 -0.1129684 -0.65413654 -0.081712626 -0.16357392 -2.103105 0.91306597 -0.19131084 -0.74885654 -0.25558895 -0.51017296 0.20669189 1.1439234 -1.2783374 -0.037114587 -0.027627347 1.9813827 1.0163687 0.31078655 -0.18772492 -0.2718747 0.6566137 0.350192 -0.5944409 -0.4577564 0.91048616 1.614261 -0.15737815 0.10554081 -0.3658655 1.1315168 -1.1618615 1.0958592 -0.39416018 0.39358926 -1.0668473 0.8354329 0.9585821 -0.44712478 -0.20453368 0.66427666 0.36207834 -0.33534065 1.1740129 -1.1374903 -0.18737099 0.16915168
-1.0191675 -0.025281487 0.29587772 1.4419339 -1.2858689 -0.33347866 -0.020762041 -0.81057996 0.9447871 1.6234974 0.20356865 0.6032802 0.56456876 0.062376585 -0.06822598 0.9651309 0.54522437 0.6915907 0.24362463 1.2387644 0.44074544 -1.0740894 -0.31944248 0.44837454 0.12491735 0.26671672 0.26215845 -0.7152179 0.928943 -0.56121397 -0.34496945 -1.0981057 -0.026966546 -0.3297007 0.4162633 -1.4471359 -0.0037201766 -0.5192297 -0.05102367 0.7571974 -0.18490778 -0.23226926 0.054256324 0.6825671 0.5169655 0.27131668 1.2690252 0.26101536 0.38178945 -0.04819797