0.88491225 -0.4009743 -1.0354509 -0.48828346 -0.7560499 -1.2499841 -0.82232696 0.74591583 -1.2779971 1.4176112 1.1303884 -0.04069364 0.46939287 0.5760074 -0.5481938 0.5636752 -1.1797446 0.8661765 0.75115883 1.3926702 -0.58679926 0.36431804 -0.5430346 -1.3683665 0.9885867 -0.25332117 0.13600703 0.786539 -0.10888039 -0.09547274 0.18468967 0.91448367 -0.0239198 -0.33637345 0.383192 0.3332246 -1.4115458 0.57062393 -1.4882436 -0.7309071 1.2352233 0.22476853 0.9369403 1.3774852 0.2572201 -0.20969135 0.3191971 -1.1970229 -1.476353 -0.22214852 -0.11546459 0.009804729 0.792712 0.106352545 0.00016074907 0.119056694 1.4612648 -0.39943802 -1.1698961 -1.3929323 0.3060571 0.90316397 -1.8349625 -1.6583853 0.49710527 1.3519545 -1.1188564 0.25120476 -0.62111616 0.4532614 -1.0675919 -0.5731494 1.3437126 -0.46230063 0.3619749 -0.7342268 1.6717969 0.073569395 -1.8830487 1.0080423 -0.3762326 0.009395473 0.6618226 -1.0482308 -0.41815063 -0.17785454 0.11499015 0.4523733 0.8777269 1.9983586 0.16987276 -0.10542431 0.58583015 -0.41412854 -0.52983505 0.1481755 -0.59500855 0.4526414 -0.18896157 -1.0887492 
2.3221233 -0.2661451 0.671335 -1.4474021 0.8649811 1.4560823 0.08704246 0.72038496 -0.9343058 -1.2952455 -0.85802627 0.6745721 -1.0661489 0.6299852 0.629941 -0.9265838 -0.70007026 0.32282606 0.81537247 0.27254277 0.09555121 1.1951915 0.74344766 1.004069 -0.6474811 0.557083 1.4421633 0.37517938 -1.0747308 -0.17065702 1.3992265 -0.073041834 -0.24521215 -0.6698314 -1.2095636 -0.692074 0.4698718 -0.3403487 -0.874959 0.31666994 1.043055 0.831217 -0.07525565 0.25613198 1.5862446 -0.6408116 0.2527249 0.43190315 -0.12780356 2.0394108 -0.9227733 -1.2782261 -0.19884917 0.7563986 0.26045227 0.59228945 0.6026651 -1.3085928 -1.474807 1.1538386 -0.32204777 -0.054482497 -0.043012433 1.218008 1.1247995 -0.64717025 0.29988754 -2.519124 -0.6130366 -0.3824637 1.4702815 1.3932377 0.8713614 -1.4119064 1.9729766 -0.24334551 1.0338492 0.05971032 -0.8646213 0.18933529 0.39477012 -0.35168922 -0.21176814 -0.60564923 -1.565067 -0.24793282 0.18502456 -1.0105385 -0.333705 2.108222 1.25484 -0.8096221 -0.6206445 0.12036884 0.3167034 0.79075325 -1.0794468 2.166755 1.1586182 1.5884978 
-1.2430425 1.5709138 0.42283833 0.2395549 0.73214936 1.7540573 0.21066383 -1.2648891 3.0993192 0.07203137 1.5399348 -0.32927665 -0.9009593 -1.0922995 0.98225343 -0.09678975 0.24416813 -1.1185274 0.33945036 0.11879135 0.7562397 -0.4628539 -1.1514138 0.62727207 0.20053951 -0.47724548 -0.2945509 -1.6162577 0.9822917 1.793745 0.22175485 -0.4428872 0.5856879 0.39097592 0.97399473 -0.66074026 0.28556854 0.27851 -0.72704846 -0.60612863 -0.55027676 0.009788144 1.7241713 -0.9454714 -1.8368722 1.1147261 0.70939755 -0.19311528 0.29071414 -0.7875951 -0.3818286 1.340813 0.5529236 0.5819318 0.7198903 -1.325465 -0.90533733 -0.4643845 0.24864848 0.35472557 0.1903123 0.3551124 -0.107770555 -0.33983302 -1.1872762 -0.26313168 -0.7529707 0.104635455 1.2786047 -0.4605044 -0.62654555 -0.7781776 0.46524954 -0.17318632 -0.0742107 0.7992835 -0.43679884 1.6693041 0.3343669 -1.6683581 0.48195633 0.7618918 -0.7025558 2.0036864 -1.0381855 -0.6520101 -0.005176082 -0.8103259 -0.8182421 -0.3656983 0.54258215 1.724922 -1.0575619 -0.07031073 -0.67139465 -1.116847 -0.6704522 -0.3655323 1.6843672 1.1828799 
0.46504766 1.1029094 0.05563897 1.8118445 1.6084956 -1.8864805 -0.515077 0.63590014 0.8214702 0.29876825 -1.2847198 0.48504934 0.86468387 -1.4579568 -1.3337804 -1.4990247 0.6105572 -1.949601 1.1947756 -1.8171933 -0.84126306 -0.27517474 0.046928596 1.5186749 -0.62740314 0.35859007 -0.47583297 -0.31416747 0.52406937 -2.2324414 -0.37008443 -0.13204744 0.46702316 -0.45876044 -0.7058118 0.90209407 -0.17682566 -2.7636342 0.048300933 0.57789606 -0.58518094 -0.51704437 0.39624065 0.42941162 -1.5618147 -1.8123872 0.19113669 -0.28073344 -0.6468703 0.70610553 0.12768327 0.7675546 -0.42307457 1.2314737 0.713081 0.6236176 -2.4350348 0.027481515 -0.60050285 0.1543547 1.2682805 0.07784294 -1.4157151 -0.035936277 -0.36693242 0.18900818 -0.42138004 -0.3178772 -0.72323644 -1.7750083 -1.2825993 0.39423496 0.42031658 0.14608347 -0.105795495 -1.6500089 0.2814483 0.02449843 -0.29307082 -2.2795978 1.7446189 1.9154432 -0.98719376 0.75291026 1.8101041 -1.4522344 -0.30640212 1.0408087 3.4113255 1.68543 0.8929494 1.4953651 0.20018499 0.77812254 1.4200066 -0.19530037 -0.90259326 -0.554454 1.7527477 1.097501 
0.38300171 0.52746516 0.5859662 -0.75688535 0.5110157 0.7278832 -0.15550546 0.5602773 1.1131487 -0.95445836 -0.051698223 -0.8420847 -0.39788118 0.070344344 0.13575561 0.1714335 -1.5669034 -0.57640666 0.39470172 -0.118797846 -0.052408453 0.5843334 1.560382 0.48725373 0.2563965 -0.10237557 0.8900012 0.31165057 -0.99795 -0.36209166 -0.73467964 0.5555285 0.9068873 -0.053994086 1.193142 -1.0456499 0.93712753 -0.9806181 0.6993678 0.5141591 1.0132266 -0.21748318 0.27106464 -0.6358131 0.4461404 -0.9202462 -1.6258141 -0.5113821 1.2937514 0.06906859 0.26550418 0.16319144 -0.15253684 0.08560145 -1.1603588 -1.3720949 -1.0695244 1.5145582 -0.05241737 -0.8637783 1.878081 -1.5056574 -1.2029443 1.484353 -0.62634873 1.0288543 0.71309376 0.38775036 -0.04770549 0.08703075 0.24471581 -0.69599396 0.57128114 0.09793532 -1.0545115 0.014516712 -0.108599365 0.06109518 1.8239679 -0.41597912 -0.4114686 0.5994652 -1.0174338 0.42721593 -0.31083158 1.1558931 1.1637268 -0.030569524 0.5465798 -0.51754487 0.049555283 1.5924026 -0.57410884 1.1654449 0.043849885 0.7252945 -0.11928063 0.0539824 -1.028791 1.2985013 
-0.84633034 -0.82306737 -0.778346 1.9658829 0.91341263 0.29412574 -0.093753 -1.4116235 -1.3790102 0.915752 -0.81061894 -0.47752973 -0.7767059 -0.27800658 1.297971 1.0323787 0.59155375 0.3473426 -0.18852405 -0.40322396 -2.0765643 0.9795257 -0.092693925 -0.32764128 -2.5339465 0.2238881 -0.6015728 0.9496808 -0.13995342 1.3680276 -0.63393784 -0.029685019 -0.542997 0.25223294 -0.4878156 -1.30889 0.45903698 -0.08248513 -0.5119263 0.54823285 0.54977787 1.1304494 0.62289786 -0.48562446 0.017190266 0.95567656 -0.7321143 -1.4288199 0.5031247 0.1398112 0.6616391 -0.17990774 -0.04417748 1.9854393 -0.24077208 1.1986303 0.46424943 1.4442159 -0.99004334 -0.13262495 -0.16705993 0.57456446 -2.4121475 0.9022646 -0.47349516 0.40787795 0.8847952 0.17073679 -1.8417258 -1.2717422 1.1735448 1.14973 1.1897169 0.68683785 -0.5873694 -0.4853005 1.9323518 1.0167092 0.38416326 -0.57406765 -1.6209278 -0.4291435 0.42335144 -0.90493417 -0.7807411 -0.5792096 0.8784019 -0.690987 -1.2437394 -2.399583 -0.18562154 -1.5819455 0.45329455 -0.25777984 0.37337497 0.21287167 -0.3223216 -1.0579233 0.6827125 -0.04005283 
-0.9157397 -1.2262968 -1.5509828 -0.7944431 -0.7493496 0.20057194 -1.3659678 -0.2595515 -0.83552825 -0.8620313 -0.42900583 0.62149304 -0.64129 -0.7838094 -0.60266906 0.52899575 -0.46768776 -0.92066854 0.10126327 0.48050362 -0.7515565 1.2658957 -0.47297746 0.27278173 -0.28517562 -1.5994661 -1.2221808 0.22570898 -0.28436327 -0.49025863 2.7032828 -0.18062496 -0.24018577 0.573263 0.7394297 1.1633995 0.1995686 -0.3879605 0.68685895 -0.96055984 1.7834833 0.38842183 0.0013786172 0.19718362 -2.3157988 -0.2951239 0.6192518 0.0411637 1.1524839 -1.114033 1.6460338 0.4706468 0.97567725 -0.6900494 0.51982754 -0.1994421 -0.86068726 -0.58825755 1.9224067 0.5664169 1.2687008 -0.9118356 0.7991053 -0.894161 -0.6651964 0.37672263 -0.41473436 0.44677833 0.17220707 -0.108554244 0.52124196 -2.2300615 -1.5909535 0.57223326 -0.60223544 0.021676634 0.076088294 -0.14532658 0.4540965 1.2537036 -0.5289842 0.07623025 0.13128963 0.26002854 0.58463246 1.6839006 -1.2200168 -1.3962123 0.46863598 -1.9492402 0.6938793 -0.12746191 -0.16929707 0.20616122 -0.19184162 0.22940587 0.27164343 -0.2840599 0.1497894 -1.9481043 
-0.06693685 -0.98982036 -0.79618156 -0.50115365 -0.075095534 -2.0126536 0.22477932 -1.8738797 -0.24889773 0.36200574 0.7834434 1.0631342 0.77220434 -0.62956136 -1.0445498 1.3912542 0.22232501 0.4950375 0.24680449 -1.4112519 0.37770864 1.3808606 0.75978845 -0.52249247 0.4171165 0.23415335 -0.72165126 0.09418008 0.7728545 0.8867337 -1.1467981 0.8336705 1.221971 0.46154293 -0.6680711 -0.39601275 -1.5997581 -0.2030477 1.8081698 -1.4411516 0.14154574 0.2731136 0.43789086 0.6477175 0.5925794 0.78591555 0.32502925 0.61925197 -1.5747234 -0.40136576 0.40059006 1.0148952 -0.47494954 -0.30572796 -0.08251628 0.4410595 1.3573276 -1.3851267 0.7086021 -0.46115386 -1.2193977 0.1412135 1.048428 0.20283246 -0.56657964 -0.7689438 -0.009838035 -0.15821303 -0.6117699 1.5827681 0.5480075 -1.7058963 0.26072782 1.2761422 -0.5499615 -0.45293018 0.65928274 0.050936714 0.4442825 0.5235251 0.19045003 0.6257664 1.7405481 -0.06793839 -0.56895435 -0.46110693 -0.48145506 -0.9909008 0.67892814 0.13367392 1.6675187 -0.2762761 -0.55503863 0.75037134 -1.1929299 -0.9469508 -0.6953923 0.5822126 -0.29440698 0.02410393 
-0.60827416 -0.45937908 0.06722131 0.2517313 0.95856494 -1.4345598 0.60431975 -0.19921866 -0.52972674 -1.0968504 1.0755337 2.0356412 1.4436661 -0.039372668 0.9329955 0.16651373 0.35087225 -0.35261393 -0.47850472 0.7284043 0.7909725 1.4108258 0.037658796 -0.28609142 -0.95123005 -0.9766815 0.052668415 -0.5105388 0.78834313 -0.3695827 -0.7446613 0.6353471 0.90037185 1.0265827 0.4346786 -0.6574542 0.10477389 -1.7115448 -0.42458308 0.045052953 -0.7946208 -0.46832964 1.249719 -0.23447652 0.13259625 0.5565592 -0.64407146 -0.9140415 -0.48180526 -0.52460754 0.6291879 0.85428286 -0.00823045 0.65636045 -0.7918091 0.84131724 -0.06996175 -1.4941759 -0.61813307 0.028282167 0.05033214 0.47740674 0.13430497 0.21467523 0.70577896 0.1056743 -0.41193247 0.2746428 -0.8102663 -0.6355301 0.89109564 0.58979845 -1.1489806 1.1223998 -0.36396646 0.502427 0.7738122 -0.39579242 -0.4810022 0.35955676 -0.2858657 0.2330492 0.75682443 0.9066885 -0.26184848 -1.9198179 -0.58536446 0.4560753 -0.3348778 -1.5298865 0.81816053 1.0019761 -0.70902425 -1.2989821 -0.4800959 -1.5796733 -0.115072004 -0.93025875 -0.17178087 -0.228271 
-0.18400414 0.15376028 0.48175663 -0.4148628 -0.931282 -0.16375597 -0.7463018 -0.80801713 -0.56791914 -1.4290885 -0.29072163 1.4442087 -1.4047371 -0.4437266 0.8428365 1.5363023 1.0584912 -0.24518672 -0.4429821 1.2872362 0.5924964 1.4652542 -0.24254574 -0.22390436 0.44304013 -0.34409264 -0.65564305 0.82615674 0.7280388 1.2742904 0.16702093 0.83495164 -1.3033081 0.9167219 0.9841365 0.50308096 0.7062581 -0.27710968 1.0512522 -0.23992264 0.2319758 0.20454185 1.0486425 1.2723435 -0.8162119 -0.41081408 0.26465032 1.5216391 -1.399706 -0.45335123 -0.25381935 -0.7961344 -0.46147138 -1.1562798 -0.9149049 0.87446576 0.48978192 -0.14964192 -0.33768305 -0.0076042856 1.4509747 0.18146984 -1.2023383 -0.5066839 0.86688393 0.85347027 -1.1879554 -0.42815143 0.49952495 0.8569148 1.1490561 -1.8423833 -0.19411372 0.7148206 0.13682501 -1.8329346 0.3785308 -0.13995196 -0.9180051 -0.03742714 0.2576599 0.83170396 1.3825966 -0.6478391 0.29870915 1.992856 -0.69020134 -2.0528507 0.7924474 -0.97837853 2.0972786 0.05935064 -0.5587493 1.234913 -1.4415236 -0.35297874 -1.2824522 0.6469834 -1.2413514 -0.19689816 
-0.27666095 1.0555779 -0.8331043 1.4064362 -0.87215745 -0.25706124 0.19313192 -0.07895327 0.4845844 1.1165911 -0.8386986 -0.9165743 0.5992841 -0.8545748 2.2669168 2.4040945 -1.6987038 1.739067 0.3139471 -0.52687174 -1.233122 -0.2328949 -0.6277903 0.43971375 -0.07036549 -1.6001202 -0.40654835 -1.0415403 0.56159025 0.15726376 0.733148 -2.5699475 -0.9343357 1.1322056 0.7628907 0.33796507 0.15763244 -0.63096654 -0.36264962 0.26322678 -0.3806543 -0.42639643 -0.08591628 -0.16573837 -2.1540604 -0.1084809 1.180324 0.97426283 0.28267992 -2.1482513 0.2612939 1.6575001 -0.5011894 -0.83150893 0.04325206 -0.19450173 0.072052486 0.6152754 1.7073811 -0.47317633 -0.44842812 0.048866607 1.1967356 -0.23096843 0.06826682 0.108281136 0.9707092 0.67560405 0.8324062 1.721397 0.071317405 -0.27721742 -0.77435124 0.43887693 1.0817311 -0.7673548 0.09880117 0.46738118 -1.7772183 1.5357064 0.6934615 1.283697 0.102880605 -1.1592096 0.49172083 -0.47310248 0.9945546 0.28844336 -0.62381107 -0.6287453 0.14310548 -1.0343332 -0.41437012 -0.39669764 -0.20312747 -0.8964791 -1.0174657 -0.4854869 -0.11330245 -1.0367837 
-0.41877085 0.62393624 0.88692445 0.6721705 0.64219594 -0.047711175 0.43385315 0.2258347 0.3765226 -0.12780872 -0.53923196 -0.118669994 -0.39177203 -2.151198 1.0897598 -1.1214057 -0.30306232 -0.4748791 -1.2031426 -1.2600499 1.3191904 0.08959156 -0.8361813 1.5297197 -1.3319703 -1.30452 -0.068879314 -0.7736593 0.51951283 0.642955 -1.341865 -0.19956547 -2.148149 1.3603203 -0.81668997 1.3935772 0.62623245 -1.1625632 0.29134455 -0.7686472 0.6210153 -0.55377686 -0.8327565 0.4263102 2.6276095 -0.89658135 -1.441845 -0.7665963 0.895924 1.476078 0.6035523 0.88023233 -1.3240261 1.5147896 0.68710315 -0.59683716 -0.6020715 0.6221495 -0.870576 0.37600115 -0.8734985 0.9008475 -0.9720998 -1.2829783 0.7008431 -1.197461 0.024178177 -2.012175 1.1094538 -0.83801854 0.42354965 0.9064702 0.16255365 -0.38391954 -0.70427805 -0.33583012 -0.7204 -0.8732507 0.46356 -1.0223207 0.7207506 -1.0033976 -0.00877485 1.8212103 0.062717 0.7230439 -0.24091998 0.38370034 0.42300338 1.3690614 -0.9155868 -0.4786953 -0.06021286 0.6392585 -1.2687286 -0.5441932 -1.3088312 1.1443539 0.65387094 0.7063811 
-0.9552473 -0.419343 1.475123 0.5228524 -0.21934845 0.016909607 -0.41102317 -0.59100246 0.1351065 0.13580205 -0.033476654 -0.34595463 -1.0434707 -0.8772476 1.0930907 -0.6649113 0.036902543 -0.18735683 -0.1895883 0.3967294 0.62649196 0.22998913 0.14753479 -1.2579452 0.12982489 -0.02008461 0.65988076 1.1804382 -0.7984614 0.8666922 -0.68637395 1.5729175 0.9434903 0.5924259 -0.9979167 0.301377 0.15902965 0.76483995 0.7707362 0.15200625 0.1593788 -0.9510222 0.5377955 -0.94947624 0.84286433 -0.2273131 0.7975533 0.45358136 0.48027074 1.2999036 0.78483963 1.4803481 0.49045265 -0.44989067 0.93420273 -1.3137473 0.32483688 -0.16018325 0.18728776 0.87683815 -0.69695973 -1.2086687 -0.38867122 0.65685207 0.110121384 -1.1502552 -0.8098455 1.0914143 0.4458622 -1.7855054 0.5889744 1.2473944 -1.0555557 -0.30617243 -1.2416244 0.3741921 -0.487895 -0.39934537 1.9568824 -1.0822511 -1.841077 -2.5159733 0.078879386 0.6791105 -1.1344646 -0.06940071 -0.42439768 0.077091984 -0.2553591 -0.1264984 -1.1670395 2.2542002 -0.48226452 1.4829435 -0.4401143 -0.4018117 0.12648143 -0.3643054 0.6931957 0.9952011 
0.4984589 0.42301536 1.0939218 0.4127494 -1.3482497 -0.70219994 0.4798044 0.97755444 0.22212046 0.28929266 0.17092204 -1.1600251 -1.0077983 -0.63784605 0.2014698 1.0515941 0.65947896 1.2039447 1.1127993 -0.8914842 1.0371788 -0.4458618 0.028592823 1.9002799 -0.1034499 0.7231073 -0.31329924 -0.17891645 -0.34853384 0.7556235 2.244505 0.01828658 -0.32231233 -0.9853228 -0.50024337 0.5647816 1.2235988 0.64130884 -0.6712639 -0.91198456 -0.21619858 -1.4014672 -0.7101404 -0.276781 -1.0211713 0.6560632 0.36663124 -0.18994838 0.6560891 0.38551816 -0.7042706 -0.37398368 -1.0938467 0.74784964 -1.1742183 -0.09211559 -2.2371569 0.7403798 0.033724148 0.25714514 1.2781155 1.7143458 0.4851456 -0.17036489 0.3899933 0.9472731 -0.58333045 -0.64029217 -1.2894439 -0.65418965 -2.3096375 -0.5658665 1.2853038 -0.8773889 0.020752018 -1.4349694 -1.0470611 -0.2210284 0.88717425 -0.46617305 1.5054876 0.20276289 -1.3186704 -1.1796616 0.40132734 -0.102152176 -0.6488712 0.16992122 -0.71926856 1.8457359 0.19686076 -0.019990858 -1.0572338 1.423605 -0.20412445 0.31977913 -0.47641814 -0.72673476 0.5237566 -0.10674433 
0.53982365 -0.1541875 -0.26206452 -1.8246617 2.386699 1.1396245 -1.599642 0.35376972 -1.1227876 1.8409564 0.46328926 1.12578 0.20793837 0.77536255 0.17154463 0.4268624 -1.0657 -1.5438861 0.29686996 -0.327239 -1.0732528 -0.14940448 0.44142246 -0.894134 -1.0793616 -0.060784794 0.32553214 0.29268774 -1.0425833 -1.2608453 0.06846931 -1.6529152 -0.9973867 -0.5921089 1.6998286 -0.2158969 -0.55278933 -0.8794748 1.8460336 0.18555027 -1.0408089 -0.23778804 -0.48856243 0.21887384 0.039042514 -0.029886555 -1.0647328 0.22110389 0.09215495 -1.103585 0.35505337 -1.0708264 -0.49899855 0.33791685 -0.0022556148 -1.4901763 0.050906543 -0.076551475 0.30901876 -0.033140875 0.562906 0.5058529 0.4729799 -0.25799054 0.7766692 -0.037221238 0.65469444 0.28993183 -0.96911347 -0.72641796 -1.3139367 1.0188975 -0.97980505 0.7971752 1.0743711 2.1224852 1.3334547 -1.4041356 0.14279786 0.009111765 0.3688959 -0.12885927 0.082459845 0.60610056 -0.5913517 -0.9353081 1.859037 0.99095356 -2.4611545 -0.40375462 -0.70940316 0.72702557 -0.58737427 1.2349998 0.71495396 -1.0565374 -0.04375331 0.74821156 0.6994879 0.57584846 
-0.47177973 -0.3235224 0.4039785 0.7041997 1.5732626 -0.44025895 -0.60738075 0.7680836 0.53025836 -0.795964 0.75433636 -0.06658531 -0.47591013 -0.07558059 0.15996921 -0.037172202 0.65682447 0.98282015 0.03613219 0.3956449 -0.08760339 0.4001349 0.7603225 -0.86276424 -0.5915852 -1.0691613 0.95619226 0.5331047 0.52154607 -0.8148075 1.5156485 -2.4958134 0.0013787835 0.11829756 0.91583306 -0.6455309 1.7498094 1.216909 0.24860571 0.96584594 0.2017659 1.0955791 0.18489607 0.15888993 0.6486982 0.75292504 -0.25810114 -0.75043446 -0.3720773 0.3972284 0.54647905 -0.44559044 -0.5395781 0.036748268 1.1102625 -1.2271553 -0.35468838 0.53005135 0.03004119 0.9953386 1.3132378 0.35174942 0.58721584 1.7415303 0.5558579 -1.0945123 0.72495854 -0.065149665 1.1637105 -1.0725087 -1.7058985 0.5014956 -0.07006358 0.6885293 -0.9443557 0.50109345 -1.1028985 0.7711105 -0.0033864416 -1.0391082 1.3246335 1.0287845 0.7581204 0.04223506 -1.732699 0.019953858 -0.47842097 1.7557963 -0.5465941 2.322958 1.1751187 -1.5146955 -0.97284544 1.4171493 -3.4119446 -0.42061022 -2.9762568 2.0898654 0.8509771 -0.44760448 
-0.17758986 0.32583985 1.074155 1.7739294 -0.95186573 0.3311413 -1.048813 0.9343294 -0.1508431 -0.8070143 0.64149505 0.63964206 -0.30380914 1.575637 -1.2936351 -0.4007216 0.49408108 -0.16426833 0.059820727 0.20969547 0.6789501 -0.67563236 0.18125102 0.65164506 -1.1687524 0.11034432 2.2615492 0.46060598 -1.5729494 -2.2777026 0.6986904 -0.2807458 -0.32708687 0.77828443 1.7867646 -0.1775836 0.1838424 -0.6885017 -0.20476063 -0.55402315 -0.14321177 1.1479251 0.9674784 0.95967263 1.3282467 -0.83983237 1.4755889 -0.25768247 0.6618011 -0.15170784 0.16169629 0.07814648 1.0763166 -0.3401515 0.39487645 0.45095995 0.21142143 -0.9135449 0.0931892 1.206383 -0.9820688 -0.24532592 1.7842209 -0.37768513 -0.2758731 -1.0705366 0.86993945 -0.91476846 -0.18992575 0.006885714 0.8120651 -0.32350555 0.20626229 0.08902042 0.5927463 -0.17636383 -2.0694604 -1.237719 -0.04364904 0.27498412 -0.38941398 -1.3027527 -0.37536848 0.56407595 1.3410443 -0.5876326 -1.001135 -1.650473 0.19382617 1.378582 -0.7903726 -0.06449727 -0.9761099 0.052830588 -0.2817374 -2.047226 1.3963323 -0.9564888 0.43533933 0.4888663 
0.0011050547 0.009441715 1.1045963 0.76406246 0.78580827 -0.12428715 0.5919794 1.1378595 -0.8490563 1.4971834 0.072484404 0.07851067 0.7664175 0.7513327 0.58094126 1.1204749 -0.9970122 1.20108 -0.6290191 -1.7977717 -0.7177015 -1.0288454 -2.096725 -0.10161954 -0.735836 -0.2719046 2.4665842 1.8020463 -1.2788202 -2.022029 -0.02953005 0.24250317 0.8936977 0.45238078 -0.44248924 0.6755877 -1.9438146 -0.3157122 0.9104505 0.9141939 -0.6124365 -0.16589586 -0.8053101 -0.9087798 1.6068922 0.40811783 -2.6106603 -0.32687178 1.1763676 0.1261322 -1.8372601 -0.66281676 0.78229797 1.5456917 0.7544334 -1.2618042 1.3469653 -0.14684072 -0.57410175 -1.0254295 -0.53609896 0.6117373 -1.0992451 -0.4096149 -1.701757 0.59057623 0.62435013 0.32891575 -1.0834051 -0.8390964 1.3892136 1.0274105 -0.592457 0.3632174 -0.7494886 0.9626069 -0.027354434 -0.6573286 -0.14123078 0.73139805 0.034647137 0.07174917 -0.07727097 0.07680143 -0.9583153 -1.0818764 0.3719161 1.4126529 0.41883332 0.7466378 -1.0993637 -0.4851704 0.47617772 -0.4559399 0.16637614 -0.16387501 -0.12003105 -0.37262008 1.8095106 -0.645605 
-1.5109527 1.6544199 1.0347759 -0.36019984 -0.1646575 0.9495692 0.34761408 0.004289505 -0.8081682 1.437102 -0.09755301 1.8003345 0.8212776 -0.14859112 1.4197861 0.31647712 0.8874261 1.156571 -0.5671827 1.0630493 0.6096136 0.8855436 -0.001981955 -0.54476535 0.060974125 -0.069889165 -1.0998776 0.59734416 -0.60819787 -0.8424781 -0.23749484 -0.9528802 -0.018253513 0.16410442 0.20123841 0.40996027 2.3036458 -0.63470757 0.2232543 -0.20143051 0.1927932 -0.6013474 0.1630509 0.24895658 -0.021390868 0.4745055 0.6507181 -1.0333754 -0.49360323 -0.32073846 1.894705 -1.0488601 -1.3285702 -1.1479179 -1.0895739 0.04605183 0.6636685 1.3826666 0.045975238 -1.0925139 -0.37043098 0.606786 1.3297229 -2.200756 0.5485227 -0.33816183 -0.45617783 0.63154763 -0.4832429 1.4672607 -1.3270627 -1.049476 0.77045125 -1.2906022 -0.25672123 -0.7657516 -0.13093852 -0.04853648 -0.45186043 0.7172045 0.66403174 -0.5427425 1.0219207 0.3610411 0.25913754 -0.18042015 0.32304293 -1.0007279 1.2853839 0.1821753 -0.46725312 -0.9325143 0.457354 -2.1898217 -0.4160993 -0.107389115 -1.0361708 -0.7251625 0.62936366 0.11391214 
1.4459076 -0.4990973 -1.0755345 0.5481137 -1.1970216 0.33721474 0.62722707 1.4751148 0.7319997 0.5624276 0.65392166 -0.27239388 0.62179893 -0.24460466 0.042134453 -0.048582405 0.6086399 1.2216349 -0.58042014 0.7424827 -0.8951037 -1.0478348 0.5393357 0.5452699 0.5809299 -0.108656056 -0.21103382 1.0245252 -1.9989332 0.13894212 0.21857105 0.8185856 0.9262511 -0.08709211 -0.9583993 -0.80889434 0.39314252 0.2817037 -2.2067153 0.75417215 -0.6198883 -0.17956363 -0.3866864 -1.1438059 -1.2143422 0.9345168 0.7108229 -0.3686249 0.8198824 0.034785032 -0.62541336 0.4584425 -0.113081105 0.5925322 1.4844086 1.5791521 -0.47203532 -0.37602976 0.59358495 -0.8911518 0.44577414 1.691675 1.979147 -0.9262414 -1.79619 -1.7272253 0.5445348 -1.2048965 0.18545571 -0.24425277 0.8597225 -0.06544546 1.0907148 0.41064402 -1.6030105 0.6212128 -0.9156521 -0.40338784 1.0247996 -0.9005859 -0.06689777 0.57883906 -0.8525666 0.9425333 0.25803578 0.70342684 1.6132864 1.3976663 0.0769868 -0.8277132 -0.9906903 1.6915525 -1.6710186 1.7160531 0.99765533 0.85046345 0.10851212 0.10546687 -0.18294093 -0.006858296 
1.2813432 0.8940386 0.8648425 0.7172343 1.0052342 -0.72952956 0.50777113 0.38296816 1.125583 0.15482369 1.3177856 -0.863398 -0.89744705 1.7841276 -0.06934169 -1.3713554 -0.38898522 -0.14171785 0.7330434 0.20845819 -1.4648622 1.230295 0.8525638 0.8136652 0.15193368 0.7102114 -0.32335335 -0.40224218 1.0885172 -1.7989254 -0.07800619 0.6520934 -0.8669086 -1.3095906 -0.44220012 0.28193882 -0.20843203 0.5718736 -0.103137165 0.33077195 -2.7166293 -0.14037636 -1.0113851 -1.0160297 -0.4961953 0.5461014 -0.8418996 0.40618882 0.26343834 -0.8242613 1.2272291 0.5461737 -0.4461316 0.9970384 0.49928883 -0.1338003 -1.8195926 -0.6683912 -0.033304308 1.0991392 0.0589426 -0.08308755 1.5000978 1.1724849 -0.21460623 0.81502897 1.093013 -0.30617687 0.44192043 -0.93268716 1.281326 0.4546755 -0.2886774 1.505977 -1.403198 -0.19637649 -0.09954954 1.0152568 0.27151862 -2.0939302 0.53088945 1.0790125 -1.4619774 0.48966306 -0.12357181 2.7378457 2.2666855 0.20596622 1.729518 0.31683853 0.14733636 -0.029936898 -0.76384395 0.33897457 0.33304924 -0.58207065 0.33432785 0.44546065 -0.90860254 3.670655 
-1.1456357 -0.6197081 0.022259358 0.3871071 -1.0581099 1.6033273 -0.14310582 0.66337323 0.47716227 -0.5400843 0.32222047 0.73307246 -0.3335716 -0.2002326 0.2365358 -0.9186418 -0.3708342 -0.6608626 -0.040332597 -0.8686353 -1.3641839 -0.8877215 -0.3947782 0.44686913 0.91536325 -0.40865213 0.3753519 -0.5336207 -0.38616663 -1.1217457 -0.46095216 1.7660038 0.22311023 -0.21819472 0.5262319 1.2520771 1.0263929 0.32873088 0.2508896 1.7377892 0.6641692 0.7497852 -0.12063012 0.088057876 -0.87514395 1.4239762 -0.13477835 -0.7456539 0.62464994 0.10307543 -1.1866384 0.0017310677 -0.2052866 -0.7424236 -0.10042844 0.20823382 0.82457715 -0.65026146 -1.6845434 -0.8922263 0.30009234 -0.5455124 -0.3539688 0.42328143 0.08590428 -0.77167046 -0.13703004 0.3789947 0.47258615 0.83528095 0.071652375 0.8750905 -0.864644 -0.7125237 0.53163606 -1.2558382 -0.44137865 1.445401 0.9639839 -0.81146437 0.14048664 -0.94914466 -0.5501421 0.9342866 -0.66733146 0.38155165 1.0252697 1.221342 -1.1621205 0.66029686 -0.5158058 0.567046 -0.9787721 1.216689 -0.12219458 1.8238766 1.0169511 -0.4431124 0.10279888 1.2788861 
-0.25757575 -0.35667396 -0.6278851 -1.5204989 -0.321786 -0.5992768 -0.36638418 0.040195744 -0.480053 0.75183254 0.68640476 0.5710457 -0.72485745 0.5108464 -0.062301684 -0.77140033 0.361898 0.76837564 0.14021678 0.58917934 0.68490815 0.21003646 -0.5791387 -1.100837 -0.6921906 0.64859515 0.13401304 -0.8805389 0.81821525 0.25995874 -0.8083412 -1.0741158 -0.86075664 -0.6690713 -0.28737947 -1.1388348 0.3747359 0.32620987 0.8607169 -0.25527108 1.0012435 -0.9492277 -0.4684993 -0.67877305 -0.46089888 0.15513143 -0.5561074 0.20913689 1.162638 0.29901165 0.9761756 0.57583624 -0.2485801 0.8880794 -1.5500863 1.3309779 0.9711467 -0.43079868 -0.29305848 -0.5168838 -0.23746802 -0.41586268 -0.61882377 -1.394702 0.44853383 0.09442236 -1.7458555 -0.31307793 0.3170179 -0.0831722 0.38445237 0.8547912 -0.3108564 0.4943617 0.80806285 -0.019836655 -0.3905154 -0.5106247 -1.4624567 -0.08425596 -0.12825118 -0.4966168 0.11158857 -0.80915785 -0.8037352 -2.0351713 0.019494941 0.257074 -1.4397976 0.67210114 -0.31522283 -0.27898833 2.2349584 -0.88108593 -0.32576182 1.8840995 -0.19789597 -0.23139814 -0.04237076 1.2115602 
-0.17183879 0.6257143 0.49099275 0.44248614 0.51189125 -1.1882813 0.8380942 -0.52056605 0.6375069 0.49787536 -0.3015627 -1.5992262 -1.3322804 0.36221114 -1.7080288 1.3969504 -0.6009778 0.9689475 0.9042187 -0.01867982 -1.1842345 -0.18778951 0.72895855 0.281163 0.23567994 0.034989484 0.30769852 0.40219954 -0.58877474 -0.45795423 0.6803919 0.1596824 0.7612016 -1.2271881 -0.3171062 -0.20734781 -1.3955214 -0.5952732 -0.9331688 1.1714706 -0.6692012 -0.09534542 0.76795614 0.80234385 1.9700896 0.011666549 -0.7180829 0.29107007 2.203705 0.80830216 -2.663896 0.7299498 -1.0901347 0.17778482 1.1020073 0.060262214 0.27099115 -0.36444432 0.44771212 0.41714135 0.07961293 -1.2079029 -0.24289745 0.39884025 0.6140895 0.5060174 2.574801 -0.95895684 -0.0076147146 -1.9982127 0.3726365 1.7635187 0.41873723 0.43165702 0.53689706 0.85566354 -0.50616413 0.9781384 0.56398183 -0.53043354 0.21415037 -1.3465804 -1.7858123 0.9482532 -1.190083 1.1493626 0.6020704 -0.52464646 0.41412434 -0.005937657 -1.3854827 -0.0074320664 -2.0880113 1.2709426 0.41784826 1.3190017 0.7856241 1.4516935 -0.43883932 -0.92632675 
-0.36606425 -1.0790008 -0.8656384 -0.9277236 -1.6012905 0.4035898 1.0795643 0.64971274 0.5698478 0.4463456 -2.2315807 0.48999417 1.0544313 -0.17756723 0.04499892 -0.26781955 -0.2429439 -0.29561955 -0.6683256 0.58940595 -0.04588461 0.28294712 -0.8626805 0.9278972 0.024992583 0.1969567 -0.31187096 -1.0794258 0.22398882 -1.7966565 -0.4000818 1.3192713 -1.1394433 -0.11418567 -0.029659458 -1.2289647 0.48098728 -1.3133117 -0.21433334 1.6266232 -0.1357602 -0.24811333 0.39347258 0.2539705 -0.9494719 -0.48063976 -0.46976668 0.17894937 -1.0675155 -0.22936924 0.12651756 -0.38178104 0.98024505 -0.122723274 -1.2098953 -0.67061776 -1.8886116 0.68348056 0.46891886 1.1063459 0.47785127 -0.8413613 -0.19881427 -0.52081907 -0.41086707 -1.1026232 1.0230278 -0.024042167 0.2652995 -0.7710709 -0.27187884 0.4463898 -0.22192387 0.1715187 0.9186919 -1.4936666 -1.4030095 0.69071734 -1.8056777 -0.19754928 1.885916 -0.030149579 -0.6941954 0.96948755 -0.54482985 -0.77379036 0.5750572 0.069831155 -1.3416756 -0.43625614 0.49074945 -0.3204206 0.0026108562 -0.6522732 -0.42920557 1.2967968 -0.854518 0.116774134 -0.17204523 -0.1518866 
0.776384 -0.4915148 0.30907202 -1.055188 0.07144839 0.50569606 -1.3245102 0.89103234 0.534089 0.90933055 1.8171514 -0.8491038 0.30211455 -0.07375992 -1.8648989 -0.2075581 -0.7737708 -0.17054833 0.76643246 -0.36189935 -0.50720257 -0.6660852 1.0715972 -0.9387814 -1.0060955 -0.77116406 0.45929796 1.0376226 -0.09152652 0.008264291 0.9111512 -0.40811685 0.31620136 -1.1528273 0.5140484 0.45151198 0.023348058 2.3376198 0.7137271 0.29798618 -1.1704925 -0.4353422 0.07128108 0.39934555 -1.2545048 -0.66403127 0.059837263 -0.50047684 -0.54963326 0.965797 0.6078977 0.78656876 -1.3847034 0.15595415 0.84733045 -0.71044624 -1.9886304 -1.0549799 0.056770075 -0.14656381 1.3268557 0.8708606 1.785295 0.6850607 -0.32827264 -2.2172377 0.6866675 -0.41285703 -0.26799333 -1.2556316 -0.0121865105 -1.3596808 2.3204026 -1.673244 -1.1704333 0.43313345 -0.7266221 -0.47981244 0.27176577 -1.9130061 0.6003443 0.30729672 1.1902728 -0.5449936 0.6820163 0.015624857 0.91494864 -0.88561314 -0.6191239 -1.1332108 1.0668879 0.22286652 -0.5414693 0.34212708 -0.374563 -0.8675992 0.240136 1.0291661 -0.47410634 -0.93336517 
0.8869723 0.2595434 0.62739664 0.048644427 1.0449846 0.1468674 0.52931374 -0.7057357 -0.74544096 -1.0267065 0.16695775 0.8893556 -1.5157487 0.06022653 -0.10507235 -1.3470186 1.287445 -0.65415287 -1.0729575 2.0706935 -0.72016066 0.37940326 -0.7509312 1.2224293 -0.19591545 2.116604 -1.0766027 0.78732353 1.1339179 1.6710466 -0.8708584 1.915255 0.91640997 0.55080307 0.5630909 -0.35806006 -0.038562886 2.3564136 -1.6746423 -0.4653564 -0.2391403 1.2543914 0.7901251 -0.098831125 1.4513695 0.7210554 -0.78776205 0.39288586 -1.1377784 -0.31739253 1.1792037 -0.18554385 -1.8614771 0.015778873 -1.7570188 -0.7943559 -0.3228095 1.130419 1.2610328 0.8703975 -0.43785292 -0.25975192 -1.6212616 1.1698376 0.37063462 0.32741013 0.36715567 -0.07703478 -0.6283466 -0.2678479 0.057846833 0.4594492 0.22880512 -0.8216385 -1.3404957 0.517635 -0.29008523 0.1260381 1.4688177 -0.60209215 -0.5220473 0.46211988 -1.7866143 1.1047635 -1.1340034 -0.08484354 0.69229215 1.103727 0.5421354 1.193839 -0.70300514 0.0778754 -0.5457477 0.925559 -0.36440444 -0.24278551 0.7877686 -0.7209188 -0.21421833 0.16837622 
-0.1084858 1.1993983 0.61905646 0.71448284 -0.64358884 0.5517799 0.9185935 1.423927 0.8696247 -0.9343306 -0.31783462 -2.5211637 -2.006179 -1.1562799 0.6510773 -1.0397184 -0.58572334 0.5516071 -0.80520076 0.4898175 -0.20786361 0.87846535 1.0647584 -1.1028929 -0.6689293 0.06580657 -0.49830687 -0.9556569 0.7600109 1.7639289 0.064765595 0.5592702 0.1566586 1.0435293 -0.44309878 1.5235583 0.9182682 -0.26310676 0.72136575 -0.33537212 0.53842473 -1.2148341 0.040600825 -0.29175085 0.83366674 0.24731095 0.07527553 0.68818784 -0.42824578 0.3403764 0.14552042 -0.3574152 0.82762104 1.0646857 1.2244029 0.60076517 -1.6446667 0.31557423 0.19545059 -1.0759653 -1.7514002 -1.1225499 0.45676404 -0.0069835316 0.4161101 0.98973477 1.1688366 -0.85489976 0.0056032944 0.3584952 -1.2305809 0.3198433 1.0947281 -1.2093172 0.15237425 -0.93717414 -0.43092823 -0.99344325 0.5039016 -0.82913995 0.6090046 -1.4581056 -0.6971418 0.647829 -0.8855234 0.24361686 0.6905194 0.95755637 -0.16940068 -0.61202085 -1.8279102 0.022369703 0.13354266 0.40602198 -0.2897806 0.82611406 -1.2922832 -0.14292814 -0.17433058 0.8591192 
-0.021583756 -0.68527484 -0.9208651 0.2173857 -1.7731999 0.5613646 -0.8237825 -0.02784881 0.07368261 -0.33127543 -0.65767884 -0.6132286 -0.8161685 -0.8732849 1.8000458 0.30115432 0.3005669 -0.8553166 -0.91840565 1.7404617 0.053459305 0.08654466 0.77142966 -2.1680403 -0.48529515 0.27843484 -0.8513771 1.5282091 0.379002 0.8603098 0.60254514 -1.748584 -0.67435044 -0.7540771 0.7710858 0.47567075 -1.1921486 -1.8918855 0.39901426 0.20362325 -0.6905648 1.4236858 -0.23076747 -0.045030087 0.17293096 -0.4269531 0.45567214 -1.1685512 0.39198008 0.526728 0.12816225 0.9628166 0.93961096 -0.9797122 1.201329 0.32818484 -1.3315393 1.9470198 2.4544125 0.19838287 -0.37518078 0.34157997 2.0876276 0.0042604115 -1.8625125 -0.28976816 -1.6108687 0.33014655 -1.4258262 -0.97308636 -1.2465714 0.4356598 1.3282593 0.8278199 -0.7496048 -1.0038456 0.5123294 0.9540052 0.12830512 -0.45346165 1.8250344 1.4495913 -1.2453462 0.7713048 -0.60334694 0.3849269 0.8193972 0.7296212 1.1807107 -0.7410603 -1.6475006 0.71986866 -0.5360889 -0.47261295 -0.08609072 0.41952187 -0.25386134 0.33024168 -2.1652966 -0.4502544 
-0.12324738 0.16626605 0.3782974 -1.6574482 -0.58630204 0.08286448 0.9647362 -1.3438169 -0.24231012 0.762475 -0.69627863 0.3881314 -1.015533 -0.42669642 0.4703068 1.7349317 -2.4856012 0.5471262 -0.15863062 0.7581296 0.4169364 -0.14506093 -1.440071 -0.06342172 -0.07730505 -0.60153997 -1.2265347 -0.3607967 -0.7968699 0.80261946 1.0628237 0.4649968 -0.52209055 -0.26866978 0.13790002 -0.69085276 0.79422194 -0.48961824 0.11640373 -0.05126434 0.059490267 0.7075144 -0.15655458 0.94812304 -0.98661506 -0.057911605 0.87850416 1.2993382 0.85690653 -0.79994565 0.16952503 -0.88012713 -1.575479 -0.9565189 1.055649 -0.28673455 1.6884385 -0.49144888 1.1649883 -0.7754585 1.4073936 0.23202834 -0.77181596 0.017340044 0.4149693 -1.5460654 0.86742324 -0.21786207 1.896782 0.41036478 -0.40806845 -1.3536701 -0.25364196 0.026093958 0.6445182 0.7621669 0.021334037 0.64434797 0.58788353 1.4502093 0.2682575 -0.45482358 1.2388537 -0.5527539 -1.0233672 1.2176125 0.04536702 -0.38688418 -1.0650988 -2.72263 0.49757913 0.5248098 1.583409 0.8197393 -0.6415993 1.0748945 -1.3361727 0.43545732 -1.4680655 -0.1942636 
0.7412115 -0.50975406 -0.44172883 -0.82844454 0.90090525 -0.50816625 -0.4943515 -0.7648712 0.5814807 -1.5777695 -0.29520398 -0.122335576 0.5283049 0.2211108 0.7739427 0.16856115 1.3219694 1.1316078 -0.7297243 -1.291786 -0.5078329 -0.40126643 0.66508424 -1.3504581 0.005224184 -0.4034442 -0.6736195 -1.0332104 1.7503997 0.62524927 0.085268356 -0.28979743 0.8310485 0.2636367 0.04913061 -0.5608629 0.3653317 -0.30643362 0.8510068 -0.8596371 0.65064526 -0.69194376 -1.1724589 0.8882047 -0.9775003 -0.03444881 -0.0762683 -0.6433064 0.06099439 0.49263594 2.9213424 0.85927045 -0.47186545 0.13639191 -0.7385569 0.62008244 0.20740302 0.5054132 1.0034987 0.012573606 -0.43272865 -2.0329168 0.033575192 -0.051579587 0.5057343 -1.4015878 0.42561737 -0.61529285 -0.3090512 -0.3137669 0.40000036 -0.6351402 0.26193076 0.86255574 0.45037007 0.28936535 0.7974836 -1.000848 -0.5945221 1.2469407 -0.1481671 1.0193692 0.195341 -0.8799673 -0.10802155 -1.2071033 -0.6600469 0.30087215 -0.099171974 1.1649892 0.8739537 -0.010203779 -1.3932686 -1.2152829 -1.3778733 -0.03194739 0.042730153 -0.73017365 -0.008364348 -2.5373585 
-0.82913214 0.6026634 -1.3958958 -0.3139645 0.48002955 -2.8670254 0.18485767 -0.49150512 -0.62540513 0.85663164 -1.457682 -0.2780547 -0.037841853 1.4796232 -2.0753376 -0.9114604 -0.58800924 0.9116654 -0.18829069 -0.5412729 1.0464202 0.6341492 -0.22511552 -0.73155105 0.49929085 0.38601673 -0.25344303 -0.08341615 0.79321826 -1.7713922 0.14388901 1.7342224 -0.45662275 0.9236439 -0.5388058 -0.8853532 1.2136896 0.8066991 -0.17440277 0.30163243 0.41261098 -0.18356985 -0.6742947 0.57004523 0.06981585 0.32967418 1.4281783 0.23838645 -0.389652 0.58886707 -0.85218924 -0.06242316 -0.43865755 -0.63803244 -1.2498286 -1.5249238 -0.88523805 0.6888083 0.38660145 -0.66594183 -1.3472404 -0.71424085 0.620069 -1.1077012 1.0134982 -0.11711225 -0.6864823 -0.4586983 0.2244248 -0.14507402 -0.20281538 -0.91145575 -0.3964132 0.99364334 0.9537469 -0.18094991 -0.228388 -0.07430783 0.13474682 0.7897052 -0.1790982 -1.1570703 0.22805054 -0.0034052448 -1.5336318 0.5016677 -0.58989847 0.51993585 -0.63832915 -1.5708941 -1.5904968 -0.44309092 0.044959754 0.27779788 1.0903091 0.8840089 1.0609115 -0.44711566 0.5448335 0.3655488 
0.9984916 0.049961656 -0.6698476 -0.7062377 0.9679204 -0.5535044 0.10547635 -0.8917442 -0.84040195 0.5920419 0.24447174 -0.19997644 0.6771551 -0.5257974 -0.9107876 0.9151429 -0.45418286 -1.3077623 0.02426235 -0.24453147 0.12160087 -0.32150546 0.19863065 -1.7974216 -1.1613123 0.0808094 -0.6929145 -1.0573883 0.5676214 0.36097175 0.36952454 0.0152254095 -0.67978436 0.6694866 1.3429083 -0.4537867 -0.23147437 -0.5835375 -0.005193987 0.22130622 -0.10858379 0.042017613 0.06601363 -1.4600877 0.7028042 -0.07697201 -1.3367981 0.6605202 -1.1460315 -0.054105654 0.78548074 -0.51557887 0.26926938 0.7151269 0.9183673 1.2324135 -0.6580573 -0.086800046 -0.026378013 -0.13891178 1.3491907 -0.46256214 0.53931004 -0.009885245 -0.044798657 -0.26589793 1.1947601 1.11029 -0.68534195 0.59745765 -0.8552046 -0.9782025 0.45028627 0.6803486 1.5787337 -1.0369753 0.84146434 -0.28507286 0.59702927 1.1370167 -0.3961274 -0.32038411 1.4911004 -1.7491697 0.19632743 0.5662283 0.2829958 0.8553852 0.54159826 -1.2157235 0.885654 -0.06524484 1.1960492 -1.0358825 1.5024257 -0.057534926 1.3980179 1.4017341 -0.6761234 -1.4294498 
1.0102429 0.32474288 -0.77383435 0.9768702 -1.3720782 1.5857875 -0.80153286 1.3702579 -0.44439572 -0.4603941 -0.2717507 -1.224789 -0.062533185 -0.8000173 0.047132842 0.9983345 0.9406559 -0.13024946 -1.95214 0.6116833 -0.89157915 1.2950686 -1.9698968 -0.36743897 0.98025614 0.0498094 0.0123798335 1.3219861 -0.47600427 -0.287197 0.76181674 -0.23976344 2.1138766 0.4588681 -1.506127 0.21756093 0.39829773 0.40691084 -0.11886213 0.44622368 -0.004850764 0.54817736 -0.20247164 -1.4282182 0.60442656 -0.9404932 -2.2686172 1.1696742 0.8609434 2.0426025 0.9049283 1.7545446 1.4799643 -1.4783689 0.6233026 2.6106446 -1.1152204 1.1154298 -0.8498179 -0.30366334 0.676093 -0.95686984 -1.5360498 1.0347965 0.56816334 -0.8179743 -1.5898687 -0.18281476 -0.16863234 0.5208746 1.2782446 0.8873155 -0.26386604 -1.0054871 -0.8255624 1.8113016 -0.7881269 -0.6747166 1.6872149 -0.32405913 0.10489369 1.1992136 -1.5829077 -0.22828944 -1.3061694 1.8022451 0.025232183 -1.0044795 -0.5237073 -1.0682554 0.16147283 1.3399565 -0.02257581 0.7847903 0.98145854 1.0529177 2.3502696 1.4062005 0.18271138 -0.024722166 
-0.08703843 -0.38380268 -0.07205481 -0.9592796 -0.45071915 -0.511711 0.06776803 0.44677857 -0.28266978 0.7136378 -1.1585795 -1.9319454 -0.32692382 -0.7584325 1.0782943 -0.017296672 -0.21768007 -0.29030058 -0.9165974 0.94016796 0.36984736 0.31227225 0.61385685 -0.32362047 -0.5573438 0.06466582 1.3355836 1.1799926 -1.0441643 -0.43046993 0.83747405 0.85006124 1.0481372 -0.6870391 -0.7522047 -0.06113431 1.1168354 -0.545413 1.7244661 1.4181648 0.0028846704 0.1322651 -0.17102492 -0.35458213 -0.37062642 -0.6563012 -0.6590093 -1.7805117 1.0599066 0.32546014 -0.63047945 0.15926014 1.1141428 -0.30847612 0.13047092 0.2761157 2.4732463 0.06119765 -0.47784257 -0.52641034 1.7603216 -0.1595586 -1.1350453 -0.64782107 0.3515324 0.3592941 0.6519485 0.645458 -0.695993 0.012578284 0.99527764 -0.83104306 -0.29712614 -1.0152911 -0.0074697626 -0.3669625 -0.6806327 -0.7403439 -0.3759903 -0.55540216 2.1434538 0.8766537 0.67846525 1.2441816 0.7964626 0.99329895 1.3660476 -0.064430885 0.8039625 -0.5824047 -1.600908 -0.131023 1.8307017 -1.6101954 0.81519425 -0.08646843 -0.81936514 1.1472093 -2.038098 -0.54564536 
-0.74687546 -0.48129267 1.2682624 0.013883113 0.28673682 -0.07174435 0.50232255 -0.86646026 -0.45863906 0.039789416 -0.7417286 1.2941102 -0.6399908 -0.53156596 -0.47647065 1.0289655 0.38918385 -2.0452008 0.3669946 -1.6385485 0.39988297 0.5563843 0.70238376 -0.94327885 -0.283724 -1.0739957 -0.6013108 -0.054381616 0.92613065 0.4649205 -0.56348866 -1.1893675 -0.87180454 0.6917132 -0.14635634 -0.36065838 -0.5182695 -1.9631 -0.007802969 0.38578334 1.0368263 -1.1646894 0.06920287 -1.0771444 -0.1563061 0.108686276 0.8856993 -1.2572267 -1.5668501 0.7054779 0.8214762 -0.57794005 -0.22280127 -0.035644554 -1.3484612 0.9469742 0.24311203 -2.0823395 0.9393506 -0.49463463 0.19546826 -1.1446995 -0.9548884 -0.1582125 0.93434715 1.2675114 1.8136871 1.0161657 0.04701508 1.0551982 0.011523546 -0.3753275 -0.7193387 0.4897089 -0.24490763 -0.76815593 0.72552204 -0.059735607 -0.5418183 -0.122632094 -0.47385237 -0.25354838 -0.27151862 0.43048984 0.12843071 0.7473976 -0.54401994 -0.7708183 -0.97126514 0.17652771 1.2243053 -0.1938617 0.2914467 -0.8608737 1.0691961 0.53081065 -0.6341561 0.028840508 0.06591685 -0.34123638 
-0.26384577 0.122322336 0.29252538 1.2609366 1.2402983 -0.83995086 0.11782579 0.05412669 -0.26568067 0.18639062 -0.27781498 2.5165062 -1.2630731 -0.6693829 0.63325626 -0.91855085 1.4249794 -0.41020268 0.09844571 -0.19937713 1.798376 -1.3369352 0.23704158 -0.43993777 -0.33494213 1.5018399 0.83179784 0.83547163 0.9834651 0.1654023 -0.35973924 0.77774066 0.025971135 -2.068448 -1.0953265 0.9378624 0.035725582 0.23280743 -1.3551387 0.32915574 0.1497385 0.17060564 0.14844452 0.7198571 -0.24222344 -0.36339843 0.17789559 -0.19160163 -0.15043923 0.39845195 0.63643116 0.77216554 -0.06542992 -0.74595755 0.14385317 -1.1429557 1.8357893 0.22222883 -1.5647603 0.38099205 1.5297564 0.966589 -0.6409615 0.022970906 -1.2955029 -1.3148931 0.6224157 0.8407194 0.32319027 0.34776384 0.85276353 -0.44879335 1.4336102 0.17281832 0.5597904 -0.25403455 -0.5104023 -0.5093657 -1.4036463 -1.037385 0.1796356 0.7440709 -0.3858611 0.00027659308 -0.85138947 -0.737233 -0.78488386 0.91999024 -1.0102766 -0.11426225 0.33971718 -0.02099241 -0.39875337 -0.21817233 0.27029148 -1.2642736 0.77464074 1.2505766 0.5394864 1.4301524 
-1.6800193 -1.5768297 -0.96261764 -1.6587582 -2.7501953 0.9840044 0.703978 -1.0971406 -1.2002237 -0.6552683 0.9133458 0.25845218 0.11080525 -0.5176932 0.6563853 0.2536257 1.5539 0.92050374 0.23842834 0.99893224 1.1747085 1.2642541 0.33834544 -0.24794427 -0.6309057 -0.792971 -0.12944171 -1.0798665 1.1590396 0.9339772 -2.5455353 -0.23788731 -0.36783132 -0.54980356 0.6687114 -1.31263 0.5886919 -2.3316774 0.53606683 -1.1621847 0.65131974 0.6863478 0.41675654 -0.22782755 -0.9474449 -0.044054814 -0.33137494 -0.7033566 -1.0345557 -0.5061015 -0.8257952 -0.90116423 0.61070246 -1.1183074 -1.1993957 -0.4696699 0.9045569 0.3722377 0.72471935 0.2739115 -0.6446848 0.3446092 0.77136266 -1.245114 2.714889 0.3390115 -1.717644 0.12119718 -0.276783 -0.24438009 0.31794325 -0.61726564 -0.27575704 1.0727187 -0.83595866 -1.7005826 1.189235 0.7333238 0.5325515 0.93011874 -0.84501743 -0.7527171 1.5197382 0.32474768 -0.082190245 -0.7812851 1.4343805 -0.366964 -0.3198213 0.011001189 -1.1753416 0.7231792 0.33015394 -1.3861122 -0.42359146 0.21639982 -0.46158138 -0.17369871 -1.1427709 0.40248087 
0.7243204 2.8410032 0.81144685 -0.8315983 1.0055019 0.28042057 0.8966067 1.5275235 -0.24566224 -0.5658738 1.671444 1.5705348 -0.26903287 -1.1344818 -0.87072045 -0.27501774 -0.510854 -0.55929023 0.047064476 1.3431119 -1.0663463 -0.43814868 0.6438283 -0.64401805 -0.744507 -0.334214 0.63457423 0.52944833 -0.8461415 -0.8927268 1.3659871 0.2865779 0.25759482 0.89889205 1.0942335 -1.6202315 1.4082394 0.6412329 -0.89158535 -1.03896 0.9489266 -0.08087029 0.5104493 0.82747084 0.40977198 0.06358799 0.7926024 0.38481838 -0.42264348 0.32062435 -0.4144677 -1.7116299 -0.13129114 0.809325 0.6841577 -0.7285539 -0.48159674 -0.95356905 0.1143294 -0.8953374 -0.114300594 0.6867374 -0.9885479 -0.40477452 1.1704333 0.049054474 -0.41519898 -1.0868701 -0.14874204 -0.8375933 0.33473483 -0.03917058 -0.95850617 -1.3548007 0.3076002 -0.53180915 0.0893022 -0.8326487 -0.12704322 -0.6339119 -0.57526225 -0.9699245 -0.075353704 -0.11864656 1.2594727 -0.5311347 -0.71988136 0.13496369 0.0044879355 -0.6322219 0.12599497 -0.8039637 1.2627429 1.681847 0.37946656 -0.29864353 -0.8812718 0.19881716 0.21922083 -0.49240845 
0.41894978 -0.3347844 -0.6134848 0.4035094 0.87695426 -0.86434424 -0.057946455 0.9885151 0.9280994 0.3557933 2.3867517 -0.5189819 0.9488877 -1.6180528 1.1835726 0.44612747 0.9019399 0.6345229 -0.48374355 0.3250127 -0.2543074 -0.08385483 0.38093388 -0.0027016704 0.028531602 -0.43830884 -0.44357708 0.35329872 0.6005863 -1.2096153 -0.2661578 -1.3116742 -0.2644245 0.24511252 -0.71457505 0.36102256 0.31060213 0.22917032 -0.4337921 -1.7398472 -0.7572652 -0.12564176 0.6401754 1.0100294 0.8589499 0.15177506 -0.6259825 -1.1576247 -0.8201773 -0.80067754 -0.5278675 1.0226192 -0.64416844 0.9595246 -0.12173814 -0.5080618 0.41927612 -0.92807305 -0.30304557 -0.7265973 0.60406685 0.54578424 -0.5259189 -0.0083783 0.37944114 -0.73220396 0.36370245 0.5000052 -1.0216053 -0.8844464 -0.3354358 0.83399 0.09489683 0.57531625 0.21025027 0.37331066 -0.87948585 1.3352443 0.093705475 -0.16056731 0.16365057 -1.1140354 1.9161419 0.33353618 1.6899842 0.48550642 0.7276125 -1.1487234 -0.7094726 -0.9210755 -0.3482348 -0.90156305 -0.965709 1.5008842 0.46959504 0.9918697 -1.257412 -0.6565125 -0.42525902 0.2084434 
-0.7970489 -1.4675035 0.0024653883 -0.37536475 -1.0311428 1.618815 -0.44487596 0.2645677 -0.50257355 0.7456881 -0.00866785 1.0234545 -0.25325948 0.5920854 -0.28590754 1.2463622 0.5152783 0.027020525 0.84989077 -1.2219813 -0.95104825 0.026342658 0.79502934 -0.45446044 0.8918257 0.25146136 1.2048277 0.22523458 1.4923513 -0.16464175 -0.11819754 1.3417468 1.286369 -0.08651432 -0.9964086 0.02453309 -0.47753823 -0.5454467 0.24315372 0.94374585 -0.6033195 0.45355025 -0.775392 -0.15591344 0.16552939 1.0287172 1.1275294 -1.3509934 -0.39191127 0.8092725 -0.18644878 0.22976597 0.43579435 -0.29398784 -0.45663145 0.203494 0.9735454 0.68067855 -1.234741 -1.3352782 1.7495807 -1.2813967 -0.11913733 0.03931115 0.72991884 0.456355 1.018194 -0.48101106 -0.0974662 -0.38535073 -0.64505047 -0.60213166 1.3580343 0.35358837 -1.3124158 0.057592854 0.0041531143 0.76373535 -0.21270168 -0.7143708 -0.23488323 -1.342798 0.3673978 -0.31737533 0.1282811 -1.165703 -0.039202772 0.6150914 -0.11046382 0.23445249 0.10780095 -0.95124054 -0.6810949 -0.55403304 0.7635775 0.74002886 -0.8872221 0.95180964 0.31250304 0.20424229 
0.37668124 0.07917864 0.23857754 -1.4337094 -1.2365001 -0.17793173 -0.7247633 -1.7304753 0.8347054 -0.5060506 -0.4925643 -0.049416754 -0.38524503 0.8463002 -1.4697272 2.2759342 -0.73484457 -0.5508248 0.0042007137 0.8723759 -0.32911086 -0.5691372 -0.26653138 -2.2152364 0.7913046 -0.5656931 1.1679723 -0.96394503 0.677984 0.9417775 0.57732433 0.94152063 -0.6701195 1.0724348 -0.1512052 -0.44174102 0.8287735 0.55127823 0.73284805 -0.6687716 -0.60250896 -0.24275702 -0.8499812 0.4155129 0.43834892 -1.3649373 -1.377455 -0.5659478 -0.33578998 -0.26591232 1.4526677 -0.24711026 -1.7351074 0.7442252 1.3245313 -1.7311658 0.9937386 -0.3921883 1.3892082 1.3881986 0.7364198 -1.9205477 0.021875009 0.16452147 0.069008216 0.6799477 -0.11148758 0.51137865 -0.23836522 0.29314128 0.96751136 -0.19530305 -0.7920323 0.41825488 0.2689627 0.6844835 -0.14753076 1.8217586 -0.51268435 0.36587006 -0.11515006 -0.72943455 0.879966 0.13020623 -0.08324682 -1.2128836 -0.9885628 -0.29680926 0.70107657 -0.836907 2.6485863 -1.2220793 0.06806602 -0.57355505 -0.19936354 -1.6249242 0.5881531 0.61917007 1.140583 -0.9875253 
-0.03510889 0.8754569 1.4351238 1.1500251 -0.6540053 0.3139037 -0.032597452 0.4348826 -1.9027563 1.1792104 -0.22685564 -1.6356069 0.88278705 0.6582393 -0.7199095 -0.028789714 0.27011314 0.35652918 -1.6325142 -0.65585667 0.62043285 1.1097987 -1.0212735 -0.4770871 0.1061184 -0.4682905 -0.069220036 0.8919749 -0.6501852 0.37021935 -0.20444734 0.3306984 -0.6498929 -0.89654464 -0.2568725 0.35865256 0.4809264 1.3042029 2.1867955 1.3863639 0.58084476 -1.6671809 0.41486916 -0.51949364 0.15543549 -0.4215086 0.19179839 0.3317008 0.037400365 -1.1122401 -0.13291344 0.28269416 1.8049322 -1.3918802 -0.9120388 0.6655174 -1.725426 1.9488537 1.1704481 -0.68991 -0.81799316 -0.72981787 0.010425302 0.0040993528 1.2869475 -0.16355178 0.40333027 0.6850631 -0.44432503 -0.17619607 0.66484463 -0.15447466 0.030236103 1.3347745 0.01625341 1.411908 -0.007260055 1.2438089 0.75016576 -0.71796465 -0.08125305 -0.8628147 0.27771944 -0.89880717 -1.2690657 -0.19785617 1.4200656 0.15037006 0.41091 -1.2933879 -0.2907678 0.4027944 0.04123192 0.7363286 1.2988418 -0.6366761 0.2526129 2.0458338 0.12922361 -0.2029067 
1.100553 -0.45410463 1.1625204 0.14969866 0.05989242 0.17895146 -1.0380077 -0.59723496 0.85318047 -2.3736792 0.0870872 -0.73907876 0.32385662 1.385499 -0.107409455 -0.47340745 -0.5635319 1.1023397 1.1248548 0.8990285 1.0570713 0.94912374 -0.32723495 0.54814804 0.8638988 0.44836566 0.56018287 -0.04913451 -0.70298165 0.72677857 -0.6371786 -0.029670747 1.2352977 -0.5142972 -1.0361998 -2.2322593 2.2131968 0.7769555 0.33933938 -0.8975857 -0.9346473 -0.5895053 0.24774387 0.049104348 2.2556658 0.21509768 -0.9160388 -0.5606627 1.2784699 3.1245146 -0.02296071 0.9466149 0.4267914 0.306659 -0.96412796 0.26903775 1.2523472 1.6516228 -0.37074018 -0.33741072 1.4144572 -0.08939918 -0.21432109 1.3488382 0.829058 -0.33494505 -0.16869731 1.3795844 -0.9233306 -0.33590862 0.84508896 0.0797869 -0.7274994 -0.40375233 0.33549273 0.524243 -0.58435285 -0.97251 -0.6904084 0.41663545 -0.71889174 0.27428696 -0.44611746 0.6325161 -1.766123 -0.23858479 -0.54708505 0.25092152 1.5833066 -1.1002399 -0.0065614562 0.57616085 -0.16195144 1.6093901 0.3074862 0.4965482 -0.66523033 1.4237459 -1.2142315 -1.4257798 
-0.41112447 0.5522506 -0.50823545 -0.33253932 1.884981 0.6519095 0.3777417 -0.8626564 0.026020052 0.2788154 -0.9347234 -0.97966594 -1.0676897 0.41550058 0.032983705 -0.522368 -0.33651403 1.3246001 -0.21314444 1.2055458 0.114937924 0.434683 -1.0326872 -2.2186375 -0.19617674 -0.41601095 -0.5485874 -0.75032943 -0.294911 0.96352816 -1.556079 -1.0834143 0.6572155 0.06740524 0.6389151 -0.32243466 0.22487357 -0.029132448 2.0176797 -0.84674937 -0.13216391 0.14632685 1.2684033 0.90225536 0.7561027 -0.37983802 1.1756606 -0.6825865 -0.17764293 -0.18694533 0.91819715 -0.22906433 0.36170864 -0.46224403 0.23928893 1.7783307 -0.6229635 -0.2813798 -0.26344803 0.56741744 -0.5054136 -0.647881 0.3057747 0.39301333 -0.6266909 0.74390614 -0.41751632 -1.1142923 -0.91426426 -1.6272521 -1.1580287 0.28756857 -0.79562056 -0.14266667 -0.6019043 -0.12298825 -0.19352044 -0.5670385 -0.4120771 -0.27304778 -0.36503282 -0.91346663 -0.2865136 0.33701012 -0.47494695 -0.3997643 0.80043215 -0.1276491 -0.46010628 -1.705524 -0.17211084 0.46698374 -0.23210165 -0.30921495 -1.994929 -0.3351213 -0.38483053 -0.4246174 -0.3239584 0.9111002 
0.33211783 0.90755814 0.38655704 -0.54966015 -0.05653425 -1.1049349 -0.77476627 0.43923667 0.5998376 -1.0560253 -0.3396223 -0.88593763 1.4783849 -1.8837849 -0.04900454 1.7709409 -0.75658166 -0.053660788 -0.79771996 0.49704635 0.07985956 -0.14649816 1.4428278 0.1980456 0.25267634 0.6105126 0.20780471 1.3619766 -0.8753926 1.2378556 -0.071765706 -1.0760067 1.5146192 0.13227975 -0.536526 1.497242 0.24149543 0.74215406 0.30626467 0.24542387 -0.48131618 1.1221353 0.77530295 -1.1482989 -0.087785974 -1.0721675 0.2752557 1.7982801 1.0377659 0.122810364 -1.0395162 -0.12689345 1.0233755 -0.39183563 1.1406077 0.7249497 -1.183983 -1.1046864 1.3065239 0.3083512 -2.4544148 -0.3583338 -0.78118277 1.4942181 -1.4120113 1.1333811 -0.104554646 -0.6333087 -0.55715555 0.3994108 0.2588396 1.4103911 -0.7529314 -0.054442763 -0.6322285 -0.3007129 0.093549475 -0.3836812 0.75391454 0.89636356 1.1264594 -2.5632367 0.19187611 0.1381553 -0.80012107 0.78468543 -0.5695445 -0.23987655 -0.34252995 1.8540609 -1.1071641 -0.17598742 0.9477893 1.5924835 -0.045411758 0.27564886 -0.7098621 -0.23885481 -0.012004047 0.90810704 
0.1701571 -0.81191176 0.6086848 -2.2539942 0.7334103 1.1371404 -0.12991932 -0.5508398 0.06580828 -0.085073255 -2.6150396 -0.091738515 0.36790332 -0.45815897 -1.1350814 0.8933612 -0.54674226 -2.3190603 0.22510675 0.29156718 -1.014023 -0.20241065 1.4303057 -0.5913147 0.3082691 1.4974718 -0.091800936 1.9248476 0.48858717 0.21072608 -0.26987648 1.5339769 0.60490656 1.1391801 1.5615294 0.41775927 -0.8829837 -0.7773535 1.5047584 0.010356832 -1.5409175 0.1503439 -0.8961013 1.166881 0.5202289 -2.0330307 0.091874085 -1.0284878 -0.53809386 -0.15129966 -0.22806194 -0.63218987 -0.16625156 0.011155009 -0.92975855 0.6724597 0.88618183 -0.81665236 -0.11137437 0.93421936 -0.8350885 -0.9816767 0.13982387 0.22601433 0.27105862 3.0598702 -0.3840058 0.5576414 0.86257446 -1.1581265 0.22128305 -0.86306363 -0.8965522 0.1056106 -1.4536561 0.28449118 0.636943 0.820817 0.37656397 -0.1684203 -0.5819771 -0.45869797 0.61934245 -0.6926823 0.4027727 -1.8298572 0.7881446 -1.0444801 0.11342489 0.6840012 0.5622116 -0.7078039 -0.98060876 0.1513355 -1.1283673 -1.1624409 1.146037 -1.3137136 -0.05551694 -0.30997556 
-0.9975169 -0.72517425 -1.737046 0.98146445 -2.0204604 -1.2396477 0.55056274 -0.670702 0.1827501 -0.52279496 -0.3349487 -0.9906865 -0.5797572 0.28384694 0.94462985 0.84554005 0.29595962 -0.59744203 -0.63961965 -0.41859594 0.51069695 0.7765893 -0.03740927 0.36133078 -0.71664155 -0.43140405 0.45710838 -0.32209006 0.7636285 0.38048923 0.60084754 -1.0920489 -1.416635 0.52865994 -1.065906 0.564349 -0.7497369 -0.26798797 0.70141983 0.910889 -0.051141303 -0.3510987 0.89813966 0.68363595 -0.6218798 -0.50064784 -0.26297933 -0.27187997 -0.08618342 0.584659 -0.24383277 -0.4803221 -0.3157643 -1.6404978 0.51159054 0.49601534 -1.4000704 0.5257586 -0.7689616 0.90736794 2.2662692 0.595051 0.08246952 -0.42656878 0.45428976 0.045102924 -0.39816254 0.29634336 0.77681035 -0.7085798 1.5305334 0.09511879 0.8537568 0.7561096 -0.51642585 -0.55331457 1.2272608 -1.3508565 -0.15480135 -1.2410314 0.029521743 1.7504424 0.038674135 0.31530493 -1.2072073 -0.34352928 0.58610904 -0.6543031 0.41431016 -0.4237271 -0.4491319 0.6432375 -1.2505666 0.09779174 0.028464919 0.38603297 -0.71955705 0.50989693 0.8948922 -1.0669922 
-1.7632368 1.2589339 0.9320151 1.0501657 -0.3682551 0.24947178 0.071577504 -0.54943466 -1.3823798 -1.2473756 1.3367691 -0.7862586 0.5953831 0.43224353 -0.7574993 1.4584802 0.23344015 0.71032155 0.16558698 1.7053049 -1.3355021 -0.21461502 -0.79590064 2.3673224 0.9471744 1.5001553 1.2048888 0.020819562 -1.4363279 -0.9460318 0.021706453 1.8326807 1.1230077 -0.26244223 0.45040658 -1.384264 1.1463523 -0.5380421 0.10345599 -0.27282274 -2.6140263 -0.559886 0.71438926 -0.40923616 0.081955016 0.6396646 0.34007832 1.2014261 0.30001575 0.037684765 -1.3190004 0.373052 1.3990189 -0.28839958 1.5949678 0.15669718 0.70776445 -0.58092153 2.564523 0.47718227 0.39254034 0.83344513 -0.60829276 0.22946176 -1.6689179 -2.5959039 0.7710381 -0.6628154 -0.76163864 -0.7511573 0.5823721 0.044408537 -0.98214686 -0.35306534 -1.0428962 -0.10941192 -1.0789369 -0.16518492 0.117016636 0.66249907 -0.7736916 -1.0384036 -0.74608946 0.18924096 -0.6755206 1.5561755 1.6285493 -0.29630846 0.44121367 0.43234533 -0.48315865 0.11243436 -0.1826672 0.9272982 1.0270586 -1.051404 1.8247007 -0.5538401 -1.135326 0.6755942 
-0.60721 0.18015453 -1.0986116 -2.9954982 -1.5943952 -0.039891213 -0.026940031 -0.009556013 -0.537958 0.4792861 0.25482446 1.1098996 0.50845885 -0.19625908 -0.2671455 0.19208682 1.6995252 -1.7968708 -1.3445466 0.67431015 -0.99614006 -0.7807633 2.1003704 0.013291884 -0.05814379 1.1959687 0.793362 -0.520289 0.07093885 1.216541 0.19687471 -1.1253217 0.7558842 -0.89455515 0.77993524 -0.8117839 0.2177595 1.3082653 -1.0939913 0.20796439 -1.0985309 0.23005608 1.282598 0.4012992 -0.8037226 0.22810373 -1.4778231 0.52341896 -0.75510067 -0.40981644 0.46642372 0.2043496 0.6702526 0.8144762 -0.853975 1.3511709 -0.059721075 -0.5775281 -1.3668932 -1.0498197 0.08212219 0.5195246 -0.6932009 -0.6090163 0.4304939 1.0621531 -0.2508536 0.87498176 -0.43613198 0.35497692 -0.22277628 -0.15499258 -1.1779269 -1.0963528 -2.2409475 0.101814814 -1.3193203 -0.88606256 -0.86603016 0.35747147 -0.71435344 1.0760075 0.74665517 0.40194532 0.36407176 -0.5944656 0.22629803 0.56216 -0.5450705 0.56707966 -1.2724562 -0.6568475 -0.67817646 1.3574142 -1.7504823 -0.56716573 0.651021 0.15667091 -0.78220713 1.1662304 
0.21581127 0.62705505 -0.78664154 -1.3643532 -0.22763258 -1.0676726 0.36698002 -1.0451577 1.915606 -0.97213495 -0.010308803 -0.30425966 -0.4203403 0.3622118 2.004995 0.56112814 1.5399711 -0.10436593 0.2749665 -1.0891312 -0.15624844 0.10025935 -0.6809476 -0.5135284 -0.60917264 1.4021838 1.0954517 -0.20082888 -0.75422686 0.9487718 0.13750823 0.8070609 -1.2830826 1.2069592 0.39560977 -1.0414789 -0.33713967 -0.39752898 -0.34868005 0.08262291 1.2238078 -0.16383612 -0.778878 0.67617506 -2.127828 0.325593 2.1742268 0.10105383 -0.36794856 0.21255372 0.88872874 0.054528415 -0.27230197 -2.0526016 0.6233768 0.345662 -0.32394752 -0.23232916 0.26917934 0.12848614 0.00827352 0.087235585 0.23568952 -1.7998337 0.99967307 -0.20355143 -0.6683892 0.58190084 1.4046339 -0.63259566 0.47878808 -0.81504697 -1.2612671 -0.22379653 0.42420322 -1.4717462 0.30139476 -0.34760746 -0.55783033 0.16232762 -0.52959806 0.4632362 0.22237065 -1.6550404 0.26252815 0.04948124 -1.3503846 -0.9861725 0.7718759 0.40680683 -0.28637123 -0.6682114 -0.9842849 -1.1349548 0.79873854 -0.23741676 -0.47317907 -0.45757517 -1.7353822 -1.1505271 
-0.5784314 2.3857105 -3.1107914 0.69812495 1.426429 -0.44602144 -2.735346 0.8527758 0.6158247 -0.24476975 0.50614905 -0.06779041 1.1774594 0.6395033 -0.97738194 -0.8439801 0.9678088 1.1092933 -1.0940009 -1.7602714 -0.34977147 0.50290245 -0.22714634 -2.275557 0.748417 -0.24608181 -0.91559213 -0.50494725 -0.998614 0.7968344 -0.8743852 1.4003603 -0.7893766 1.1070924 -0.04715295 0.31496117 -0.22674105 -2.6913583 1.4017133 0.14005691 1.2227422 -0.74422 0.3798068 -1.4467278 -0.6241882 0.032055307 -1.3299085 -0.22506532 -0.6873182 -0.9308613 0.43212038 -0.36143845 0.85131854 -0.10455291 -0.21305318 -0.16477929 -0.6373007 -1.8050332 1.3466277 1.2309506 0.062928244 -0.3842149 -1.398675 -1.0305264 0.14485195 2.9725645 -0.6442534 -0.72689414 0.12466097 -1.0179226 0.23119912 2.0939224 0.8695049 -1.3418438 -1.1080931 -0.42983618 1.4318779 0.24094313 0.15457143 0.48510855 1.209586 -0.5199356 1.7432578 0.6967276 0.25998122 -1.3004602 0.75974846 0.8045224 -0.5067754 -0.5572436 -0.97693694 -0.9190916 -0.81354994 1.067756 1.8263729 0.107747294 0.94478804 -1.1281173 0.46123192 -1.722437 
0.7092783 0.32994494 0.5183321 1.0481052 -1.4748821 1.6496836 1.228935 -1.1690387 0.32829872 -1.6096846 1.0412252 1.8841449 0.78257024 0.009710177 0.5585893 -1.4280132 0.63070023 -1.2160748 1.7729803 -0.2544108 1.0086099 0.036426093 -0.20335583 0.46587336 0.7171676 0.16293672 1.2622435 -1.4308447 -0.27983272 1.5180731 0.8754083 -1.9546473 -0.17706771 1.1318245 3.7439263 0.042202145 0.56607604 1.3736678 0.2157797 0.32321867 1.8482554 -0.41897213 -0.4534661 1.2450874 1.2387636 -0.50964177 0.5412592 0.5554538 0.39773807 -1.8324716 -0.4148845 -1.1305338 0.92528635 1.3622274 -1.2894526 -0.559067 -0.70198506 0.7692205 0.59773415 0.0503351 -0.4529093 -1.1599315 0.43923682 0.058895078 0.28486204 0.041704424 -1.0718548 -0.8010306 -2.00548 1.8398726 -0.14740998 0.12940614 -1.8851925 1.3396784 -0.84183 0.42275977 0.941646 0.20652327 -1.7301407 1.333909 -0.21376175 0.8857845 -0.7613668 -0.25714228 0.81516117 -1.3714726 0.27665845 0.72330606 -0.46427044 -0.6247707 0.33305368 0.09718912 2.6086514 0.738219 0.48652005 -0.18440881 -0.13053349 -1.3029732 0.96129507 -2.1782885 
0.21430394 0.82143795 -0.86368245 1.3764673 -0.23326157 0.12845859 1.2260267 1.9190394 1.1002196 0.07649192 0.7479111 -1.3746171 -1.1905231 0.7266289 -0.9027431 -0.5336422 -0.5275242 0.9166332 -1.3868611 -0.033860933 -1.3442713 -1.1884791 0.06569101 -0.60123634 -1.2047962 -0.8539784 1.3105927 -0.19756836 0.3165059 -2.2954829 0.5298238 -1.1562525 -0.43648884 -0.0995321 -1.0778669 0.84817123 -0.3928062 1.370004 -1.4008708 1.9203697 0.27345884 0.07680795 -0.95310664 0.10875358 0.83983725 -0.5616246 0.10687017 -0.24032281 1.0963248 0.72976065 0.6281595 0.7812204 -0.8250225 -0.33706498 0.24242477 0.040552996 1.1516415 2.7983944 1.5978992 0.28959203 -0.8492355 -1.0444665 0.20134735 0.28201967 -0.043179214 -0.54841703 0.13651097 -1.3144451 0.21823037 -1.837858 0.9957837 -0.26676077 0.22610591 -0.6421476 -0.12568858 1.1124012 -0.16812588 -0.08775757 0.4883831 -0.9563649 0.14995329 0.6935155 -0.33208248 1.5580693 -0.15972123 -0.7309241 0.6991691 1.07978 1.9212288 1.416899 0.4862701 -0.03181947 -0.75742126 0.9645833 -0.0033689137 0.9640533 0.030142583 2.8484998 -0.26025277 -0.30268502 
-0.02552026 -0.720482 0.5601441 -1.623002 -0.04972391 1.2263877 -0.23476526 0.24499853 -0.43521082 -0.6885833 -0.46833843 1.4851583 -0.124433525 0.751659 2.059794 -1.3139423 0.9280673 -0.12311858 1.2093759 0.10832485 0.37341708 -0.1698229 -0.8128811 1.2412696 -2.0707774 0.1164583 -1.1276343 -0.029865336 0.62265265 1.3932428 0.25464073 1.2129334 -0.7965753 0.0029793316 -0.22689882 0.32688713 1.4060414 -0.5917862 0.5568319 -0.43481588 -2.0418568 2.9322364 -0.7483081 1.578255 -2.1920114 1.0768826 0.07737234 -0.63828546 1.20321 -0.11253633 -0.25754306 -0.78026927 -0.2432778 0.3117175 -1.3771513 0.8556935 0.64249706 0.74893385 1.0589706 -0.6208549 -0.05965646 0.9928295 -1.4952385 0.40048593 0.72171116 0.076198906 -0.99641746 -1.4664176 -0.20210674 0.23230445 -0.77686983 -1.2324291 0.31603244 0.374615 1.762087 -0.4568686 0.1452889 -0.051247966 -0.94627106 0.8161029 0.16906038 -0.6865662 0.98482317 -1.4925824 0.65260243 0.3182632 -0.8283889 0.024237514 -0.43335912 1.6134058 -0.58577645 1.0824294 0.43441522 -1.4247808 -1.3956188 -0.9163304 -0.28654054 -2.5549989 -0.094703786 -1.060855 
0.8349457 0.80765194 2.4235036 0.28787902 0.46786228 -0.31342316 -0.17870799 -0.070876 0.19422261 -0.54149824 3.0762622 -0.19683293 0.12216172 -1.26145 -1.028703 -1.7925181 -0.36305168 0.5857571 0.4548516 0.438338 -2.3256893 -0.011189586 -0.4663998 0.9547833 0.37726384 -0.08482279 1.2243015 0.17310065 -1.6207206 -0.37433487 -0.97763133 -0.044584755 0.05868986 -0.55998 0.15009344 -0.28277138 -0.45026955 1.3411919 -0.3981074 -0.31844833 -0.3413239 0.55001765 0.28414452 -0.7904923 -0.183956 0.57869124 -1.1415476 0.30969748 0.94993335 -0.37420523 -0.7036754 -0.48873967 0.84317863 0.37284753 0.12126192 1.8895485 0.68181264 -0.6284608 0.9905563 0.61359733 0.9792334 1.0067339 0.7747931 1.1470186 -0.6171008 -0.20515871 0.13633567 -1.4613285 -0.4979056 -0.23836829 1.1740793 -0.74998975 -0.03399711 0.46616498 -1.7758822 -1.3437005 -1.5366362 0.32828382 1.5006518 -0.96611303 -1.718712 0.41497895 -1.4020573 -0.76239955 -2.536671 0.12706336 1.4846895 1.7092656 0.7434362 0.8640838 -1.0427009 1.016751 0.47130117 0.18614978 -0.7334989 -0.36085021 -0.050645597 0.24787605 -0.16462483 -0.15986997 
-0.5820013 -0.37664545 -0.2826733 -1.58174 0.08228793 -1.2798902 -0.278193 -1.1300799 0.21039864 -0.3644314 -0.30340478 -0.03808692 0.5630643 1.3202423 -1.530452 -0.92993313 0.10600498 -0.1977086 0.9992906 1.526398 0.40160602 -0.08756689 -0.11466791 -1.3450508 -0.96962094 -0.33340696 0.027947854 1.3961918 -1.4284841 0.9896339 0.6725183 1.0895311 -0.7781884 0.06693924 -0.8168793 -0.08847247 -1.7960739 0.95718795 -0.20029676 0.26248816 -1.1689037 -0.7206122 -0.5560027 -0.82173777 0.93252015 0.32182285 -0.0025232602 0.05167217 -1.0941279 -0.9160722 0.10628884 -0.3051226 0.35254896 0.658937 -1.5705649 -0.038527515 -0.26491982 -0.50086737 0.6015237 1.1073909 -0.9205733 -0.27525988 0.08249723 -1.0962521 0.48748654 2.6573822 0.42138436 -0.055674832 -1.3684204 0.1917314 0.7800108 -0.1341317 0.5301074 0.026294243 0.16545653 -0.9172727 0.5187424 -0.6128251 -0.80856574 0.30827153 -0.12558435 0.367629 -0.8089435 0.28615433 -1.1028811 -1.3261021 -0.5644954 -0.5807492 0.64504933 1.056735 1.7511523 -0.17613472 0.13928801 -0.2713365 -0.6563287 -1.4841691 -0.36876932 0.08797956 0.20476174 2.009844 
-0.43161824 1.6581243 0.42863888 0.8321645 0.15912285 0.6464962 -0.7899783 0.6595694 0.7846858 1.5762457 0.05193278 -0.42336127 0.12169716 -0.28702646 -0.76281846 -1.1832244 0.53816766 1.0157573 -0.10857635 -3.1064239 -0.92917585 -0.49329102 -0.2259746 0.47529212 -0.2805239 -0.39631003 -1.6763282 0.21994607 -0.6713046 -0.12833126 -1.104328 -1.0001887 -0.8831083 0.23729172 0.6058441 -1.1524388 0.7426549 -1.0038614 0.8063205 1.7236706 0.5376475 -1.0672786 -0.23560615 0.74556834 1.055793 1.0233785 0.34066862 0.69783866 0.32448193 -0.15922906 0.5226889 0.78364235 0.2752253 1.5438243 -1.5209324 -0.8513808 -0.109806456 0.5579655 -0.6966674 0.21201338 -0.9333798 0.17391805 -0.31689534 1.8312203 -1.6627324 -0.6228308 0.43834433 0.315406 -0.05101044 -1.4379784 -0.8250161 -0.2133683 -0.4478678 -0.11868358 0.8431166 1.079636 -0.10426823 -0.42070895 -0.07183437 0.9542063 -0.30561692 1.8200351 0.6539636 -0.27586392 1.045 1.5124853 -1.8315613 0.3932239 1.5910691 -0.45561597 -0.1172947 0.9481474 -0.6528791 -1.2556361 -0.7776748 0.1630291 1.6982912 0.6314472 -0.3923198 0.04613101 
-0.8064667 -0.28215334 0.8120903 0.8815521 0.2157459 0.18983129 -0.55236554 1.1058996 0.55542266 0.19708553 0.11224503 -0.30594134 0.62498283 0.93215203 -0.19208433 -0.20608088 -1.0442353 -0.27596182 0.15692125 -1.5634058 -0.7484346 0.8236025 -1.0540828 0.06489926 -0.5458537 -0.854189 1.2607858 -1.0662128 -1.2063646 -1.3590341 -0.20586342 0.24966739 0.603428 -0.14851487 -0.5110597 -0.3450744 0.18301122 -0.2693858 1.3228847 -0.36645073 0.25861195 0.5348787 -1.0567139 -0.9992226 0.31276053 -0.6998466 0.49863157 -0.4313472 -0.3251607 -1.0288438 0.5367448 -0.22363572 0.8633711 0.4836353 -0.86629343 0.19121584 0.07376933 0.1410492 1.0555198 -0.20436858 0.6197064 -0.033017613 -0.46987504 0.7044463 1.6807879 -0.41669345 0.17436512 -0.10782712 0.14634256 0.33361486 0.519149 -0.31964675 0.64215004 0.25600338 -1.2127831 -2.587886 -0.94990355 -1.1588483 -0.47318357 0.2844687 0.025770858 0.16221203 -0.3522648 -0.4165186 -0.18252967 -0.62207043 1.0751528 0.62087035 -1.6371545 0.53098273 0.15812634 -0.0012884794 0.8331792 0.2746187 -1.2386051 -0.7618841 -0.49382463 0.070287056 -0.29553485 -0.17961285 
-0.09642555 0.23507717 1.0676687 0.538165 -0.05030996 0.27818316 0.15677544 -0.7428417 1.8445668 1.2717435 1.2181293 -0.37481135 0.8009063 -0.2855453 -1.2698148 0.6793011 0.7350463 -0.7494466 0.9805849 -0.42434236 0.2935942 -0.6991099 -0.8085202 1.8490028 -0.67567366 1.1869383 1.5473409 0.5661893 0.81028 -0.30955675 0.87902415 -1.1330526 1.287472 0.37758836 0.43636286 -0.36458272 -0.15432015 1.0926939 -0.8304875 -0.4255948 -0.1605935 -0.8587994 -0.20162512 -0.121801354 1.4556084 0.691073 1.209028 -0.72922885 0.020302832 -0.3772946 -1.7113339 0.6842215 0.3143096 2.2013216 -0.44691667 -1.4371638 0.17322853 -0.4625857 0.21804568 0.55674505 -0.36963394 0.18033624 0.8851725 0.49344203 -1.404474 0.63672984 0.38557646 1.4350585 0.61116076 -1.560086 -0.75089985 0.04160476 0.18869235 -0.45720816 -0.8821806 0.956777 -2.309356 0.63041824 1.7252334 -0.31418332 1.7582328 0.15263945 0.37884927 1.7817953 0.2886709 -0.75046206 0.117831126 -0.29040813 0.84513545 -1.3496608 0.21801776 -0.22766623 -0.6153776 -0.06475522 0.5652775 -0.4207951 1.6014016 -0.048546 1.2724158 0.045860983 
0.2614119 0.5228287 1.0978401 -0.6196266 0.26727813 0.39187187 0.084378086 -0.7570461 0.48728767 -0.18083256 0.015967326 -0.5292134 -0.040988944 -0.37808546 -0.38618806 -0.5068186 0.13451084 0.6266053 0.060549356 1.4836588 -0.14390816 -0.6438058 0.2389584 0.9364284 -0.4972412 -0.35411057 2.0741546 -1.7226032 1.0155749 -0.12312588 1.7162119 0.93531495 1.1302377 -0.49885142 -0.14326572 1.0927488 -0.49645203 0.9676143 -1.7638608 -1.1046085 -0.06581842 -0.82486683 0.3059641 -0.2679472 0.3503098 -0.28620416 -0.6183823 -0.20149912 -0.117616996 1.060461 -2.400804 0.058050204 0.7949032 0.69131166 0.5519741 -0.8998888 -0.10268368 0.053746272 -1.425308 0.5211988 -0.5926518 -1.4127543 0.0046216724 -0.41019547 0.44297016 0.7223783 -0.4676386 -0.14645334 0.14948042 -0.3722628 1.1986219 0.28368798 0.59092826 0.05293977 0.7022027 -1.5787356 -0.15930489 -0.26781148 -0.5233136 -0.20508772 1.0486059 0.04043884 -0.7401894 -0.049669582 1.3913621 0.7877611 1.825993 0.6800442 0.61743736 0.099789664 0.7547178 0.94965684 0.23653777 1.539154 1.0546248 0.7145069 0.6305677 0.4247311 1.7958474 0.7839756 
-0.46919596 -0.120922126 0.056944914 0.88888186 -0.576977 -0.17461774 0.013470734 -0.6982041 -0.76719314 0.20452613 -1.2621052 -0.4555524 -1.2823195 1.7028481 1.3293461 -0.6628927 -0.67947185 0.6839481 0.43582428 0.038492806 0.5239397 1.6025234 -1.401202 -0.834054 -1.7772055 0.29188868 0.60625523 1.0388422 -0.6338437 0.23155679 -0.51848143 1.8100566 -1.6858417 -0.5603386 0.6309181 0.46164253 -0.17984986 1.9588368 0.008129581 1.5492707 0.5053729 -0.4150702 -0.0021285878 0.09971386 0.24484047 0.18098389 0.6508255 -0.53216714 1.5676844 -0.64593 1.2344413 0.4262173 0.2927865 0.343069 -0.104182236 0.878742 1.2168229 -0.16920535 -0.39306158 -0.40291023 -0.48413703 0.34365037 -0.60012835 0.17130417 -0.44264653 -0.32988548 -0.025380995 0.7506715 -1.3025576 0.04231 0.030818015 -0.3394499 0.8391678 0.58407485 1.5139563 -0.82819164 -0.4971469 -0.8307293 0.74229956 0.38542446 -0.5050619 -1.5730715 -0.014364175 -0.70704186 -1.6366106 1.426056 -0.7745407 0.18726584 0.9694069 -0.24853148 1.9053553 0.098539054 -0.36460468 -0.0422347 2.0820374 0.6034737 0.04200135 -0.8460488 -0.46926594 1.2074188 
0.031018514 0.6837441 0.01965677 1.2239906 0.9040167 -0.30424118 0.25173002 -0.4610194 1.374796 -0.64058954 0.2790331 0.9787233 0.21798995 0.33573624 -0.82423395 -1.0983756 0.4606073 -0.94361746 -0.87982047 0.8952787 -0.5254745 -1.2531153 -1.081826 -0.434756 -0.045064203 -0.35026458 -0.39496014 0.3992271 -0.34623152 0.05337579 0.20692627 -1.5126739 -0.3589832 -0.2073338 0.86182255 -0.6563107 0.43431455 -0.34003025 -1.0889863 0.95111376 -0.21276675 -0.19042066 1.5223781 0.6277227 1.607239 0.56943446 -0.12994093 -0.63309497 0.8897315 0.59748495 1.139116 0.18694468 -1.4760566 0.1377583 -1.698113 0.6494141 -0.8257488 -0.14445087 0.3656685 0.1308964 1.7539148 -0.0322935 0.16316812 -0.48773018 -0.609093 -1.1291438 -1.9703703 1.0047947 1.2579186 -1.1409318 -1.4239721 0.57823306 0.33394223 0.042687096 -0.33422124 -0.16617608 2.2908828 0.20737922 -0.9380361 0.21150424 -1.7247856 0.9145068 -1.9580138 -0.65556103 0.11479034 1.1755024 -0.7916838 1.2261841 1.4134754 -0.091435455 -0.802839 -1.1329358 -0.2888667 -0.4963409 -1.3776044 0.19220622 0.7805789 0.8114154 0.31316176 -0.5433028 
0.48924968 -0.68108773 -1.9651978 -0.4737928 -0.5010727 0.89028573 -0.21981958 -1.579877 -1.0247686 0.071580805 0.28207663 -0.6644836 0.7554934 -1.0783674 2.1016617 -0.8307164 1.590069 -0.5001407 0.41361094 -0.5808632 0.015580121 0.6938192 1.4836723 -0.6882013 0.00095687667 -0.57659537 0.5329132 -0.12749663 -0.09855978 0.91446704 0.31786698 -0.4398143 -1.4677958 -0.08368036 -1.8045822 0.9048443 -1.253736 0.6996899 -0.11894617 -1.4020637 -1.3540404 -1.1004044 -1.0117666 -0.02035145 0.14103554 0.8582224 -0.6935807 -1.3304677 -0.55427253 0.1322107 1.0127647 -1.189619 -0.2998888 -0.013775015 -0.18836129 0.52027106 0.27360556 2.216711 0.7967489 -0.04409091 -0.09830232 2.1775343 -0.26798302 -1.0714246 0.85522187 0.771859 -2.5604439 0.2800585 -0.4973677 -1.0414451 0.4315479 0.98862225 -0.60865146 -0.5947294 -0.70235515 -0.40395632 -0.17275964 -0.21749099 -0.7375766 -0.018349389 -1.0245125 -0.5333798 -0.83360696 -0.07439207 1.5083041 0.5298142 -1.652295 -0.4149124 0.095932305 -0.5629675 -0.011904452 0.50632113 0.5137157 -0.30110866 0.059203893 -0.489077 0.9950492 0.7514078 -1.1177319 0.49756384 
0.3616772 -0.16730523 -0.15416999 0.12717257 0.056545418 0.4288347 -1.0070822 0.1332389 -0.19855215 -0.34253308 -1.2553146 -0.57721627 0.20976102 -0.1796091 -0.03512933 1.1017579 -0.7337215 0.3425211 1.0711192 -0.4013861 0.19086477 0.3489044 1.7473642 -0.9347474 0.9526697 -0.1399052 -1.4114457 0.96259356 0.3122163 1.0571908 1.2157425 -0.17369108 -1.2282491 0.17668712 1.6707783 0.8959561 -1.7760199 -0.6913736 1.8011715 -0.95073444 -0.49013865 0.76145536 0.57118493 -0.5121226 0.48820046 -1.4487655 -0.23719977 -1.4651519 -0.87669337 -0.77540606 0.60686433 0.22471818 -1.3451943 -1.136871 0.014769879 -0.9395553 0.79424953 -0.034063663 -1.2325586 -0.6273846 -0.11353261 -1.8036463 0.1914204 0.43814385 -0.9022893 1.1871591 -0.08856889 0.8423509 0.47519776 -0.21694599 -1.6106083 -0.21605158 -0.4311115 -1.9040496 -1.0541714 -0.07414635 -0.45855427 0.7101603 0.39908805 -0.539303 -0.31041956 -1.5355369 -0.56339866 0.7081472 1.5009142 0.06461126 0.18853122 -0.98623985 -0.7470865 -0.5293088 0.6018339 0.5047241 -0.9296855 -2.31311 0.36253214 -1.0148185 -0.81782293 1.7282804 0.27635872 0.54198456 
-1.0103413 2.6326587 0.92615837 0.7870691 -0.33903167 -0.9882255 -0.5431568 1.2292626 -0.93335783 -1.2805686 0.19340284 -0.8172208 -0.6903899 0.44892594 -0.18868239 1.2673888 -1.8148828 -0.21406859 -0.161467 -0.5620107 0.008823998 0.06357587 0.02111165 2.5774884 0.8426559 1.5889481 1.6750419 0.5946296 0.046385985 -0.86606985 -0.6715554 -0.5111752 2.0572903 0.4469842 -0.2596069 0.1387444 0.27292854 0.42128232 1.1760437 -0.09398602 1.0717632 0.12739763 -0.08302269 -1.0490588 0.47247127 1.0552031 -0.2012171 -0.24470133 -0.4831411 0.4607885 -0.22957174 -0.2123812 1.2584478 -0.13529614 0.6387068 -1.0090638 -0.5077582 -1.3579426 -0.4421886 -1.1591527 -0.67895335 1.1903776 1.5133586 0.43210095 -0.10292173 -0.6442899 0.25556472 0.07483695 -1.544888 -0.36281392 0.77264404 0.2045745 0.23854646 -0.14967059 0.07611485 -0.40886712 -0.19291826 -0.8007368 0.10293743 0.34136692 0.6043853 0.90550053 -0.7065126 -1.5338982 -0.42870224 -0.27509975 0.0703969 0.9051838 -0.5555511 -1.9170766 0.49936485 -0.517492 0.19742559 -0.20719463 1.3384805 0.026157897 -0.0502735 0.29769272 0.0021419981 1.1928575 
-0.86489826 0.480068 0.12630166 -0.59628916 -0.3442686 0.17951693 -0.28243935 -1.5976896 0.68938965 -0.870622 -1.7418821 2.049511 -0.74911547 -1.208106 -0.4866875 -0.8074399 -0.63497674 -0.8373438 -0.07228173 -0.881165 0.0274348 0.64940464 0.6081093 0.03955531 1.3171536 -1.9899471 -0.24119923 -0.15704603 1.2200768 -1.6851488 1.291556 -0.6805596 -0.64258736 0.49257 -0.13286684 0.35286573 0.12283856 -0.60205597 1.2726002 -0.17915475 -0.8796281 1.0425345 -0.76079863 1.2562593 0.085619226 -0.79870206 0.58057326 -0.22092982 -0.3243383 0.08721634 1.4381956 -2.3997898 -1.7722021 -1.3845655 -0.73115265 -1.4898807 1.3314683 0.8062951 0.69694424 -0.34313244 -1.4384389 -1.5078635 0.3562382 0.42708722 -0.65304995 1.0167643 0.6263 0.20655338 -0.8766396 0.5617747 -0.33489284 -0.3207113 -2.1745934 0.5720365 0.69308305 -3.0537696 0.1232197 -0.083892785 -0.3044306 0.9039964 0.39229155 -0.7371154 1.7053535 0.3955942 1.5529478 -0.015337016 1.21849 0.8667696 -0.72238624 -0.005667276 0.58394897 -0.80253625 -0.36280945 1.9740806 -1.1378922 0.01935036 -0.6673064 -1.4978656 0.74119455 1.4113325 
0.7611769 -1.1153243 -1.0103083 -1.1108098 0.48314625 0.44282994 -0.85221225 -0.77925414 0.8496679 0.349417 -0.022530949 0.10869703 -0.08001521 0.96219033 -0.6343134 0.08868731 0.7900317 -0.12166939 -1.7100468 -0.7168619 0.3134597 0.04550513 -0.35889688 -0.23801422 0.945675 0.4370484 0.9904711 -0.049278017 -0.6861855 -0.5049816 -1.2092823 -0.09985136 -0.7082227 -0.26230508 1.2564161 1.3323885 1.2923079 -0.13737322 1.0904531 -0.560623 0.89405686 -0.75538075 -1.0711662 0.56722313 0.85041744 -0.2841525 1.4743587 -0.5350122 -0.85398203 0.9542153 0.20844303 -0.9221317 -1.7565348 1.2593149 1.8917319 -0.742674 -1.084894 0.298304 -0.093343884 -0.6406526 0.015819501 0.08651955 -0.097414695 0.10141745 0.95689577 -0.69955474 -0.02702527 -1.5390055 0.33978862 -0.31712544 -0.7499885 0.53027844 -0.85594267 0.47444013 0.22656237 -0.31515527 -0.11530971 0.3371271 -0.46744958 -1.1422492 -0.5389268 1.321905 -0.26859152 -0.078617305 1.5542641 0.829319 0.92805815 -0.6065049 -2.0420897 0.088069275 -1.3302326 -0.21965419 -0.6530449 2.0064654 0.09686657 -0.9892363 0.54986346 -1.8676428 0.41049173 -0.33170694 
-0.42408407 -1.383335 -1.1980035 -0.43061697 -0.6699019 0.6668079 1.1560715 -0.76772493 -0.9062702 0.19464415 -0.74491185 -0.23349033 -0.330211 -1.1793678 0.2119449 0.20620327 -2.3868904 0.8006724 0.5875687 0.44916058 -0.46055135 0.59010917 -0.29032868 1.213021 -0.48290005 0.092116624 -0.95202184 0.9790565 0.15896977 -0.41747057 -0.151744 1.0762995 0.684192 -0.56511766 -0.46675637 0.37930474 -0.6812437 0.65128386 0.68652093 -0.53822494 -0.55663514 1.613205 -1.3918583 0.5578753 -0.26046234 -0.3557748 -0.5498424 -1.4528338 0.9674849 0.51645094 -1.6785754 1.6578925 0.40241995 -0.20214638 1.7714468 0.16517024 -0.23255304 1.1178911 0.51000714 0.7825565 0.56468725 -0.29540965 0.58369297 0.3147569 0.7185702 -0.48476946 -1.5729288 -0.21499954 0.6342176 0.98598486 -1.170053 -1.5020039 -0.4590919 0.64364886 -0.41256502 -0.25609234 -0.521096 -0.83385456 1.8513863 -1.1370239 -0.5195716 0.14909227 -1.5894053 0.32533747 1.1669289 0.31395683 0.73666376 -0.4637496 0.003248885 -0.643562 -0.7620527 -0.14996253 0.08284702 -0.094395295 -0.20691589 0.5382098 -0.04232156 0.04069788 -0.27067825 0.48677108 
0.62155575 0.2645586 -0.14093134 -0.15560216 0.6006108 0.87947476 0.31652564 1.1249548 -0.22663058 2.1704016 0.063818716 0.03548982 -0.5999849 0.0053240145 -0.970028 -0.38849694 -0.8429789 -0.8057727 -0.36867625 0.7218416 -0.01068363 0.9946015 -0.7683314 0.8502517 0.70359254 0.9525832 1.1634874 0.40926227 -1.1423113 -1.4934218 -0.54807574 0.31156614 0.63076085 -0.3819907 -0.34086287 -0.81491137 -2.1066153 -0.16860317 -0.5827028 0.27088052 -0.051102012 -0.085290134 -0.37397623 0.63476914 0.6053429 -0.36194062 -0.30229256 -1.9649212 -1.2822697 0.8195198 0.7014372 -0.43070158 -1.0793536 1.3941529 0.051045805 -0.32066798 -0.044944234 -0.34799856 0.491122 0.5156442 -1.3919256 -0.2571676 0.035487242 0.11585514 0.3258259 1.6517205 -1.2862977 -0.85509735 -0.55711275 -1.087752 0.9215937 1.5198905 -0.30342767 -0.5784505 -0.14076859 1.0253443 -0.02015972 0.06651572 0.04730606 -1.267485 -0.08073995 0.11855995 -1.0630693 1.2858354 0.13264692 0.39655787 2.0108306 0.33771166 1.5729684 0.85267615 1.3617909 -1.313803 -1.3677518 1.5542963 -0.6643319 1.8773882 -0.22387616 0.975575 -0.2601343 -0.08817626 
-0.60872173 -0.088571064 0.6191757 -1.4137787 0.08058422 -0.88150185 -2.830842 -0.13633402 -1.425955 0.5288713 -0.61304134 -0.61433077 -0.930794 0.3933585 -0.67489606 1.2014598 -0.32125425 0.19369079 -0.5805934 -0.14750871 -1.0680449 0.06960302 -1.5871292 -0.38162515 0.6521357 0.2258392 -0.7549652 -0.60441387 -0.1652727 -0.63749343 0.05199069 0.5278194 0.5089487 0.08466834 0.22401299 -1.2880929 -0.14113331 1.3652687 0.96421534 0.91962194 -1.6095461 0.25227574 1.1735903 -0.2641814 -0.10620448 0.969659 -1.7169192 0.79289293 0.7251279 0.35628548 -0.80316347 -0.8830642 0.72528654 0.7916216 -0.080460645 0.38562697 1.0686016 -0.3453543 -0.6911302 0.21624932 -1.4581362 0.93447757 -1.335821 -0.80588645 -0.048934944 1.225852 0.31900427 -0.035563003 -0.8687356 0.3673209 2.3518443 -0.8228226 0.48477396 -0.14748536 -0.08936647 -0.4458011 0.20460819 -0.40048987 -0.5065111 0.31629667 0.21324909 -0.15407932 0.8059354 -0.08200915 -0.43637097 -0.43814567 -0.048476703 -0.2147939 -0.9125566 -0.25407374 0.23760383 0.87899595 -0.21470481 -1.0013701 -1.4972337 -0.23112495 -0.06481139 -0.5110558 -1.2617465 -0.44046378 
-0.056275018 -1.2882668 1.2556866 -0.5137574 0.19793947 -0.13092595 0.9102085 -0.5124564 -0.23855636 -1.5296022 0.9760355 2.0697894 0.48676485 -1.2133003 0.6633008 0.049756076 -0.08699514 -1.6298405 1.3607563 -1.297654 0.7257906 -0.06496242 -0.8347135 -1.9078264 -0.14374176 0.03533796 1.2918792 -1.2712699 -0.055021897 0.5850112 0.30375835 -0.32108033 -0.43740252 0.88680905 0.9392793 1.7099124 0.31352937 -1.5399137 0.2568053 1.8368282 1.1634339 1.3077713 1.1176627 0.41995808 -0.19912165 -1.4220432 0.3999099 0.4651239 0.6744934 -0.9237099 -0.9528343 1.4424293 -1.1345974 -0.07117659 0.3219232 -0.6655939 -0.39413607 -0.45958462 -0.63767207 -0.19050442 0.0042156354 0.19478764 0.40783232 -0.24243365 -0.14984034 0.07006005 -2.1948023 1.8673565 -0.21859518 1.1797397 0.0425823 -0.14184041 -0.6321831 0.68441206 1.9543666 0.016856225 0.3528943 -0.02298141 -0.107077725 -0.34158674 -0.98637885 1.127118 -0.43156543 -1.8008006 -0.75870246 -1.3323156 -0.19461848 0.2749124 0.32549623 0.31386098 0.15454239 0.06629243 -0.46912658 -0.43635836 0.17729616 -1.8812559 0.9208877 -0.84122616 0.36105257 -0.15088749 
1.054198 -0.49938524 -0.2590317 -0.3537139 -0.780847 -0.8148521 -0.8022893 -1.125762 -0.5485414 -0.31547806 -0.6684509 2.36134 0.007889575 0.71829534 -0.06101103 -0.43245012 2.0370455 -1.4556913 0.19601661 -0.22073053 0.23055871 1.1689686 0.3812386 -0.40476346 0.76185185 1.5847267 -1.5472684 -0.6059454 1.3684664 -0.49747232 2.090381 1.4406215 1.2694386 0.19075881 -0.57464164 -0.646978 0.037730884 0.48525885 0.8266688 -0.05286449 -0.9110138 0.5944333 1.0714726 -0.16857769 0.88711387 -1.5523348 -0.4235599 0.30469972 0.41399997 -1.4538553 0.6550567 -1.1037115 0.9727966 0.5739372 -1.2170328 1.1311604 1.3399165 -0.39905325 -1.3400915 -0.21983825 1.0580152 -1.2676189 -1.7538166 0.13757962 0.07428045 -0.77338934 -0.4012718 1.3766717 0.18814616 -0.16888358 -2.908204 -0.44362697 -0.7069033 1.188939 1.1422732 1.2075973 0.838482 -0.017181382 -0.19367154 0.49769583 -1.2049613 -0.39602703 0.6103381 -0.9471186 1.9683919 -0.19882852 0.37506178 -0.8328868 -0.011806268 1.265636 0.6831775 0.3680525 1.1472663 1.673347 -1.0097903 -0.28432408 -0.11347693 2.406991 -1.0827574 -0.3715367 
1.4835091 -1.5320408 0.5185769 -1.4768178 0.25832927 -0.09986458 -0.057965595 -1.1782645 -0.31340066 -1.8735062 -0.069506265 -0.9757214 -0.34136757 0.3594893 -0.53519255 0.004826448 1.1505892 -0.99166214 -0.2804502 -0.5222155 -1.2476494 0.3213013 0.28640625 0.23731722 0.25739923 0.019418472 -1.0807521 0.25883615 -0.42902625 0.54639304 -0.49043077 0.68709224 -0.36456123 1.1359564 0.35663432 -0.39198616 0.03759411 0.47834787 0.49945205 0.5274885 -0.69571215 -0.3568145 -0.6987827 -0.07830873 -2.0628948 1.7920604 1.1792884 0.026378747 0.012707323 -0.4108376 0.08978195 0.39626038 0.41950065 -0.37439692 -0.2683303 0.88787246 -0.4585004 -0.496548 -0.8109414 -0.1297859 -1.0711963 -1.3001642 0.47389027 1.5638887 0.7870338 0.5151507 -0.5692397 0.67647934 -0.36439845 -0.57630223 0.6286877 -0.20264612 -2.325333 1.8691175 1.7852623 0.2682571 0.71471107 -0.5365625 -0.27865368 -0.36424965 -0.11987918 1.5706973 0.8913988 -0.21571906 -0.104871236 1.3362303 1.6113845 -0.90343577 -0.8903629 0.42058688 1.2636613 0.14950559 0.071120806 -1.2041925 -0.01710527 -0.6319211 -0.051565383 -1.2811224 -1.0989099 0.86354804 
1.413409 -1.3940669 -2.8533 0.34964725 0.31028786 -1.3320875 -1.2518791 0.52564514 -0.6317873 0.72271776 0.6088292 0.1972129 0.34438115 -1.1527961 -1.7498236 0.6145965 1.1902931 0.36986524 -0.6280702 -0.8728698 -0.60568166 0.40222356 -0.21158284 -0.13546903 -1.0258615 0.5862542 0.77048886 0.79029155 -0.24433936 -0.020978294 -1.7418834 -0.114921175 -0.20576093 0.61757374 -0.39483672 -0.5012041 -0.9984998 0.11245208 0.6208397 -0.55859274 0.10759775 0.5534091 0.93765247 -0.23288566 0.15225515 -0.9370376 0.043424614 0.91987044 -1.3826358 -0.17163585 1.1073995 -0.169385 -0.10799088 -0.54434216 0.12455773 -0.8502038 -0.5164 0.9600729 -0.7309406 0.024315638 -0.6628091 -0.6412791 0.015844872 1.7192929 -0.5251586 0.2609192 -0.77218515 -0.2817018 0.7328452 0.09111191 1.4093913 -0.31286 -0.82396126 1.2356775 -0.61827457 1.0027424 -0.2959379 0.048535053 -0.17856012 0.4302353 -0.6684992 0.6656236 -1.1306422 -1.6561294 -1.1038135 1.1800276 0.144431 1.0215036 0.5877063 -1.4100299 -0.11796157 1.6603541 0.079169 0.80888563 1.2037011 -1.6522506 1.3260517 -0.17505126 -0.22829191 0.5196314 
0.17280023 -0.97849274 1.1432176 -0.5175286 -0.18753064 -1.2090417 -0.65826684 -0.47653964 0.26429144 4.233391 -0.065956704 -1.40607 1.4326789 -1.2669713 -1.6209575 -0.09216568 -1.4538461 0.21369313 0.49460813 0.71031547 -1.9919074 0.97945577 0.81386113 0.3230497 0.75677496 0.33825865 0.38939705 -0.61326224 0.6219815 -1.6490694 -0.7931863 0.600933 -0.4091268 -0.3436477 0.06424612 -0.09258661 0.06595312 -0.97838235 -1.8332075 -1.0305606 -0.21255794 -1.3236005 0.044379734 -0.77595764 0.33440283 0.090896405 -0.46992093 0.6480622 -1.8222429 1.9099813 -0.00079411 -0.41533476 -0.40056026 -1.2465874 -0.32601753 -0.9305964 0.88080955 -1.1025969 -1.8664937 0.45843792 1.0156282 0.12431731 0.5753778 1.3271412 -0.8217774 0.0621842 0.96132565 -0.5181149 0.53207004 -0.59166956 0.7300598 1.4983628 0.25753173 -0.8316319 1.831678 -0.8416654 0.5464374 0.7833238 0.44470465 -0.9491539 0.05064101 1.9512345 -1.0541401 0.61286324 -0.8541643 0.83755 -0.09437633 0.23004797 0.35115495 -1.1185323 0.21415026 -0.21416126 0.16016774 0.9261059 1.1242038 1.1084968 0.9282367 0.18031669 0.10371338 0.13775703 
-0.58643115 0.44165134 0.52424234 -0.19658634 0.67103404 0.09492785 0.5248625 0.36002594 0.8242987 -0.68856573 1.5677307 -0.8202294 0.35900372 0.41555408 -0.4458045 -2.081314 0.20088138 0.54369706 -1.0156215 -0.5161137 -0.42550647 0.20380735 -0.4056295 2.1797767 0.19254749 -0.76251 1.2439626 1.0656431 -1.4816641 0.94333315 0.8729309 -1.2341875 0.55624557 -0.7173904 0.22570597 -0.58018255 0.33903968 3.1216285 -0.045464404 1.4134004 -1.6045928 1.326391 -0.1647187 -0.6324291 0.29854175 1.0444999 -0.5929496 -0.014832983 0.3352463 1.2101958 0.43433502 1.1960012 0.79233044 -0.22316247 -0.9041149 2.133967 -0.21967019 1.7896986 -2.2096953 0.9809628 -0.35987222 0.7421109 1.3974525 0.612036 -0.29631215 0.7107815 1.5227648 -0.48054978 1.167732 -0.37589213 -1.9467276 -0.67272156 0.48587027 0.4744792 1.467815 -0.56537634 1.3377372 0.27217638 1.5641634 -0.83938193 0.7238653 0.47615603 0.36017948 -1.3776194 -0.64368623 0.5957116 2.0686653 -0.82726246 1.2658522 0.78894335 0.65967596 0.16999802 1.2227166 0.6111317 1.3416024 1.6093057 1.5523344 1.294265 -0.4717575 -0.2538756 
0.29925352 -0.17101565 -0.029084736 -0.40919355 -0.26933593 0.8036041 1.6213821 0.16593444 -1.1084968 1.3085473 0.79954356 0.6520069 -0.40636802 -1.8028184 -0.5351083 -0.001359535 0.5075082 0.21835417 -0.083039045 0.6940231 1.3350514 0.15464352 0.7596426 0.2529736 0.61389184 -1.6996918 0.76428336 0.3946434 -0.8619646 -0.4032885 -0.14806357 -0.99375474 -0.1874887 -0.78710854 -0.16418095 0.9487195 -0.5682435 0.28495818 -0.47294304 0.17231108 0.32460454 -0.9597758 -1.0865955 -0.72167414 0.09759965 0.28934324 0.47054967 -0.12825504 -0.26774785 -0.12918137 0.11020881 -0.4255406 1.1334673 0.20834185 -0.34859726 -0.476705 0.6104156 0.03207135 1.5549119 0.034402832 0.20740685 -0.63108915 -0.48618108 0.38055733 0.54684734 -0.24694483 0.6474016 -1.2444137 -0.27774218 -0.08388904 1.091772 0.8295678 0.2730332 0.1019725 0.85411805 0.23642819 -0.5752728 1.2225665 -0.092343785 0.0031023729 -0.28871763 -0.023755616 -0.8511037 0.8922655 -0.33917418 -0.040887672 -0.32931203 0.24736409 0.60481364 -1.0391922 0.54886997 -2.0701575 0.54762554 -1.4101607 -0.9502184 -0.3204039 0.0378944 -0.9133539 0.92521954 -1.2006291 
0.4038551 -0.5906986 -0.7911302 -1.9960887 0.6556994 1.0086565 -1.0703416 1.5715146 0.9389312 -0.52797604 -0.118576676 -0.5273514 0.6130182 0.30576786 -0.95278984 0.63049567 -0.59673744 0.25835362 -1.8777933 0.9248638 0.18374941 1.1268698 -0.38179424 0.2742192 -0.12344856 0.9155621 -0.7137953 -0.847934 -0.15196292 -0.6599508 -0.76259094 -0.07824266 1.9539082 -0.98430943 1.4221994 1.2497617 1.1586517 2.7089174 0.04490568 0.011837245 0.2582053 -0.070959255 1.0090954 -0.73673207 -0.27381027 -0.8149862 -0.19778292 1.3081043 -0.33889282 0.8632794 0.7332014 1.3865215 0.96791583 -1.0279741 -0.07984559 2.7279866 -0.68250906 -1.005989 -1.1883053 -0.7568895 -1.3051957 0.2414758 -0.44636443 1.6052169 -0.39384943 0.10891582 -0.21628314 -1.9776535 0.8813988 -0.105974935 0.5216844 -0.2983186 -0.29249665 0.5515565 -1.0856762 0.79135084 -0.85429287 0.026290784 0.33698598 0.11542091 1.6902831 -1.154762 0.7973356 2.6323924 -1.466838 -0.024224645 2.2174358 0.41940975 1.4996963 -0.02637387 -1.201172 1.1752408 -0.3272858 -0.008036191 -0.5538987 0.8073182 0.52991647 0.40301558 -0.17719422 0.37156948 
-1.306242 -0.073998295 0.123861 0.5700084 0.78713155 0.8938828 -0.0797633 0.6630082 -0.37218186 0.49727347 1.887645 -0.1873334 -0.39947876 -0.77935374 -0.27290097 0.0649261 -0.19126192 0.034741834 -1.0950633 1.1906403 0.04083849 -0.06443077 0.3791662 1.070128 0.5299449 0.018263966 0.99058324 0.7717865 -0.64914274 0.2938648 0.78060365 1.2075706 0.48780236 -1.66149 -0.59972286 -0.45588243 -0.99952775 0.13244674 0.07572186 0.51920015 0.53292453 1.2275294 -1.4292877 0.594268 0.6931119 -0.7499154 -1.3341074 -1.2048925 -0.5604139 0.37148362 -0.6289832 -0.11939757 0.5358081 -0.23614407 0.8095603 -0.06374853 0.5113204 -0.2979426 1.27607 -0.6955133 0.6771961 0.56195426 -0.032622553 -0.1689096 -1.103784 -1.2186335 0.066327825 -1.4351852 -0.55152357 -1.2343273 -0.05255515 0.2577388 0.9255379 -0.8267077 -0.95279855 0.285854 -0.43705958 0.33535197 -0.4581215 0.45988762 -0.96403784 -0.34821177 0.49006465 -0.34830073 -0.5799178 1.5504812 0.68564796 2.185335 -0.08514835 0.2806528 -0.8243529 0.3327854 0.57941985 -0.407745 -1.4920866 1.4186662 -0.19742401 0.14622775 -0.40292335 0.8051133 
-1.7316755 1.030698 0.06921389 0.37835997 1.5164719 -0.3348669 -1.208044 1.1720357 1.1496936 -1.1770033 -0.1790914 0.12913707 0.9588288 1.7250413 0.6065812 0.2484418 0.5211767 -0.32270545 -0.16398907 0.6578661 -0.26076868 -0.2500062 1.7655112 1.3197163 -0.05782703 1.4032435 0.26037517 -0.040429942 -0.6669138 -0.3626604 -1.7988253 -1.3264003 0.48592022 0.111033864 2.0031855 -0.08413073 -0.37993515 -0.19139645 -0.73832947 -0.14843804 -0.074079305 0.30619705 1.2337142 -1.6812812 -1.9312104 -0.39456105 -0.44476682 -0.2888819 0.46075484 0.066885486 1.3149313 -1.6735603 -0.2305894 0.56943554 0.79760003 -0.3634537 -0.5782667 0.6584926 -1.066578 -2.0797756 0.06772333 0.20172167 0.21464364 -0.66464186 -0.048716225 -0.8259357 -0.81002194 1.760445 0.15007861 0.2303852 0.019996746 0.8899419 1.0585313 -0.99269474 -0.22836064 0.8265396 0.004512601 -0.697239 0.21249695 0.29752535 -0.68651575 0.39366952 -1.2046782 -0.15532036 0.08894485 -0.5570871 0.4599796 1.250757 0.49500605 0.509391 -1.265455 -0.6102676 0.32426003 -1.6936337 0.14447235 -1.7942823 0.25967216 -2.3780391 0.46155924 0.39199764 
1.9481664 1.3542683 -0.8673693 2.38076 -0.6034161 2.234583 -0.21981104 -0.26152268 -1.3374954 -0.8638406 -0.8095898 -0.41063535 -0.7544985 1.0262691 0.22882539 1.6961675 1.2432729 0.2414833 -0.97022057 0.40643784 1.2201099 0.8538892 0.5678391 -0.97439307 0.41575995 -0.5966179 1.5152726 -0.7281696 -2.8168864 -1.3751493 -0.33751193 0.23375705 0.24127445 0.34475076 1.9855193 0.74500763 -1.4057524 -1.0194459 -0.84950924 0.996854 2.2814438 0.26441723 -0.1739036 0.840204 0.1438485 0.5163865 0.27606896 -0.4324713 1.5729995 -0.28164345 2.0608816 1.0392905 -0.33712062 0.04815227 -0.9031503 -1.1496539 -1.1173098 -0.8471572 0.89884734 -0.07181846 -0.42229795 -0.6749371 -1.2484753 -0.7210243 0.24165466 0.3393979 -0.7654897 0.21782519 0.88305336 -0.29333663 1.7884853 0.4843988 0.105283804 1.1279461 0.685763 1.5031594 0.8976565 -1.1902955 -1.4583343 0.0069058365 0.48516333 0.0589136 -0.92174 1.6666778 1.0419588 -0.24440853 -1.4032357 -1.0433024 0.39832112 0.26936176 0.6709342 0.466874 0.76706177 -0.1957856 -2.5483356 0.32710895 -0.06668008 -1.1906937 -0.27096894 -0.37876448 
0.55756617 0.9930917 0.16104543 0.767494 0.4797973 0.7650905 1.5297122 -0.7044892 -0.066648155 0.9829918 -0.04501171 0.25626382 0.65879995 -2.3750143 0.94062865 1.884655 -0.33149472 0.84395623 0.29850942 0.10296065 0.7606189 -0.7369008 0.85253215 -1.8392043 -0.82493985 -0.2514702 0.6224479 -1.9603356 -0.63185835 -0.8600349 -0.16795681 0.75647914 0.02498546 1.4956366 -1.0446086 1.74064 -1.428163 -2.5165071 -1.4536701 1.5476236 0.06439861 -0.17679878 -0.22961801 -2.1045787 1.6795303 -0.059538953 1.6538378 0.17021184 -0.706703 -1.023739 -0.14415956 0.9872072 -0.82332397 -0.83347255 -0.5908194 -1.081776 0.7629448 -1.3993688 0.06779255 -0.051027976 0.72266287 -0.35073677 0.042213604 0.8085581 0.83003706 0.52661854 -0.6225207 1.5452707 2.0316038 0.45075586 -0.27103725 1.1694789 -0.45030645 0.38031465 -0.9310507 0.61965543 0.434942 0.6131422 -1.2556672 -0.26789188 -1.7978866 -0.3288886 0.13429728 0.82745504 0.50005543 -1.9203874 -1.3270226 -0.87119466 0.42742676 -0.7049792 -0.99766135 1.1595743 -0.6746993 0.44077584 -0.18890548 -1.9636507 -0.23145634 -0.78136504 -1.2995898 0.04361058 
0.043066885 0.35501468 -0.4416606 1.3525586 0.38812107 -0.4698476 1.1271741 -0.40674102 -0.92387027 -1.4723843 -1.202849 0.10771445 0.3670971 0.7970736 -1.1498559 0.056708235 0.5044415 -0.8007172 -0.9237008 0.45742956 0.24302101 0.14155881 0.91865695 -0.43766445 0.23615006 0.5039815 -0.29978436 0.97486895 -0.6944734 -1.6907198 -0.39142045 0.47345394 -0.26218843 -0.28368637 -0.5233657 -1.1073498 -1.2211984 -0.637556 -0.6745144 1.3978418 -0.4923009 1.5379301 -0.6679261 0.6237988 0.75546914 1.4521681 0.5936501 0.39160335 -0.31136096 0.10735652 1.734988 0.10945839 -0.34307685 0.2338982 -0.042492487 0.092387594 -0.07672606 0.32505205 -0.98299146 -0.07249413 0.12023802 -0.532354 0.011906492 1.0121144 -0.47188944 -0.29263818 0.5318092 -0.07661037 -1.3009465 -1.0808842 0.102552295 -0.7249589 0.4504577 -1.767399 -1.0139225 0.49170068 -1.0021217 -0.7616567 0.39669427 -1.0736388 0.72046566 -0.63737553 -0.29108003 -0.5793275 -1.1452129 -0.53348047 0.2783274 0.12064451 0.88858825 -0.33740148 0.38800842 0.2919712 -0.2352648 0.28549543 0.85067546 1.113891 -0.19564617 0.79255694 -0.2609232 -0.30850333 
-0.5824277 -0.22743385 0.5505005 -0.9878548 1.105274 0.08284024 0.7267337 -1.2862767 0.56021714 -0.70079577 0.4027573 -0.722428 -0.33058873 -0.4030729 0.06984005 0.017261334 0.39842173 1.6271279 -1.2183601 0.9202527 1.343243 0.5398833 -1.2189747 -0.76462364 0.31987518 -0.49561802 -1.5911587 -1.0981705 -0.04254757 0.18818301 -0.55114317 -0.012772879 0.49674463 0.54608744 -0.041336004 -0.31307653 1.3380765 1.0108796 0.61142755 -0.56044775 -1.0678186 -0.5771721 -0.058630094 -0.21970463 -0.5462446 -0.45280555 -0.48627657 -0.521718 0.9063762 1.234787 0.062399626 -0.32795686 -0.33403316 -0.7913039 0.3250145 -0.15002106 -0.15455945 -0.9056674 0.35278946 0.44659337 -0.5935613 0.3094155 -0.74662143 0.6877583 -0.36444774 -0.9484252 -3.08696 0.6000701 1.3271278 -0.564238 0.11295293 -0.27535924 0.086061426 0.27515587 1.2646062 0.6174813 0.58059955 1.2272564 0.4686142 -0.38363126 2.324692 -0.30411458 -0.4681817 1.61512 -0.7782769 0.60563266 0.17381251 -0.660916 0.40156826 0.09301829 -0.20108242 -1.0479152 0.15959501 -1.9843495 0.6155932 -0.2833292 0.05212745 -0.6687909 -0.23688856 -0.8779985 
1.4992015 -0.28540376 0.9180639 0.61231 0.95444024 -0.21576676 1.7149734 1.2001286 0.4635253 0.61253804 0.2961439 -1.3030605 -0.6727008 -0.07106971 -0.80885834 -0.62718153 0.60649973 0.4876522 0.5946947 -1.0141896 0.7689291 -0.055864796 0.78798544 -0.645385 0.033052087 -0.2709533 -0.98341954 1.3575342 0.9019482 -0.5715271 -0.46455753 -1.0850799 1.3646834 -0.58972913 -0.7466581 -0.30227366 0.90194595 1.5830688 -1.9026016 1.0944111 0.24007554 -0.77088183 -0.6576803 0.3394654 -0.9191206 0.42338875 1.3176688 0.5834661 -0.8575286 1.1598556 0.16843145 0.85515517 0.72703344 0.048669722 -0.611049 -0.2791071 -1.791282 0.34594172 0.09067675 -0.44399416 0.74243414 -0.006717733 0.432456 2.5978835 -0.41307214 -1.5749532 0.20663026 0.11092968 0.24313058 -0.23611075 0.7883125 -0.058356818 1.0769998 1.02519 -1.5152642 0.5112319 -0.13283998 1.0596471 -0.26168096 -2.12025 -1.8261412 0.6752821 -1.274066 -0.15680109 0.020953892 0.88962483 -0.5023966 1.5559646 0.7896341 -0.073706 0.55452937 -1.1202859 -0.50208384 0.9523096 0.30478022 0.56304455 -0.81460816 1.0101293 1.4431144 0.75695956 
0.5633557 -0.17625366 0.7906064 0.7162375 1.6495612 -2.4170966 -0.22488691 -0.5722646 -0.04821532 0.4515652 0.06959812 -1.0981073 -1.0660093 0.116653636 0.09059546 0.58738333 -0.32188895 -0.46769077 0.7995738 -0.09369671 -1.1926537 0.46307006 -0.16974068 0.24902043 0.572198 1.1149968 0.22610174 -0.98159415 -0.24309222 -1.0997334 -0.095156915 -0.06082088 0.4126943 0.09657923 0.31764144 -0.15271638 0.99500525 1.100882 -1.647827 0.89788985 -1.0164461 0.53406143 -1.4311174 -0.70973885 1.146128 0.8454194 0.10832129 -0.18012562 1.3250666 0.040818624 -1.1006396 1.3077247 0.18844892 -0.13526787 0.26507118 -0.3365108 -0.9611413 0.9112293 -0.20413557 -1.2694222 0.11418932 0.84811836 -0.5359647 -0.038021453 -1.0440112 -1.0772245 0.92259985 -0.74463296 0.55381095 0.59706193 -1.6384368 1.0318074 0.29479992 0.53856575 0.14996764 0.43179044 -1.5691456 -0.02282389 0.4320583 -0.32614255 0.6933517 -1.1006178 -0.8430026 1.1218064 0.09583629 0.29666784 -0.097446755 0.9487045 0.8378259 0.48499244 -0.53146744 0.92015475 -0.2160671 0.329196 -0.9388342 0.15446056 -0.57777965 0.35874373 -0.6437991 0.525509 
0.04870206 0.4706048 0.017068354 -0.8116611 0.18463422 -0.06827105 1.8760445 -1.1624495 -0.10866592 -0.28339297 0.5983799 0.70586103 0.1817823 -0.116715714 0.4964557 1.78452 0.2244219 1.9734508 -1.6849917 -1.1979667 0.7345493 -1.2177371 0.51313275 -0.33184257 0.41605198 -0.84113216 -1.3959316 -0.17708586 0.097737804 0.08119525 0.2926086 -0.8036764 -0.20842849 0.6383374 -1.0002953 -0.084706426 1.5223099 -1.0138639 0.2151484 -0.27182892 -0.57188994 -0.94702715 -0.10794184 0.22821407 0.7575479 0.19488099 0.50811714 -0.110623516 0.33460054 -0.2777348 -1.2868034 -0.21127988 -1.5264113 0.8115705 -1.1633025 0.9811888 0.08168028 1.4538904 -0.47465032 -0.9668872 0.61517495 0.9619522 -1.6490235 -0.36942106 -0.5347151 1.0069194 -1.4404798 -1.4096375 0.09486314 -0.5942443 -0.10184964 0.25057173 0.22196269 1.1061765 -1.7413673 0.5043039 -1.0302993 0.089102164 -0.39779833 -0.12025935 -0.71306294 -0.20683393 -0.2820897 0.09495029 0.47179794 0.601792 2.223033 0.2407779 0.02742152 -0.020520274 -1.5516884 -0.055873998 1.219695 -1.307066 -0.7489275 -0.6497495 1.3235646 -0.2734529 -0.94021434 1.5710688 
-0.64260566 -0.3584513 -1.1673676 0.42600873 -0.57646406 -0.93051004 -1.504952 2.3074684 0.46541128 -0.12364567 0.6316086 0.052106794 -1.2162066 -0.4510982 -1.0855895 -0.6366036 -0.5216573 0.00062135275 0.29112646 0.58780295 0.9908765 0.20169252 -0.51421726 -0.9107012 0.28230345 0.14249536 -1.0907618 -0.16805583 1.0326426 -0.21660408 0.31446537 0.14074533 0.5410434 0.60842156 -0.8066217 -0.51035357 -0.2019321 0.55391645 -1.4161341 -0.9403928 0.6653226 0.91076255 0.75248104 -0.22827776 0.75527644 -0.019843182 1.0692365 -0.14443517 -0.8313523 1.907439 0.47397545 -0.2522442 -0.22250961 -0.5046137 0.39800167 -1.7203999 -1.2409031 0.5823446 -0.7863029 -0.98738205 -0.003570023 0.42525163 -0.25828278 0.4109843 -0.60732454 0.5239349 0.3797036 -1.031963 -0.9765921 -0.11671417 -0.03140635 -0.039123084 0.49101043 -0.9216033 -0.5613927 0.46771738 -0.85047376 -0.8499626 0.53025204 0.03589443 0.44178846 -0.41118583 -0.26127544 1.2931955 -0.43178764 0.08686399 -0.6799976 2.0238929 -0.30475467 0.9213795 -0.5548056 -0.19902526 -1.0379512 0.2920925 -1.3615334 1.4604018 -0.793285 1.6696775 0.22393009 -0.3236317 
0.4513551 -0.45806494 -0.43560433 0.3760334 0.69021976 0.3464316 0.80932844 -0.3104812 0.1809032 -1.6761243 0.37488553 -0.5084213 -1.5916375 1.1021156 -0.1544016 0.50070053 0.1678293 1.460517 1.2238808 0.43705285 -1.0412447 0.7626499 -0.30605546 -2.0637052 -0.66652936 -0.11927675 1.4301116 -0.58253044 0.90821105 -2.2635708 1.1099058 0.54417086 0.11123952 -0.5248088 -1.1094111 -0.14580199 0.7672522 -0.15590976 -1.9091216 0.112796925 -0.25903174 0.2812174 -0.15958412 -0.620017 2.0802274 -0.23690721 -1.7329388 0.022129612 1.0787207 0.98540705 -1.4072943 -0.813822 -0.28465933 1.10654 -0.08187834 -0.6255259 2.3953063 1.4211733 -0.037535686 0.60657316 0.33158913 0.72974324 0.017655835 0.37012398 -0.9891043 -1.6307667 -0.8011271 -0.52268076 0.29077673 -0.77741534 0.22558063 1.408987 0.5098769 0.5446213 0.7155268 1.0017785 0.30830112 0.5596491 -0.30838287 -0.016566994 -0.26048195 -0.9165687 -0.8801962 1.6515353 -0.41977248 1.4295096 2.2820177 1.027252 -1.2834198 -0.0526169 -3.061606 0.3091957 0.64226604 1.7038502 -0.028172182 0.5716369 0.46275118 1.0230049 -0.8493557 2.2569544 
1.3250222 1.6003615 1.3339378 -0.8085168 1.6357815 -0.18487872 -0.6171534 1.7221426 0.5807168 -0.67570233 1.8614888 -1.0577312 -0.428491 1.5147451 3.3284338 -0.9028787 -0.91330826 0.9033872 -0.23011011 0.067132644 0.2498557 1.5217278 0.24151671 -1.5314054 1.8312633 0.6876709 0.65626186 1.1364503 0.132114 0.6245502 1.1285049 0.15035412 1.1952676 -0.6743055 -0.4046902 0.48623818 -0.7128835 0.31304076 0.7059158 0.7489282 0.24084553 0.6740551 -0.61428887 -0.5658401 -0.72314954 -1.3446819 0.24822998 0.7904904 1.5935892 0.7444221 -1.8566277 -0.5858554 -0.005713494 0.27416196 0.7963514 1.4270365 -1.3590955 -1.255101 -0.7024263 -1.3550112 -0.05837365 -0.6802419 1.2361401 0.41066816 -0.6194718 0.5342242 -1.4927378 -1.0597216 0.55843836 -0.54169184 1.3052114 2.0990303 0.25153098 -1.951065 0.041347515 0.085401304 0.43127486 -0.37295905 1.0035421 -0.6221575 -0.78865814 -0.5453966 0.23189785 -0.07115801 -0.3675218 1.2462256 0.81749815 2.079938 -0.85559946 -0.58315784 -0.5721468 1.3930023 1.5829868 1.6122514 -0.4365117 1.8254572 0.06514546 -0.6289811 -0.95830387 0.21972692 
