-0.39806643 -0.5305157 -0.3661178 -0.42801535 -0.36661693 -0.30402747 -0.34522882 -0.42299217 -0.20296153 -0.3892466
0.37199962 0.43080968 0.31031254 0.353566 0.38318774 0.3745841 0.37600002 0.12841536 0.4967045 0.34333444
0.08321129 0.37613118 0.8791675 0.7137623 0.106090926 -0.12941572 0.68478423 0.6059484 0.28253952 0.72678256
0.11975806 -0.24746193 -0.1646979 0.12455431 0.1402151 0.2774011 0.13964641 0.45120046 0.07392594 -0.27857903
0.3474498 0.19645593 0.327459 0.7403145 0.29580784 0.453883 0.46652657 0.59484 0.555977 0.09661098
0.14592701 0.22113878 0.197394 0.29687983 -0.16068149 -0.044318486 0.15151191 -0.2591662 0.3104784 0.54837215
-0.17890932 0.045180846 -0.009169178 -0.31483996 -0.047544923 -0.03024503 -0.3822771 -0.21953687 0.58883816 -0.030628026
-0.6679172 -0.36908773 0.5249506 -0.3160671 -0.6592709 -0.6663033 -0.03636335 -0.79132074 -0.09731982 0.32859337
-0.016284624 0.02886726 0.2603357 -0.104618736 0.018517826 -0.10271365 -0.06460462 -0.0054967296 0.6082039 0.5188701
0.14895253 0.15581132 0.19020183 0.019833576 0.17137422 0.16791375 0.12552017 0.12215413 0.04724518 0.14980252
0.10254507 0.14965907 0.047983143 0.010694625 0.08123101 -0.032679427 -0.033604585 0.14166027 0.0167002 0.11958318
-0.3364202 -0.52729714 -0.58535284 -0.38395086 -0.39727092 -0.28596956 -0.61333436 -0.10414693 -0.37853518 -0.32461694
-0.16962004 -0.049555898 -0.09381266 -0.07207663 -0.10367263 -0.4550933 -0.12428128 0.1612211 -0.19301915 -0.019708438
-0.10205306 -0.26701665 0.3065845 -0.02184593 -0.29915768 -0.10182654 -0.18648326 0.11912304 0.45269492 0.389883
0.41087118 -0.00269912 0.5962083 -0.30893636 0.30151606 0.69138116 0.18176472 0.13382056 0.9356661 0.34421784
0.52862316 0.5916903 0.30520186 0.5913063 0.61373365 0.45247748 0.66648054 0.7024779 0.5166363 0.30359855
-0.36805713 -0.3510901 -0.026063688 -0.29894945 -0.49303386 -0.5533807 -0.09137763 -0.2668504 -0.18993512 0.017256266
0.5519864 0.7139713 0.96838653 0.6739365 0.56420004 0.7358469 0.81504136 0.3147189 0.53029126 0.4064286
0.6221351 0.84550446 0.55779725 0.8326238 0.6285539 0.7561239 0.25134316 0.54104215 0.8043196 0.50829464
-0.3978743 -0.6073454 -0.31543928 -0.24087851 -0.7391495 -0.5285018 -0.20822406 -0.72664756 -0.16630517 0.010929139
-0.5031422 -0.48100775 -0.3175867 -0.3095345 -0.7944529 -0.41086778 -0.5207703 -0.7497808 0.014778922 -0.55661166
0.12055821 0.33169782 -0.044596568 0.009510343 0.29661867 0.26420453 -0.007318988 -0.115677096 0.13443762 -0.4681538
-0.16567932 -0.26993588 -0.10426548 -0.38563284 -0.18881406 -0.21246332 -0.16933553 -0.31121105 -0.15929718 -0.06937957
0.17130896 0.17996606 0.22497334 0.31763154 0.09102301 0.21016173 0.14546268 0.20245267 0.10645763 0.17708111
0.009172699 0.23294659 -0.68834305 -0.44525614 0.43331057 0.005317038 -0.4078592 -0.088484615 -0.26823726 -0.51407295
-0.606842 -0.0071511255 -0.29755697 0.009656859 -0.03392737 -0.78193724 -0.051584832 0.045292202 -0.5245134 0.18396343
0.3747999 0.2102653 0.28882432 0.26232353 0.38642576 0.7047989 0.14201576 0.23324421 0.6930847 0.08031089
-0.62813216 -0.4548226 -0.5961122 -0.6005086 -0.4592857 -0.44062048 -0.8180053 -0.40427524 -0.6652551 -0.67064214
-0.64073324 -1.1838467 -0.6346588 -0.57284415 -1.0143461 -0.46743447 -0.7174456 -0.5959367 -0.29676795 -0.61689705
-0.31381285 -0.35679612 -0.5113357 -0.717561 -0.047506347 -0.28787503 -0.3052001 -0.29145768 -0.72058797 -0.4127554
-0.23097894 -0.6170867 -0.3874397 -0.109123185 -0.92562956 -0.032170262 -0.28296164 -0.9793637 -0.11653536 -0.77272147
-0.39070153 -0.10709388 -0.47812107 -0.36525437 -0.3913366 -0.68459666 -0.73856986 -0.32086182 -0.52830386 -0.14988881
0.29435334 0.20204046 0.37134215 0.6761961 0.21434519 0.33787704 0.4499647 0.6486902 0.37842333 0.47708338
0.48979303 0.5931326 0.37904578 0.82296985 0.30092573 0.7125112 0.036828138 0.5110364 0.9488283 0.4434607
0.385398 1.2580789 0.45622933 0.62429225 1.0826564 0.1379793 0.64381886 0.57473356 0.27234972 0.6676421
0.053829867 0.18803133 -0.08350355 -0.032671306 0.25313845 -0.014982233 -0.1975298 0.10243223 0.13002703 0.018134717
-0.19206251 -0.09020351 -0.48030996 -0.10564807 0.15299407 0.015228209 -0.1599093 0.16875114 -0.30147865 -0.31694242
-0.21006945 -0.08173766 -0.06454842 -0.18812 -0.37858623 -0.10753118 -0.2334816 -0.516814 -0.10322774 -0.22805992
-0.40933034 0.31986728 -0.23331556 0.278817 -0.04277943 -0.08800814 -0.67102575 -0.1562568 0.17411612 -0.4185677
-0.15523377 -0.06796413 -0.24078923 -0.044761084 0.17562556 -0.14054005 -0.3098065 0.24036518 0.2032436 0.16242303
-0.4021252 -0.05731537 -0.25076327 0.30384824 -0.35089993 -0.4525158 -0.047430493 -0.09176817 -0.40140665 -0.37233424
-0.04725052 0.45647982 -0.13052845 0.18750632 0.34081596 0.05719173 0.17667414 0.021273978 -0.37497962 -0.4679195
-1.5593945 -1.747745 -1.5286409 -1.354532 -1.6086682 -1.4545102 -1.4225436 -1.2611141 -1.6351081 -1.6205572
-0.23533939 -0.2841439 -0.3261186 -0.3859279 -0.33191153 -0.116470166 -0.2822906 -0.6629714 -0.1466631 -0.7763548
-0.19052272 0.15397565 0.59803945 0.27212 -0.1954921 -0.76138 0.7664159 -0.3773414 -0.21871783 0.6218334
-0.5903935 0.3181506 -0.09506892 -0.27121446 -0.030019676 -0.575636 -0.11105613 -0.79831964 -0.32744125 -0.31312343
0.5364266 0.58436555 0.7185706 0.47382116 0.51458657 0.44866037 0.58417374 0.29268357 0.5335468 0.6260017
-0.0656476 -0.16846545 -0.14349052 -0.17933375 -0.13096067 -0.037256632 -0.024406955 -0.08022861 -0.03957201 -0.07274833
-0.34004876 -0.38798562 -0.1896631 0.031948365 -0.6848339 -0.2736106 -0.22891334 -0.34031177 0.046970036 -0.1703315
-0.2592145 -0.23985173 -0.3675876 -0.58959097 -0.07660471 -0.24836075 -0.26031333 -0.3098055 -0.3990365 -0.45975843