-1.1592469 -0.10206669 -0.26147047 -0.18674842 -0.17702651 1.1588402 -0.65133977 1.6790577 -0.1214974 -1.3497319 -0.34222108 0.4387195 1.146535 -0.40363947 1.6625493 0.91116524 -0.59579194 0.06863762 1.2376744 -0.4008238 0.32294592 1.6652281 -0.052479323 0.1022515 0.4274047 0.5483888 0.26038763 -0.10847267 0.04417904 0.8939354 -0.19205406 0.08893277 0.7471439 0.45320374 1.0806372 -0.5825333 0.022520488 -1.1486688 -0.9317147 -1.1885508 0.2879086 0.7501697 0.15988095 -0.8646273 -0.32995954 -1.0113609 -0.13107167 0.43611714 0.84237313 -0.9986596
0.06844565 0.025403945 -1.0345306 0.3162226 0.51311564 -0.3948479 0.89176226 0.222039 0.042331595 -0.3251116 0.77382475 0.053684022 -0.71071 -0.4918134 -0.29420483 0.15858588 -0.17532387 1.117379 -0.35485214 0.82760936 1.1117791 0.698452 -1.2637246 -0.3594971 0.8310629 -0.9355612 -0.87838477 -0.59844553 0.66262716 -0.8217602 -1.962185 -0.14349985 0.7738615 0.040943574 0.92062074 -1.1051023 0.352619 1.7216563 0.38566303 -0.6855436 -0.9615862 -0.25850862 0.67464817 -1.2457746 1.138849 -1.0726422 -0.9946552 -0.26481327 -0.26648295 -0.18266231
-0.93959486 0.64945894 -0.27479815 0.12641335 0.81520474 1.6523683 0.5489409 -0.610582 -0.41928053 1.0885979 -0.022973403 0.7704536 0.40111306 0.4480774 0.26781473 0.37915137 -0.31320834 0.333458 0.7288771 0.65879166 -1.0995377 1.2753351 1.1253889 -0.024823911 -1.974959 0.050026953 0.14129826 0.25964567 -0.5080132 0.6102284 0.06421498 0.4446605 -0.5877974 -0.54098046 -0.95049256 -0.3493401 0.23108414 -0.5662096 -0.07706202 0.63357407 0.29242435 0.19680686 0.13990428 -0.11881181 0.1839105 0.6956942 -1.0597516 -0.8913933 -0.63941365 0.5175579
0.04074017 0.00054973783 0.49275625 0.0673562 0.9385853 -0.48459217 -0.41157028 -0.48726028 -0.13324407 0.89843315 1.5554068 0.12875506 0.3793628 0.9347558 0.7201711 -1.1286075 0.20739873 0.45576262 -1.0545981 0.14810291 -0.4256911 -1.0265796 1.1766015 0.33969823 1.0193634 0.1343708 0.5135661 -0.75798196 0.5158916 -0.14512888 1.7716208 1.6067472 0.83082116 -0.70632154 1.3156265 0.35627586 0.059982244 0.23802768 -0.25318325 -0.056468964 -0.45273274 0.8652552 0.8883201 0.21484618 -0.85493267 1.0564302 -0.28923458 -0.35779816 0.034324 -1.1920781
-1.3649111 -0.15708368 1.4211752 0.39156264 1.6496853 0.4938114 -0.5462401 -0.8928624 -0.5322821 -0.47998634 0.85898817 0.8656027 0.18992959 -1.5634913 2.1378887 -1.6911544 0.9016101 0.49229965 0.12431584 0.21937977 -0.7984434 0.7202398 1.4620928 0.8096619 0.94667476 0.40726283 -0.6338074 0.63607067 0.49430725 -0.4948221 -0.06752328 -0.79932404 0.25528145 0.79895633 1.1794647 0.64068705 -0.20321567 0.49478945 -0.8568407 0.45515266 -0.061895896 -0.09484687 -0.4706875 0.10038599 -0.15904625 0.5349331 1.1493356 1.5099843 0.46318468 -1.9096613
-1.459267 0.7570866 -0.3833684 0.28046113 -0.100036316 -0.711798 -0.19547653 0.31398502 0.6386926 -0.48396263 1.1881461 0.13029711 -1.55348 0.24453299 -0.57780546 0.6650633 -0.19143076 -0.28870502 -0.20346588 -0.81028944 0.41710895 -1.2803073 -0.67479116 -0.1975364 0.50309217 -0.78370535 -1.0172975 0.7629432 -0.8379236 -0.39682034 0.6480128 -0.67152643 2.3417113 -0.47281742 -0.2544234 -0.053730667 0.53468186 -0.2573496 0.8278337 0.8902735 -0.85515654 -1.0556166 0.13903165 1.3762515 0.8569201 0.30535468 0.95569044 1.406018 -0.7262244 0.018880242
-0.20720214 0.36134446 -1.2632706 -0.4815181 -0.54125494 -1.149984 0.04867861 -0.009442333 -0.9636179 -0.39876062 1.0774145 0.48446858 0.024891796 0.3392053 0.81651694 0.49026898 -0.016472777 -1.5886989 -1.1105475 -0.6858081 -0.9734493 -0.59238654 -2.4288578 0.6468658 -1.299362 2.0920641 1.3535877 0.009998893 0.21339133 -0.48503563 0.35524714 -0.66122997 -1.3843163 2.0676749 0.42813122 -0.8377353 -1.3624585 0.21602279 -0.051880106 -0.53664094 -0.63839275 0.40703413 0.7752532 0.58457005 0.7850101 0.13417676 0.60203904 1.0467168 -0.9923773 -0.6695912
0.2702375 -0.44043997 1.0549608 -0.2933955 0.26987627 0.27980632 -0.013924522 0.5611991 -0.29876304 -0.8314797 0.88236845 0.58630925 -0.746831 0.17014562 -1.1575607 0.994808 0.44037366 0.5158126 -1.9704473 0.8970713 0.06840159 0.5264597 -1.6023207 -1.4353926 -1.3491685 -1.3388996 0.86276245 -0.7131352 -0.35312024 1.5389985 -0.19182669 0.106435455 -0.6668024 0.4581197 2.2280164 0.21668644 0.6439629 -0.41357735 0.6167825 -0.28109288 -1.309349 -1.1709574 0.16147706 0.36448961 -1.2704068 -0.5356827 0.20674008 0.5941886 -0.014792648 -0.64352846
-0.6349041 -0.07500347 -0.43840533 -0.15745299 -0.6673399 1.3527086 0.6073534 0.43858895 -0.3658486 0.9140381 -1.0094829 0.32843977 -1.2477831 0.8594363 -1.2124451 2.0906773 0.44740775 1.3424674 1.5905648 -0.014743744 -0.02083655 1.371948 0.758532 -0.09917292 1.1302644 0.2106747 0.62070245 0.32019705 0.6600741 -0.5869761 -1.9213774 -2.051987 0.79883593 -0.9689232 1.347788 -0.26353025 -0.97671556 0.9049266 0.121880405 -1.0574765 -0.18616687 -0.55073327 0.46648392 -1.1290948 0.08160422 -2.1547978 0.28440893 -0.35493106 1.3426889 1.1681204
0.8952779 0.21960327 0.24556516 -0.9379208 -0.94082886 0.88544506 -0.12783478 -0.27438897 0.7605268 -1.1774992 -0.5684656 0.98736 1.4419924 0.12450867 0.9198902 -0.045241117 -1.2568842 0.4524166 0.0796651 -0.40699005 -0.50833267 -0.29545632 -0.0079613235 0.31082758 0.96080744 -0.35016719 -0.29055697 -0.026440363 0.18171081 0.33920515 -0.8479646 -1.0547874 1.658144 0.5694365 -0.06438624 0.9949248 -0.13004345 -0.03654083 -0.21408194 -2.077412 1.105595 0.19025323 0.10594626 0.5419824 0.23623767 0.07577091 -0.95820683 -0.2103461 0.5150667 0.09792042
-0.3951035 -0.84173197 -0.030507527 -0.18114135 0.32091117 0.83804995 -0.61562645 -0.29284188 -2.0012357 0.63882 0.62334615 -0.3226675 0.5537076 0.31507912 1.0098842 0.40567896 -0.6160262 -0.17366776 0.80036676 0.60859233 -0.89035416 0.3973773 -0.44280514 0.11730316 -0.6618966 0.511549 -0.6699343 -0.5230832 0.49561265 0.09109451 -0.8098985 -1.9999058 -0.29777044 0.7745492 0.32331324 2.1509352 0.27861905 0.683235 0.31699455 -0.19670461 0.35572743 -1.4286183 -0.6010434 0.48833305 0.20505203 -0.11667315 1.6115375 0.123058185 0.1268503 0.839618
-0.6546119 -0.11895454 0.38730258 0.7348151 0.6220288 1.2730986 0.042126995 -0.3313839 0.3222544 -0.38801733 1.449579 -0.43696824 0.18269545 -0.9067159 0.98877615 -0.15455092 -0.24256904 0.7699544 1.217027 1.0211116 -0.10453706 -0.43763778 1.7703176 1.001279 0.6134399 0.39022803 -0.3556257 0.5518025 -0.95028454 0.055178326 -0.8579971 -0.37245697 -0.49240762 0.051525194 -1.9426208 -0.86868656 0.6513232 -1.2281717 0.0674341 0.3795759 1.0482209 0.33166367 -0.31312332 0.30341488 0.017975308 0.1988356 0.9772289 -0.34053302 -0.42065176 -0.34695554
-0.18071383 0.4869458 0.6422836 -0.9379517 -0.52443546 -0.074477986 -0.27816734 1.2198602 -1.4711845 1.0839163 1.2886982 0.30859163 0.08906849 -0.8325437 0.9914746 0.8373647 0.24529918 0.3860886 -0.1151163 0.7031387 -0.39697587 0.41314027 -1.0810716 1.9123818 0.54734 -0.087348126 -0.07051783 -0.5821123 0.73516965 -1.6613951 0.5686202 0.90143794 0.31976667 0.15993504 0.20851746 1.217217 0.8351517 -1.5475802 -0.6957619 0.9534488 -0.72438914 -0.28418922 1.5190185 0.38172892 -0.7887752 0.46513358 0.8024293 0.659388 -0.45753223 0.069611825
-0.26800737 -0.92998683 0.51000047 -0.68445903 -1.4888557 -0.5913141 -0.26046616 0.63219064 -0.4862249 -0.07488885 -1.6013305 -1.6730253 0.4840546 -0.32672936 0.5702617 0.7712086 0.15569963 -0.7973968 0.18824561 -0.25736454 -1.1558902 0.42669386 -0.65213907 -1.1118221 1.0048689 -0.3560867 -0.89052814 0.9113389 0.59807944 0.011795204 1.3699476 -0.2881853 0.98064375 0.30150428 0.70473456 -0.65800685 0.12524596 -0.7075376 1.4369879 -0.031627685 -0.44155893 -0.5324992 -0.6925323 -0.74533314 0.49064744 -1.2793032 0.16336153 0.5957766 1.0796542 0.7875433
-0.9815 -0.402603 0.21759553 0.54536265 0.61079806 -1.6978692 0.5827988 0.37465888 0.9256799 -0.042300854 0.67509335 0.47376606 -0.636568 -0.06224056 -1.4131168 0.2096081 -0.43967012 -0.067118 -0.3627802 0.6701869 0.29995126 0.6568926 -0.5959822 0.058705907 0.88606554 0.109396026 0.33328804 0.75725937 1.0433028 -0.34605736 0.051798757 -0.79203147 -0.03721004 1.3693045 2.0867178 -0.59015286 -0.8440788 1.6440017 -1.1928312 -1.051499 -1.5613663 0.04014228 0.47938865 -0.88219696 0.39949048 0.008687532 -0.08591944 1.7215213 -0.32608786 -0.7762682
-0.94446033 -1.0944892 0.5007812 0.11011884 -0.81676954 0.19757539 0.74323356 -0.3695576 0.7050312 -0.144586 0.5308139 -1.4644659 -0.26397136 -0.032799337 0.39797607 0.9276063 -0.41073722 0.05015357 0.7715998 1.5759323 -1.1518806 1.2959994 -1.4034328 -0.04544679 -0.01173467 -0.34101135 -0.48690432 0.5194667 -0.50478446 1.0907233 -0.22524682 -0.4518158 0.9775579 0.14589022 0.40523416 -1.6481769 0.115320124 -0.98174804 0.7028701 -0.39333382 -0.99104226 -0.08761798 0.787825 -0.13869153 0.28750062 -0.82763374 1.1399118 -0.06732029 0.87415665 0.041376647
0.6052614 0.42763606 -0.82581973 0.7786572 0.20643081 -0.83739936 1.1289387 -0.35013625 0.8947969 0.5830842 0.2710238 1.1288952 1.3478664 0.29655328 -0.7090392 0.036935132 -1.585502 0.261784 0.09189284 -0.108488165 -0.30655277 -0.5983061 -0.28543067 -0.3715853 -0.42022556 1.0182091 0.034773566 0.83936083 0.33582592 -0.46369436 0.90706867 -0.40007585 -0.46628648 0.67240655 -1.2354295 -0.20233333 -1.2812675 1.6648315 -1.0629383 0.10539665 -0.46476722 2.2225666 -0.7193307 -1.5135795 1.0599309 0.30204603 0.4286425 -0.52075374 -0.6544268 0.29864484
0.03470588 1.6123186 0.23557292 1.0822197 -0.49857616 0.04242174 -1.1912812 -0.080306515 1.0831242 -0.52323425 -0.42002222 0.00939227 0.4015939 0.7773998 -0.05796594 -0.8842444 -0.39173165 0.19149736 -1.5575073 -0.13176258 1.0657339 0.53408873 -0.4879499 -0.6723657 -0.2699421 0.0985905 -0.3719182 -0.19638602 -1.3148955 1.114956 0.6594303 0.88166744 -0.19295236 -0.11307944 -0.005968174 0.8613681 -0.2223777 -0.04733873 -0.12062271 0.33170813 0.7282924 -0.15086424 0.5782975 0.12599789 -1.0958782 0.13704616 1.0638285 -0.06468909 0.52054745 -0.4352774
0.06353177 0.004169787 -0.11600892 0.5975082 0.83324236 -0.4447307 1.0713785 1.0488238 1.1983078 -0.58886474 0.08843539 0.14813846 0.25901663 -0.5367892 -1.7272799 0.38037363 -0.5706993 -0.26285192 0.4878162 -0.34868184 -0.21350734 -0.366637 0.17243108 -0.49306792 -0.4557836 1.3309292 0.31449202 0.6360894 -0.55250347 -0.50722307 0.87456167 0.8570665 -0.68500894 -1.1648368 -1.1788973 -0.042772952 1.0526463 -0.1962887 -0.79866874 -1.7521656 -0.5556876 -0.7537848 -0.811353 0.5465725 -1.1477591 0.582772 -0.047875345 -0.58437836 -0.208608 -0.21972439
0.49595988 -0.33471385 0.686437 -0.21315785 -0.7613423 -0.021027531 0.08221714 0.40013984 -1.3625066 0.5253431 -0.58400744 -1.2206535 -0.3120729 0.1293629 -0.32229656 0.468774 1.422362 -0.568646 -0.8400847 0.93122315 -0.27662626 0.35058105 0.1294472 0.70986795 0.48776427 -0.6299297 0.65491045 -0.26149833 0.73355544 -0.37570113 -0.41508788 1.3178506 0.52030265 1.056639 -0.8640193 0.016186556 1.2237132 -0.80350065 -0.024907338 0.18228592 0.49246857 -0.6642216 0.10051934 0.46240398 -0.5662201 1.1089929 0.264659 -0.21081613 -1.2578126 0.8065703
0.18319403 1.5017227 0.4828425 0.88889426 -0.97953063 0.2101108 0.08245301 0.5319775 1.0898726 -1.5211302 0.5637436 1.1471841 -1.1154798 -0.86776817 -0.81438166 -0.0059276964 -1.2950706 0.15641382 -0.552788 -1.0124366 0.6526777 0.0047230166 0.113732725 -0.46436226 0.2721911 -0.41947767 -0.78020304 0.23729804 1.7738651 -0.16529559 -0.61769605 0.2585444 0.41124797 0.15790147 0.50037783 -0.30006018 -1.6842206 -0.16506076 -0.33702976 -0.72398525 0.046100713 0.5946196 0.46935555 0.06659259 -0.23467332 0.36226553 0.18133517 0.570628 -0.19819316 -0.17207019
0.5587547 0.16442496 0.8036468 0.13146155 -0.60743594 -1.0370667 -1.0101111 0.28276858 -0.31021675 -1.9686141 -0.66049165 1.5267957 -0.06451978 0.79390574 0.1007369 0.98786587 -1.2226713 0.45839438 0.1369558 0.5776659 1.0673623 0.42882386 0.67744255 -0.16161068 1.359655 -0.7559844 -1.1876729 -0.38820583 0.89352304 0.69985706 -0.29365432 0.09797457 0.71302634 -0.76312023 0.062153522 -0.9853662 -0.33739743 1.1002059 0.5730542 -0.003532424 0.07109149 -1.1532663 -1.1713616 -0.13670246 0.005365772 0.80821234 -0.9482195 -0.31167796 -0.39118126 -0.5955709
0.3706539 -1.4935603 -0.6593208 1.6191486 -1.0295311 -0.16575052 2.0364885 0.25194868 -0.18562908 1.4153181 -1.6675377 -2.2449057 -0.55177927 -1.8293473 -1.2089994 -0.43954688 1.2051567 -1.1590068 -0.16516821 0.40947247 0.4206796 -0.18133819 -0.65466803 -0.24271767 -1.0418625 -0.501138 1.120319 -0.27025512 -1.7064137 -0.90813893 -0.39679614 0.67394423 0.5906972 -0.013719154 0.1842301 -0.52271676 0.3248678 -0.36828944 0.32240137 0.25520653 -0.34742913 0.043553937 0.024795659 -0.15485258 0.27895474 -1.4878445 0.68690985 -0.5812751 0.027821414 0.3302736
0.9488441 -0.40238318 -0.46278787 -1.9661759 0.7060351 -0.4322198 1.9356219 0.77480406 -0.45542598 -1.9138829 0.5280841 -0.20369841 -0.34586498 -1.0398679 0.13904883 1.542008 -0.7493249 0.22064045 0.8332443 0.40594447 -0.57093143 -0.51060194 -0.039553344 0.33334634 -0.45273578 0.39522988 -0.95491195 -0.85305953 0.7992099 -1.0171013 -0.25742546 0.1065494 0.7124508 -0.60902524 0.58961326 -1.1378284 -1.0156496 1.1119189 -0.48240018 -0.51786256 -0.08751939 1.3112803 0.6999167 -0.8209866 -1.145396 -1.1970509 -0.03225905 -0.33010784 -1.5035945 0.19134569
-0.28224328 0.6160841 -0.99533874 0.24970883 0.24512297 0.06870668 -0.39866188 1.3337116 -0.05294392 -0.6549195 0.20154998 -0.3960973 -0.51926345 1.1448342 0.12544523 1.4861279 0.08108267 0.42229176 -0.17290306 -0.71773666 -0.9534005 -0.6758958 -1.2371483 -0.46653214 1.4961562 -1.542602 0.033092245 -1.1631616 -0.36732662 -0.56705946 -0.33082625 0.3802047 0.9416779 0.3955673 0.06710876 -0.08546989 -0.4570304 0.41622713 -0.016167399 0.041793037 0.11298487 0.08672926 1.0345325 -1.6073719 -0.03434696 0.6396744 -0.65236616 0.2972855 0.54129964 0.044495862
1.3465683 -0.06323221 0.600603 0.41689727 0.3035142 -0.99759626 1.0681856 0.44181544 -1.832099 0.21248014 -0.5080238 -1.3524457 -0.58010286 -0.33875248 -0.5899001 0.25092882 0.44014308 -0.8149411 0.74438035 -0.3428105 -0.47250837 -0.024665786 0.18930775 -0.54507667 -1.6977365 0.024717607 -0.89341277 -1.0968236 -0.48340005 1.1707479 1.2094386 0.60681903 -0.30804688 -0.0084751975 1.0461732 0.19527575 -0.5181849 -0.18099843 0.09111958 1.2901517 -1.2590708 -0.5193357 -1.1359526 -0.23255979 -0.82502645 -0.674266 -0.13568644 -0.24576025 0.75149035 0.014392657
-0.21446651 -1.0763965 0.035130177 -1.6716688 -0.72110426 1.2257128 -0.28607768 -0.9725974 0.6245428 -1.271222 -0.65648663 0.16703449 1.1241543 0.95658034 0.74099934 -0.32010782 -0.5086405 0.9571779 -0.7911202 -0.9717926 0.51949096 -0.89263225 0.02171803 1.1454836 0.5529497 1.1984729 1.0541551 -1.0411413 0.19790737 0.5568307 -0.28247574 -1.2925513 -1.083846 0.5413223 -0.3007598 0.16540062 0.6838655 0.6167038 -0.01520457 -0.23849666 1.1247703 0.9450685 -0.6331291 1.1451321 0.5109528 -1.4302584 -1.4083166 -1.2721903 -0.8169249 -0.6331638
0.32389376 -0.7731782 -0.3026287 -1.5789238 -0.2960068 -0.17840527 1.1651772 -2.894895 0.114787735 1.7176017 -0.14869304 -1.2669741 -0.013121566 0.56144375 0.06293996 -0.60087806 0.17777935 1.1663203 0.512248 0.5767161 -1.6129893 0.33879963 -0.23872133 0.39770445 -1.489507 0.013547105 -0.10845666 -1.0927798 0.79412735 -0.59773004 -1.3694162 -1.1418642 1.292837 0.49169016 1.3511477 -0.67952245 -0.34212825 0.42898303 0.13708691 -0.7664056 -0.16102512 -0.5440569 0.50529563 0.31747314 0.19445547 -0.29215267 0.31943187 -0.5195412 0.20892096 0.6287713
1.3107752 1.7492311 0.15666999 1.1654581 1.6654673 0.79853654 -0.22854221 0.31715736 0.17676042 0.94393456 1.277343 0.90742075 1.0876595 0.46826 -0.27564046 -0.69488215 -0.19249073 0.19367804 0.6088016 -0.72022575 -0.18259917 -0.9498148 -0.9197413 0.5463889 0.50672346 0.2515911 0.1610636 1.3933262 -0.9896077 1.1929452 -0.64626163 -1.4137937 -0.38534442 1.652767 0.1458566 0.85116786 -0.44701272 0.2245336 -1.7794353 -0.5424037 -0.073167905 0.03510337 -0.5287621 1.4675589 0.36643568 0.2747342 0.43342832 0.3075513 0.8005957 -0.9092097
0.8627242 0.2871058 -0.86796856 0.23318563 0.03065058 -0.31091633 0.3813452 -0.30093735 1.0137022 0.11175378 1.0310081 -0.23232035 -0.13937545 -0.76471627 -0.711125 0.685228 -0.12055422 1.1598831 -0.14814883 -0.4530422 -1.808509 -0.0038738747 0.3994666 -0.19692175 0.032327168 -0.60584587 -0.10088578 -1.1699277 -0.4463246 -1.4009751 -0.6533616 0.56304693 0.41755742 -0.40196207 -2.0920844 -0.97899055 0.14673878 1.6000406 0.96843505 0.56039053 0.14071089 0.1922511 -0.26469034 -0.7762314 0.8384114 0.103576384 -0.4701892 -0.6798503 -0.43956745 -0.0994013
-0.33537698 0.6124223 -0.0044412543 -0.79993105 0.10952318 -0.24266054 -0.78991455 -0.27423912 -0.16423559 -0.42363462 0.23945777 -0.97298664 -0.35045376 -0.49818072 0.8793462 -0.85900307 0.15066609 -0.20007452 -1.6188399 -0.008113485 -2.4893436 0.69856226 0.986142 -0.44973296 0.5546693 0.7773886 -1.534621 0.4180779 -0.7541693 -1.9129786 -0.88136786 0.5466707 1.1552863 0.31216857 -1.6583152 -1.7937677 -1.086469 -0.27742922 1.1425682 1.2049662 -0.68131846 0.3588221 -0.5108568 1.9022521 -0.5333618 -0.30808777 0.6963494 0.11403179 1.7632444 0.24963033
0.31899798 -0.73727113 -0.95532817 0.39062375 -0.69637305 0.06369992 -0.13690625 -0.53925765 0.41581258 1.4495217 -0.52244735 0.14948192 0.0065480596 -0.44135088 -0.31828445 -0.16950348 0.2310354 0.77876925 0.103567176 -0.28198603 0.2630063 0.0815776 -0.27995482 -0.34841567 -0.692325 0.35529804 0.39011532 0.09988434 0.5718401 0.69001657 -0.018626671 0.42973208 -0.7065013 0.35726714 -1.3715795 1.8264334 -0.0962777 0.32522562 0.35624886 0.5475283 1.5021411 -0.3689184 0.14113812 0.038738918 1.2467613 0.1542078 -0.46775445 0.42758673 -0.9082372 0.45456824
0.5059663 0.41717172 0.71962386 0.21562062 0.7361427 0.047381423 -0.38534564 0.17707838 -0.61780566 0.55282223 0.2678733 -0.05545359 0.69345134 1.029969 1.0100907 -0.31217086 0.18589711 -0.23173246 -0.79245883 1.9762505 -0.39744708 0.90078473 -1.2856628 0.18515678 -0.3591282 -0.12901357 0.5244197 -0.43263617 -0.7295132 0.019265879 0.7199449 1.7532285 -0.13795477 0.09840858 1.1625919 -1.2642143 0.8038408 -0.4890316 0.11706155 -0.22700249 -1.5243474 0.730528 0.4042356 -0.4187825 -0.9246322 0.2623814 -0.70853275 0.009337078 -0.03498489 -0.041399855
-0.16293724 -0.5920595 -0.73030233 2.0068235 -1.2301393 0.7811337 0.5752741 -0.060461942 -0.31354788 0.06832784 0.63791806 -0.12328189 -1.4755747 0.14006643 -0.34494668 -0.86539054 0.20310569 -0.29683682 -0.00017362896 -0.7101934 0.40539077 -0.23549475 -0.051268507 -1.3529011 -1.1762551 -0.67919576 -0.034120176 0.40853524 -1.1514128 -0.10096194 -0.4202738 -0.31849775 0.47168908 0.52084565 -0.4181366 1.8146905 0.4363272 -0.46240577 -1.0745244 1.0383959 0.52094054 0.5239736 -0.34470972 0.41264224 0.69466215 0.7735046 -0.47670496 -0.501785 1.1051984 -0.70842034
1.3557739 0.81609774 -0.022186099 0.030368634 0.9305171 0.9901316 0.3813388 -0.17307587 -1.1757494 0.796798 0.22874317 -0.26693287 0.775037 0.08846009 0.3349187 -1.1492534 1.6914963 0.015052655 -0.14937766 -0.38183022 -0.19360183 -0.13615444 0.33462998 1.5338391 1.3225738 0.30418876 -0.6887752 -0.055894285 0.52650005 -0.40207303 0.65148556 -0.09907838 0.41851336 0.113297895 -0.16410242 -0.16791448 -1.366683 -1.0129112 -0.39501125 0.338388 -0.3429721 1.0006166 0.5818413 -1.005276 -0.8999023 1.0911181 0.27271667 -0.015343294 -0.26007435 0.30672953
0.80905855 -0.96022546 0.28289804 -0.87490726 0.14927308 -0.20403464 0.56907535 -0.8657854 -0.60553354 -0.39044973 -0.24131323 -0.36297593 0.316649 0.70473975 -0.28974998 -0.22183649 -0.26209587 -0.26065278 0.28008854 0.58907163 -0.29306155 0.70215034 -0.5891034 0.71371096 -0.28886253 1.4410387 1.1285177 1.0510142 -0.1309207 -1.2630495 -0.45753962 -0.5982481 -0.36866012 1.2032806 0.13563475 -0.44219053 0.62153894 -0.11732002 -1.1825852 -1.4241678 -1.2244115 0.24931583 -0.3031069 0.28115174 0.46186727 -0.39351702 0.6424272 0.27788487 -0.24402109 0.53823525
0.087624446 0.86150455 0.23637274 0.39159548 -0.5784339 -0.5117247 0.33718458 -0.12125282 -0.69449085 0.89218736 0.16883497 1.2089411 0.30026665 0.03834763 -0.714839 -0.84355456 2.3329327 1.4894576 0.54139423 1.5073425 0.36844578 -0.3570411 -0.5864366 0.65280503 2.5962613 -0.12447767 -0.8072501 -0.0359463 -0.36364445 -0.3527637 -0.38253522 -1.6847359 -0.7899151 -0.4650592 -1.817515 0.70482975 -0.8173761 0.3974204 0.12281575 1.460264 0.89352167 0.5999577 0.05319439 -0.654178 -0.12121473 0.5075477 -0.1462261 -0.14950883 0.2413725 0.42976698
0.33308974 -1.277653 0.69549763 -0.59024465 -0.2950069 -0.76838756 -1.6397337 -1.4154128 0.083894275 -0.33870924 -1.3073556 -1.3400449 -0.093031876 -0.07475022 1.0469961 -1.627075 0.9141835 -0.8448084 0.97265196 -0.8218029 -0.7627535 0.91276443 -0.009898164 0.42722428 0.57553095 0.13598053 0.7236294 -0.39656526 1.3022734 -1.1443688 -0.20654787 -0.13436814 -0.6206405 0.52858996 0.41551113 -0.13450207 0.09339717 -0.78673154 -0.71571803 -0.251135 0.33925128 -0.71055853 -0.84534323 -0.7682744 0.39617547 0.8643709 0.47969845 0.043902002 0.72227633 -0.23688939
-1.1659198 -0.73297065 -0.5566994 1.2270691 -0.35869983 0.28850842 -0.5856429 0.8498924 0.8998374 0.83046854 1.6240144 0.44381362 -0.09596579 -0.44038203 -0.14492162 1.343821 -1.7945765 0.21759449 0.08147249 0.19207537 -0.82575434 0.11935067 0.85146576 0.3995951 0.24725258 0.53351593 0.16620953 -0.5749177 -0.34318754 0.5635163 -0.07574808 -0.21519025 0.2024915 -0.036215477 -1.7166048 0.081183314 -1.4454136 -0.115452796 0.644573 -0.07885295 0.74847525 -1.1247194 -0.17659934 0.46819162 0.21069904 1.0137107 -0.82802975 -0.516524 -0.46230352 -0.47945207
0.20125821 1.1508828 0.70208603 -1.2866403 0.61552817 -0.9303449 0.16523667 -0.99036986 -0.44064423 0.61972195 0.2708542 0.6760455 -0.34052768 0.5149147 -0.18596645 0.52385765 -0.548416 -0.84417903 0.51284784 0.35462272 0.21651946 -0.6723996 -1.4625969 -0.050469406 -0.5918077 -0.835901 -0.18803872 0.36716864 -0.1319236 0.7120834 -0.0066756257 -1.1528885 -0.4358446 0.32016733 -0.4217651 -0.18175969 0.48479882 -0.82564235 0.5891069 -0.10762436 -1.7209189 0.09683019 -0.7171986 -0.4364975 1.3393415 0.4412488 0.51179045 -0.00066142617 -0.25217798 -0.23614016
-2.4752574 -0.27671877 -0.2531342 0.38778624 -0.0033015148 0.4896547 -1.0058123 0.18755177 -0.13792996 -0.6578689 1.8010519 -0.23639444 -0.70693934 -0.019606289 0.7254649 0.2185792 -2.313992 0.8154149 0.08850701 -0.20318978 -0.21803863 0.1894138 -1.9041667 -0.40631154 -0.30551076 1.1125963 0.22841688 -0.3135812 0.19097473 -1.0176382 -1.1885116 -1.4088258 0.039200768 1.4580399 1.1146631 -0.35372534 -1.243447 1.2696146 -0.88609475 0.47623366 -0.61581653 -0.618861 -0.27108926 0.94060636 0.5605282 -0.65964395 -0.78845614 0.24897265 0.52033955 1.0380613
0.58318025 -0.8729259 0.85318565 0.46663728 0.3520905 0.48143148 -0.30077028 0.050094534 0.083760805 -0.36565205 1.7318501 0.25866705 -0.04682773 -1.6329458 0.8293703 -0.23238328 -0.6126893 -0.40914264 0.4025243 -0.39519584 1.3201767 0.13387795 -0.55263025 0.5495815 0.48144603 0.44894913 1.5815388 0.13923371 0.14727414 0.47138545 0.29612175 0.23771158 -0.6986725 -0.40700144 0.59260774 -0.041039214 0.5353014 0.052963026 -0.014417195 -0.93714154 -0.54842824 -0.73551565 0.1661784 -0.9654488 0.9179146 -0.45898637 -0.35647696 -0.5699718 0.1634689 -0.535776
0.279484 0.050429624 -0.022584831 0.7598793 0.2158132 -0.36876658 -0.5450941 -0.6374532 1.1263484 0.36615464 -0.391124 -0.33455223 0.8384957 -0.25927714 0.46164042 0.06120057 0.76394886 0.16509086 -0.6455423 1.027283 -0.39252967 0.7461247 -0.23201413 0.09607086 -0.2380845 -0.6802932 0.06855142 1.6614507 0.28856775 -0.018783092 0.8672636 -0.040809143 0.5972438 -0.010609409 1.0904206 0.10718252 0.15204759 0.5961405 -0.10577607 0.5606194 -1.1757723 1.0102059 -0.93178755 -1.3294096 0.12531994 -0.057130385 1.1135657 -0.83393806 0.20809826 -1.2761796
0.73501605 -1.7378955 -0.44050646 0.13523458 -0.0132202925 0.58126825 1.0199519 -0.10052513 0.021923497 -0.5878454 -0.36930922 0.5513281 1.1712985 0.3095365 -0.83468914 0.4525522 -0.3347288 1.0903689 0.45519775 -0.3977531 -1.1081995 -0.01908426 -0.38914087 1.0412524 -0.029269358 0.98294073 -1.4017382 -0.23408876 0.19513458 0.11039399 1.0202427 -1.092883 -0.9052629 0.98143244 -1.3001547 -0.33527103 -0.505364 0.054474585 0.841146 0.40580854 -1.5661066 0.15613064 -0.22901203 0.012822914 1.232155 -0.2998024 -0.6701281 1.0915612 -1.7479494 1.0649103
1.0995929 0.57789963 -0.12402262 0.8940483 -0.89809465 -0.31452557 -0.10578598 -1.7441522 1.0363727 0.11514956 -0.35565743 0.20774826 1.1155385 0.68384886 -0.1824923 -0.46652266 0.9147699 0.72469836 0.9888834 -0.95936936 1.0180379 -0.84072566 -2.0467787 0.11379766 -0.27275962 -1.87679 -0.19897611 -0.7618562 1.0967658 1.698789 -0.08597139 -1.0665569 0.5695528 0.7145515 1.0793054 -0.051755387 0.9309707 0.46525213 0.60555565 -1.1383884 -0.06063565 -0.45613858 -0.16195272 -2.2362852 1.2622542 0.8390023 1.2897918 1.1811216 -0.9376812 -0.47651964
-0.24379034 0.09308063 0.27421582 1.5246091 1.8933399 1.4157389 -0.018459981 0.33645713 0.23670746 -1.309001 -0.77852017 0.90037596 -1.1716796 0.76345134 0.5964776 0.9045734 0.076135635 -0.29507545 0.46431783 -1.2590761 -0.4353258 0.37839472 -0.93949544 -0.75162596 0.14059433 -0.5247761 -0.27216274 1.2686228 -0.8697136 1.6519487 -0.34755835 -0.23942734 -1.0239431 2.157984 0.9993955 -0.9848371 -0.20007978 -0.43427056 -1.5546918 -0.7698733 0.1458517 -0.7721833 -0.4204553 -0.46649548 0.6306713 0.63455325 0.5816753 -0.102236435 -0.13525143 -1.7958212
0.82300204 -0.36818698 1.7724907 0.19492303 -0.94698167 -0.8856581 0.13209316 -1.13056 0.62200046 0.6739643 0.95643204 -0.049620174 -0.9165833 -1.1839688 -0.87196445 -1.1008387 0.8221602 0.4895428 -0.6367487 0.2423761 0.48492974 -0.004359866 -1.0193714 0.80062443 0.58083504 0.8168072 1.605067 -0.4050302 0.30673906 -1.5786786 0.01314309 -0.01909347 -0.97938406 0.89142156 -0.8262987 -0.24644862 1.4111302 -0.44062418 -0.40774193 -0.2964218 -0.91900563 -0.8542623 -0.8086132 0.013867535 0.6094884 0.31837678 -0.05044438 -0.46427828 -0.3594088 0.62415975
1.249396 -0.35674468 0.09795266 0.849973 -0.19426113 0.42989683 0.24133313 -0.66092736 -0.35989922 0.6036669 0.21711655 0.081380576 1.4173505 0.42777777 -0.81137 -1.1307073 0.2692976 1.0310622 -0.90134287 1.1404917 -0.79564434 -0.09554922 -0.53368163 -0.49316555 0.798194 -1.6230937 0.37592268 0.31784886 1.0414329 1.4434055 -1.1322638 -0.2925485 1.3726465 1.6018854 1.3269762 0.21060665 -1.1400634 1.4270743 -0.9461621 0.115508236 1.334741 -0.59643346 0.5875337 0.6476368 -0.33169952 1.2979866 0.4096915 -0.31242058 0.7214854 0.47097772
-0.1655247 0.13527742 0.8579353 1.1075186 -0.47189745 0.2633073 -0.75682014 -0.3909218 -0.5033143 -0.8277162 0.013598517 1.1280636 -0.48026258 -0.15711649 1.6266816 -0.03914229 -0.6886143 -0.46553224 -0.027475633 1.2588036 -0.2917094 -0.14001603 0.67234325 -0.26998243 -0.3895865 -0.6474208 0.33683547 -0.44897228 0.41234404 0.2949321 -1.3445467 0.0049058804 0.81462747 0.46791685 1.4932067 -0.40254757 -1.1315112 1.5775102 0.49144208 -0.6234251 0.75012803 0.72122705 -0.95378107 0.6214828 0.19406094 -0.27144662 -1.0287112 -0.19605803 -0.713793 -0.6670968
1.1829778 0.058108803 0.4823067 0.22149695 0.43966258 -1.3189921 -0.74194807 0.5924123 1.1821228 0.70984656 -0.82106435 0.042095236 -0.16472577 -1.9721107 0.75760704 -0.31665823 -0.8500149 -1.3379631 0.14867921 1.4350815 0.55966693 -0.13006939 1.237714 0.43494967 0.80392945 -0.62260854 -0.80981356 0.8213342 -0.21535607 -1.7846364 0.39875928 0.2652068 -0.34214365 -0.8243874 0.59034383 1.2104423 -0.82225853 0.27466658 0.013289569 -0.30502817 -0.03438134 1.0426109 0.76619244 -1.601077 -0.033497676 -0.5697166 -0.23013566 -0.47942278 1.470924 0.9418959